{"learner":{"attributes":{"scikit_learn":"{\"_estimator_type\": \"classifier\"}"},"feature_names":[],"feature_types":[],"gradient_booster":{"model":{"gbtree_model_param":{"num_parallel_tree":"1","num_trees":"1000"},"iteration_indptr":[0,1,2,3,4,5,6,7,8,9,10,11,12,13,14,15,16,17,18,19,20,21,22,23,24,25,26,27,28,29,30,31,32,33,34,35,36,37,38,39,40,41,42,43,44,45,46,47,48,49,50,51,52,53,54,55,56,57,58,59,60,61,62,63,64,65,66,67,68,69,70,71,72,73,74,75,76,77,78,79,80,81,82,83,84,85,86,87,88,89,90,91,92,93,94,95,96,97,98,99,100,101,102,103,104,105,106,107,108,109,110,111,112,113,114,115,116,117,118,119,120,121,122,123,124,125,126,127,128,129,130,131,132,133,134,135,136,137,138,139,140,141,142,143,144,145,146,147,148,149,150,151,152,153,154,155,156,157,158,159,160,161,162,163,164,165,166,167,168,169,170,171,172,173,174,175,176,177,178,179,180,181,182,183,184,185,186,187,188,189,190,191,192,193,194,195,196,197,198,199,200,201,202,203,204,205,206,207,208,209,210,211,212,213,214,215,216,217,218,219,220,221,222,223,224,225,226,227,228,229,230,231,232,233,234,235,236,237,238,239,240,241,242,243,244,245,246,247,248,249,250,251,252,253,254,255,256,257,258,259,260,261,262,263,264,265,266,267,268,269,270,271,272,273,274,275,276,277,278,279,280,281,282,283,284,285,286,287,288,289,290,291,292,293,294,295,296,297,298,299,300,301,302,303,304,305,306,307,308,309,310,311,312,313,314,315,316,317,318,319,320,321,322,323,324,325,326,327,328,329,330,331,332,333,334,335,336,337,338,339,340,341,342,343,344,345,346,347,348,349,350,351,352,353,354,355,356,357,358,359,360,361,362,363,364,365,366,367,368,369,370,371,372,373,374,375,376,377,378,379,380,381,382,383,384,385,386,387,388,389,390,391,392,393,394,395,396,397,398,399,400,401,402,403,404,405,406,407,408,409,410,411,412,413,414,415,416,417,418,419,420,421,422,423,424,425,426,427,428,429,430,431,432,433,434,435,436,437,438,439,440,441,442,443,444,445,446,447,448,449,450,451,452,453,454,455,456,457,458,459,460,461,462,463,464,465,466,467,468,469,470,471,472,473,474,475,476,477,478,479,480,481,482,483,484,485,486,487,488,489,490,491,492,493,494,495,496,497,498,499,500,501,502,503,504,505,506,507,508,509,510,511,512,513,514,515,516,517,518,519,520,521,522,523,524,525,526,527,528,529,530,531,532,533,534,535,536,537,538,539,540,541,542,543,544,545,546,547,548,549,550,551,552,553,554,555,556,557,558,559,560,561,562,563,564,565,566,567,568,569,570,571,572,573,574,575,576,577,578,579,580,581,582,583,584,585,586,587,588,589,590,591,592,593,594,595,596,597,598,599,600,601,602,603,604,605,606,607,608,609,610,611,612,613,614,615,616,617,618,619,620,621,622,623,624,625,626,627,628,629,630,631,632,633,634,635,636,637,638,639,640,641,642,643,644,645,646,647,648,649,650,651,652,653,654,655,656,657,658,659,660,661,662,663,664,665,666,667,668,669,670,671,672,673,674,675,676,677,678,679,680,681,682,683,684,685,686,687,688,689,690,691,692,693,694,695,696,697,698,699,700,701,702,703,704,705,706,707,708,709,710,711,712,713,714,715,716,717,718,719,720,721,722,723,724,725,726,727,728,729,730,731,732,733,734,735,736,737,738,739,740,741,742,743,744,745,746,747,748,749,750,751,752,753,754,755,756,757,758,759,760,761,762,763,764,765,766,767,768,769,770,771,772,773,774,775,776,777,778,779,780,781,782,783,784,785,786,787,788,789,790,791,792,793,794,795,796,797,798,799,800,801,802,803,804,805,806,807,808,809,810,811,812,813,814,815,816,817,818,819,820,821,822,823,824,825,826,827,828,829,830,831,832,833,834,835,836,837,838,839,840,841,842,843,844,845,846,847,848,849,850,851,852,853,854,855,856,857,858,859,860,861,862,863,864,865,866,867,868,869,870,871,872,873,874,875,876,877,878,879,880,881,882,883,884,885,886,887,888,889,890,891,892,893,894,895,896,897,898,899,900,901,902,903,904,905,906,907,908,909,910,911,912,913,914,915,916,917,918,919,920,921,922,923,924,925,926,927,928,929,930,931,932,933,934,935,936,937,938,939,940,941,942,943,944,945,946,947,948,949,950,951,952,953,954,955,956,957,958,959,960,961,962,963,964,965,966,967,968,969,970,971,972,973,974,975,976,977,978,979,980,981,982,983,984,985,986,987,988,989,990,991,992,993,994,995,996,997,998,999,1000],"tree_info":[0,0,0,0,0,0,0,0,0,0,0,0,0,0,0,0,0,0,0,0,0,0,0,0,0,0,0,0,0,0,0,0,0,0,0,0,0,0,0,0,0,0,0,0,0,0,0,0,0,0,0,0,0,0,0,0,0,0,0,0,0,0,0,0,0,0,0,0,0,0,0,0,0,0,0,0,0,0,0,0,0,0,0,0,0,0,0,0,0,0,0,0,0,0,0,0,0,0,0,0,0,0,0,0,0,0,0,0,0,0,0,0,0,0,0,0,0,0,0,0,0,0,0,0,0,0,0,0,0,0,0,0,0,0,0,0,0,0,0,0,0,0,0,0,0,0,0,0,0,0,0,0,0,0,0,0,0,0,0,0,0,0,0,0,0,0,0,0,0,0,0,0,0,0,0,0,0,0,0,0,0,0,0,0,0,0,0,0,0,0,0,0,0,0,0,0,0,0,0,0,0,0,0,0,0,0,0,0,0,0,0,0,0,0,0,0,0,0,0,0,0,0,0,0,0,0,0,0,0,0,0,0,0,0,0,0,0,0,0,0,0,0,0,0,0,0,0,0,0,0,0,0,0,0,0,0,0,0,0,0,0,0,0,0,0,0,0,0,0,0,0,0,0,0,0,0,0,0,0,0,0,0,0,0,0,0,0,0,0,0,0,0,0,0,0,0,0,0,0,0,0,0,0,0,0,0,0,0,0,0,0,0,0,0,0,0,0,0,0,0,0,0,0,0,0,0,0,0,0,0,0,0,0,0,0,0,0,0,0,0,0,0,0,0,0,0,0,0,0,0,0,0,0,0,0,0,0,0,0,0,0,0,0,0,0,0,0,0,0,0,0,0,0,0,0,0,0,0,0,0,0,0,0,0,0,0,0,0,0,0,0,0,0,0,0,0,0,0,0,0,0,0,0,0,0,0,0,0,0,0,0,0,0,0,0,0,0,0,0,0,0,0,0,0,0,0,0,0,0,0,0,0,0,0,0,0,0,0,0,0,0,0,0,0,0,0,0,0,0,0,0,0,0,0,0,0,0,0,0,0,0,0,0,0,0,0,0,0,0,0,0,0,0,0,0,0,0,0,0,0,0,0,0,0,0,0,0,0,0,0,0,0,0,0,0,0,0,0,0,0,0,0,0,0,0,0,0,0,0,0,0,0,0,0,0,0,0,0,0,0,0,0,0,0,0,0,0,0,0,0,0,0,0,0,0,0,0,0,0,0,0,0,0,0,0,0,0,0,0,0,0,0,0,0,0,0,0,0,0,0,0,0,0,0,0,0,0,0,0,0,0,0,0,0,0,0,0,0,0,0,0,0,0,0,0,0,0,0,0,0,0,0,0,0,0,0,0,0,0,0,0,0,0,0,0,0,0,0,0,0,0,0,0,0,0,0,0,0,0,0,0,0,0,0,0,0,0,0,0,0,0,0,0,0,0,0,0,0,0,0,0,0,0,0,0,0,0,0,0,0,0,0,0,0,0,0,0,0,0,0,0,0,0,0,0,0,0,0,0,0,0,0,0,0,0,0,0,0,0,0,0,0,0,0,0,0,0,0,0,0,0,0,0,0,0,0,0,0,0,0,0,0,0,0,0,0,0,0,0,0,0,0,0,0,0,0,0,0,0,0,0,0,0,0,0,0,0,0,0,0,0,0,0,0,0,0,0,0,0,0,0,0,0,0,0,0,0,0,0,0,0,0,0,0,0,0,0,0,0,0,0,0,0,0,0,0,0,0,0,0,0,0,0,0,0,0,0,0,0,0,0,0,0,0,0,0,0,0,0,0,0,0,0,0,0,0,0,0,0,0,0,0,0,0,0,0,0,0,0,0,0,0,0,0,0,0,0,0,0,0,0,0,0,0,0,0,0,0,0,0,0,0,0,0,0,0,0,0,0,0,0,0,0,0,0,0,0,0,0,0,0,0,0,0,0,0,0,0,0,0,0,0,0,0,0,0,0,0,0,0,0,0,0,0,0,0,0,0,0,0,0,0,0,0,0,0,0,0,0,0,0,0,0,0,0,0,0,0,0,0,0,0,0,0,0,0,0,0,0,0,0,0,0,0,0,0,0,0,0,0,0,0,0,0,0,0,0,0,0,0,0,0,0,0,0,0,0,0,0,0,0,0,0,0,0,0,0,0,0,0,0,0,0,0,0,0,0,0,0,0,0,0,0,0,0,0,0,0,0,0,0,0,0,0,0,0,0,0,0,0,0,0,0,0,0,0,0,0,0,0,0,0,0,0,0,0,0,0,0,0],"trees":[{"base_weights":[1.4839831E-2,9.548717E-1,-3.9822044E0,9.641827E-1,3.9915305E-1,-2.9352958E0,-3.3343133E-1,9.7024566E-1,3.5691923E-1,8.288214E-1,-4.3121304E-2,-2.6071796E0,-3.564374E0,1.1858769E-2,9.7278446E-1,-2.63928E-2,3.881822E-2,4.961401E-2,1.4917766E-2,-3.0946797E-2,-2.6827042E0,-3.8929623E-2,-3.7297156E0,6.5515167E-1,9.8088294E-1,-2.2753096E0,-3.3048277E0,-6.826957E-2,-3.9294868E0,-6.064948E-3,4.0971126E-2,4.94585E-2,3.405034E-2,-1.336777E-1,-6.0414113E-2,-1.775215E-1,-3.2062586E-2,-2.0291077E-1,-7.5526156E-2],"categories":[],"categories_nodes":[],"categories_segments":[],"categories_sizes":[],"default_left":[0,0,0,0,0,0,0,0,0,0,0,0,0,0,0,0,0,0,0,0,0,0,0,0,0,0,0,0,0,0,0,0,0,0,0,0,0,0,0],"id":0,"left_children":[1,3,5,7,9,11,-1,13,15,17,-1,19,21,-1,23,-1,-1,-1,-1,-1,25,-1,27,29,31,33,35,-1,37,-1,-1,-1,-1,-1,-1,-1,-1,-1,-1],"loss_changes":[2.8960469E3,2.843872E0,3.9317065E2,1.9107666E0,7.213638E0,1.2873413E1,0E0,8.9782715E-1,3.2457876E0,5.236268E-1,0E0,9.496704E0,1.2797241E1,0E0,9.109497E-1,0E0,0E0,0E0,0E0,0E0,1.0546936E1,0E0,9.708679E0,2.3987231E0,7.849121E-1,1.6437805E1,1.4730133E1,0E0,2.8677673E0,0E0,0E0,0E0,0E0,0E0,0E0,0E0,0E0,0E0,0E0],"parents":[2147483647,0,0,1,1,2,2,3,3,4,4,5,5,7,7,8,8,9,9,11,11,12,12,14,14,20,20,22,22,23,23,24,24,25,25,26,26,28,28],"right_children":[2,4,6,8,10,12,-1,14,16,18,-1,20,22,-1,24,-1,-1,-1,-1,-1,26,-1,28,30,32,34,36,-1,38,-1,-1,-1,-1,-1,-1,-1,-1,-1,-1],"split_conditions":[2.535844E-1,1.4658655E-1,4.5618764E-1,2.987145E-1,6.1714444E-3,1.1071427E3,-3.3343133E-1,-1.836968E-2,5.5343686E-3,2.439509E-1,-4.3121304E-2,-3.309279E0,4.1307067E-3,1.1858769E-2,1.1149677E0,-2.63928E-2,3.881822E-2,4.961401E-2,1.4917766E-2,-3.0946797E-2,4.0960813E-1,-3.8929623E-2,2.0079274E-2,2.4845037E-1,2.4794349E-1,1.4828812E-1,2.6327517E0,-6.826957E-2,6.550144E-1,-6.064948E-3,4.0971126E-2,4.94585E-2,3.405034E-2,-1.336777E-1,-6.0414113E-2,-1.775215E-1,-3.2062586E-2,-2.0291077E-1,-7.5526156E-2],"split_indices":[7,3,7,9,19,18,0,23,23,17,0,0,19,0,16,0,0,0,0,0,7,0,13,10,17,3,0,0,14,0,0,0,0,0,0,0,0,0,0],"split_type":[0,0,0,0,0,0,0,0,0,0,0,0,0,0,0,0,0,0,0,0,0,0,0,0,0,0,0,0,0,0,0,0,0,0,0,0,0,0,0],"sum_hessian":[7.687566E2,6.229996E2,1.4575702E2,6.1201044E2,1.0989138E1,1.0638934E2,3.936768E1,6.0536865E2,6.6417866E0,8.453183E0,2.535955E0,7.330117E1,3.3088173E1,2.415195E0,6.029534E2,2.0529158E0,4.5888705E0,5.7964683E0,2.6567147E0,3.0189939E0,7.028218E1,2.1736755E0,3.0914497E1,1.7027126E1,5.8592633E2,4.528491E1,2.4997269E1,3.0189939E0,2.7895504E1,3.0189939E0,1.4008132E1,5.679331E2,1.7993204E1,3.1880575E1,1.3404333E1,2.2582075E1,2.415195E0,2.5842588E1,2.0529158E0],"tree_param":{"num_deleted":"0","num_feature":"24","num_nodes":"39","size_leaf_vector":"1"}},{"base_weights":[6.9747623E-3,9.4381684E-1,-3.368799E0,9.4797087E-1,-6.3034086E-3,-2.634424E0,-2.5281462E-1,9.5512927E-1,3.7170604E-1,-3.104982E0,-2.2747471E0,9.728105E-1,8.0480963E-1,7.0525354E-1,-2.5049357E-2,-2.232798E0,-3.5388823E0,7.777416E-3,-2.3853078E0,3.901311E-1,9.769711E-1,8.723144E-1,2.7895755E-1,4.6130847E-2,5.7826755E-3,-2.4613497E0,-9.995219E-3,-8.193721E-2,-1.8275961E-1,-3.3812646E-2,-2.4783976E0,-9.308748E-3,4.0439762E-2,1.9670721E-2,4.9059425E-2,3.4058746E-2,5.2456398E-2,-2.3201851E-2,3.3530273E-2,-9.058685E-2,-1.978778E-1,-6.321501E-2,-1.3048528E-1],"categories":[],"categories_nodes":[],"categories_segments":[],"categories_sizes":[],"default_left":[0,0,0,0,0,0,0,0,0,0,0,0,0,0,0,0,0,0,0,0,0,0,0,0,0,0,0,0,0,0,0,0,0,0,0,0,0,0,0,0,0,0,0],"id":1,"left_children":[1,3,5,7,-1,9,-1,11,13,15,17,19,21,23,-1,25,27,-1,29,31,33,35,37,-1,-1,39,-1,-1,-1,-1,41,-1,-1,-1,-1,-1,-1,-1,-1,-1,-1,-1,-1],"loss_changes":[2.4604841E3,2.8261108E0,1.9612341E2,2.1478882E0,0E0,1.322113E1,0E0,8.0822754E-1,2.9968748E0,1.0710571E1,1.9627563E1,9.057617E-1,2.1987915E0,7.8857803E-1,0E0,8.358177E0,8.9056396E-1,0E0,9.239502E0,1.4603777E0,9.096985E-1,1.3300362E0,3.0165515E0,0E0,0E0,9.386932E0,0E0,0E0,0E0,0E0,7.0135803E0,0E0,0E0,0E0,0E0,0E0,0E0,0E0,0E0,0E0,0E0,0E0,0E0],"parents":[2147483647,0,0,1,1,2,2,3,3,5,5,7,7,8,8,9,9,10,10,11,11,12,12,13,13,15,15,16,16,18,18,19,19,20,20,21,21,22,22,25,25,30,30],"right_children":[2,4,6,8,-1,10,-1,12,14,16,18,20,22,24,-1,26,28,-1,30,32,34,36,38,-1,-1,40,-1,-1,-1,-1,42,-1,-1,-1,-1,-1,-1,-1,-1,-1,-1,-1,-1],"split_conditions":[2.535844E-1,8.579052E-3,4.5618764E-1,2.1617388E-2,-6.3034086E-3,2.4780609E-2,-2.5281462E-1,-1.3809571E0,6.0453E-3,2.353822E-1,3.6227167E-1,1.3523857E-1,4.7413027E-1,2.4318461E-1,-2.5049357E-2,4.7111773E-1,-1.0788939E-2,7.777416E-3,2.3790571E-1,2.331126E-1,4.3984616E-1,-1.9780655E-1,4.750363E-1,4.6130847E-2,5.7826755E-3,4.6537068E-1,-9.995219E-3,-8.193721E-2,-1.8275961E-1,-3.3812646E-2,1.977016E-2,-9.308748E-3,4.0439762E-2,1.9670721E-2,4.9059425E-2,3.4058746E-2,5.2456398E-2,-2.3201851E-2,3.3530273E-2,-9.058685E-2,-1.978778E-1,-6.321501E-2,-1.3048528E-1],"split_indices":[7,19,7,4,0,12,0,22,19,6,7,5,14,7,0,14,1,0,6,6,14,0,14,0,0,14,0,0,0,0,13,0,0,0,0,0,0,0,0,0,0,0,0],"split_type":[0,0,0,0,0,0,0,0,0,0,0,0,0,0,0,0,0,0,0,0,0,0,0,0,0,0,0,0,0,0,0,0,0,0,0,0,0,0,0,0,0,0,0],"sum_hessian":[7.759969E2,6.079888E2,1.6800815E2,6.0575073E2,2.2379959E0,1.1884813E2,4.9160015E1,5.97669E2,8.081731E0,4.818111E1,7.0667015E1,5.2987164E2,6.7797356E1,5.985796E0,2.0959344E0,1.8048223E1,3.0132885E1,3.0572412E0,6.760978E1,4.4285784E0,5.254431E2,5.950032E1,8.297038E0,3.960785E0,2.0250113E0,1.6034729E1,2.0134945E0,2.608453E0,2.7524431E1,3.9192874E0,6.369049E1,2.0971243E0,2.3314543E0,4.4466696E0,5.209964E2,3.0923658E1,2.857666E1,2.8001137E0,5.496924E0,1.2722043E1,3.312686E0,7.2533402E0,5.643715E1],"tree_param":{"num_deleted":"0","num_feature":"24","num_nodes":"43","size_leaf_vector":"1"}},{"base_weights":[-1.2539985E-3,9.2318434E-1,-2.9257956E0,2.8097913E-2,9.300191E-1,-2.3358285E0,-2.0643406E-1,4.0544808E-2,-4.206671E-2,9.343281E-1,-6.608388E-3,-1.522868E0,-2.4480317E0,9.46126E-1,6.485016E-1,-1.9226815E0,3.5334905E-3,-1.6896664E0,-2.5789206E0,7.977015E-3,9.4893897E-1,8.18077E-1,-1.1157844E-1,-2.2184885E0,-7.061702E-3,-1.9708135E0,-1.2567656E-2,-1.4907469E0,-2.6802857E0,4.9498603E-2,4.3898717E-2,-1.0670361E-2,4.687291E-2,-4.4165988E-2,2.798303E-2,-1.3103811E-1,-2.5777245E-2,-5.651505E-2,-1.3973798E-1,-2.9237458E-2,-1.4432503E-1,-1.3697274E-1,-5.7007063E-2],"categories":[],"categories_nodes":[],"categories_segments":[],"categories_sizes":[],"default_left":[0,0,0,0,0,0,0,0,0,0,0,0,0,0,0,0,0,0,0,0,0,0,0,0,0,0,0,0,0,0,0,0,0,0,0,0,0,0,0,0,0,0,0],"id":2,"left_children":[1,3,5,7,9,11,-1,-1,-1,13,-1,15,17,19,21,23,-1,25,27,-1,29,31,33,35,-1,37,-1,39,41,-1,-1,-1,-1,-1,-1,-1,-1,-1,-1,-1,-1,-1,-1],"loss_changes":[2.0840537E3,3.5570679E0,1.2174451E2,4.404854E0,2.783844E0,7.812805E0,0E0,0E0,0E0,1.3389282E0,0E0,1.1597897E1,6.5146484E0,1.0742493E0,3.459381E0,7.284176E0,0E0,7.1966286E0,6.0980225E0,0E0,7.373352E-1,2.845705E0,3.4193888E0,7.072529E0,0E0,7.7592163E0,0E0,1.1022118E1,4.390991E0,0E0,0E0,0E0,0E0,0E0,0E0,0E0,0E0,0E0,0E0,0E0,0E0,0E0,0E0],"parents":[2147483647,0,0,1,1,2,2,3,3,4,4,5,5,9,9,11,11,12,12,13,13,14,14,15,15,17,17,18,18,20,20,21,21,22,22,23,23,25,25,27,27,28,28],"right_children":[2,4,6,8,10,12,-1,-1,-1,14,-1,16,18,20,22,24,-1,26,28,-1,30,32,34,36,-1,38,-1,40,42,-1,-1,-1,-1,-1,-1,-1,-1,-1,-1,-1,-1,-1,-1],"split_conditions":[2.5281414E-1,9.597808E-1,4.5588553E-1,9.5744073E-1,3.0396327E-1,3.4291356E0,-2.0643406E-1,4.0544808E-2,-4.206671E-2,1.4572653E-1,-6.608388E-3,3.4082563E0,4.697126E-3,1.0887777E0,3.406334E0,-2.3505808E-1,3.5334905E-3,5.7026055E-3,1.1539034E0,7.977015E-3,-1.3922285E0,1.7827328E-2,2.7944994E-1,4.619726E-2,-7.061702E-3,3.727253E-1,-1.2567656E-2,2.3915344E-1,5.660116E-2,4.9498603E-2,4.3898717E-2,-1.0670361E-2,4.687291E-2,-4.4165988E-2,2.798303E-2,-1.3103811E-1,-2.5777245E-2,-5.651505E-2,-1.3973798E-1,-2.9237458E-2,-1.4432503E-1,-1.3697274E-1,-5.7007063E-2],"split_indices":[17,21,17,21,9,20,0,0,0,3,0,20,19,16,20,8,0,2,16,0,22,12,9,12,0,9,0,6,12,0,0,0,0,0,0,0,0,0,0,0,0,0,0],"split_type":[0,0,0,0,0,0,0,0,0,0,0,0,0,0,0,0,0,0,0,0,0,0,0,0,0,0,0,0,0,0,0,0,0,0,0,0,0,0,0,0,0,0,0],"sum_hessian":[7.6885675E2,5.847146E2,1.841421E2,4.4696946E0,5.8024493E2,1.25520966E2,5.862114E1,2.3874588E0,2.0822358E0,5.7802045E2,2.2244856E0,1.6990427E1,1.0853054E2,5.5288904E2,2.5131416E1,1.3417478E1,3.5729496E0,1.8021843E1,9.05087E1,2.1758633E0,5.5071313E2,2.048489E1,4.6465254E0,1.1296396E1,2.121081E0,1.4765421E1,3.256423E0,9.051007E0,8.145769E1,3.407404E2,2.0997278E2,2.043231E0,1.844166E1,2.0144758E0,2.6320498E0,8.701859E0,2.5945368E0,8.483334E0,6.282088E0,6.348852E0,2.7021546E0,7.7694145E1,3.7635467E0],"tree_param":{"num_deleted":"0","num_feature":"24","num_nodes":"43","size_leaf_vector":"1"}},{"base_weights":[1.5873816E-2,9.0772843E-1,-2.5267825E0,9.135608E-1,-8.908E-3,-2.0335102E0,-1.7623167E-1,6.645681E-1,9.372197E-1,-1.829055E0,-2.4132283E0,7.395378E-1,-2.8684935E-2,9.4015354E-1,1.1211559E-2,-1.5581303E0,-2.3072455E0,-9.716956E-1,-2.5527475E0,9.7291815E-1,4.982071E-1,8.864674E-1,1.0021666E0,-1.7260715E0,3.412984E-1,-1.3893786E-2,-2.4747777E0,-1.120673E-1,2.7988821E-2,-3.142363E0,-1.9961207E0,7.3143155E-3,5.2303564E-2,6.357574E-3,3.7496038E-2,4.581457E-2,3.0307353E-2,5.1496543E-2,3.6066998E-2,-2.4357678E-2,-9.245651E-2,4.2839106E-2,-1.1250263E-2,-1.314778E-1,-4.1992553E-2,-9.264497E-2,-1.7259881E-1,-4.5883913E-2,-1.16181746E-1],"categories":[],"categories_nodes":[],"categories_segments":[],"categories_sizes":[],"default_left":[0,0,0,0,0,0,0,0,0,0,0,0,0,0,0,0,0,0,0,0,0,0,0,0,0,0,0,0,0,0,0,0,0,0,0,0,0,0,0,0,0,0,0,0,0,0,0,0,0],"id":3,"left_children":[1,3,5,7,-1,9,-1,11,13,15,17,19,-1,21,-1,23,25,27,29,31,33,35,37,39,41,-1,43,-1,-1,45,47,-1,-1,-1,-1,-1,-1,-1,-1,-1,-1,-1,-1,-1,-1,-1,-1,-1,-1],"loss_changes":[1.7399231E3,3.7602234E0,9.090198E1,2.7063599E0,0E0,6.1208496E0,0E0,5.2958374E0,8.63678E-1,8.367249E0,6.4414673E0,2.3267612E0,0E0,8.137207E-1,0E0,2.0373215E1,9.958466E0,1.2005863E1,6.8001404E0,1.318079E0,2.3881927E0,1.8079071E0,1.0469818E0,7.8118896E0,1.9072616E0,0E0,5.0792236E0,0E0,0E0,6.3090515E-1,6.072815E0,0E0,0E0,0E0,0E0,0E0,0E0,0E0,0E0,0E0,0E0,0E0,0E0,0E0,0E0,0E0,0E0,0E0,0E0],"parents":[2147483647,0,0,1,1,2,2,3,3,5,5,7,7,8,8,9,9,10,10,11,11,13,13,15,15,16,16,17,17,18,18,19,19,20,20,21,21,22,22,23,23,24,24,26,26,29,29,30,30],"right_children":[2,4,6,8,-1,10,-1,12,14,16,18,20,-1,22,-1,24,26,28,30,32,34,36,38,40,42,-1,44,-1,-1,46,48,-1,-1,-1,-1,-1,-1,-1,-1,-1,-1,-1,-1,-1,-1,-1,-1,-1,-1],"split_conditions":[2.535844E-1,8.579052E-3,4.5618764E-1,-2.4220228E-1,-8.908E-3,5.9812455E-3,-1.7623167E-1,1.4635879E-1,3.5277054E0,1.0886682E3,1.4263137E-1,5.742942E-3,-2.8684935E-2,3.3654609E0,1.1211559E-2,5.8172517E-3,1.9922996E-2,1.4156254E-1,1.471403E-1,9.6080863E-1,1.4129934E-1,3.3547797E0,2.4554616E-1,2.007176E-2,2.6467659E-2,-1.3893786E-2,-2.3456237E-1,-1.120673E-1,2.7988821E-2,3.5059967E0,2.2448283E-2,7.3143155E-3,5.2303564E-2,6.357574E-3,3.7496038E-2,4.581457E-2,3.0307353E-2,5.1496543E-2,3.6066998E-2,-2.4357678E-2,-9.245651E-2,4.2839106E-2,-1.1250263E-2,-1.314778E-1,-4.1992553E-2,-9.264497E-2,-1.7259881E-1,-4.5883913E-2,-1.16181746E-1],"split_indices":[7,19,7,8,0,19,0,3,20,18,3,19,0,20,0,19,13,5,3,21,3,20,7,12,12,0,8,0,0,20,13,0,0,0,0,0,0,0,0,0,0,0,0,0,0,0,0,0,0],"split_type":[0,0,0,0,0,0,0,0,0,0,0,0,0,0,0,0,0,0,0,0,0,0,0,0,0,0,0,0,0,0,0,0,0,0,0,0,0,0,0,0,0,0,0,0,0,0,0,0,0],"sum_hessian":[7.652587E2,5.6701666E2,1.9824208E2,5.641453E2,2.871353E0,1.3469539E2,6.3546696E1,5.1476955E1,5.1266833E2,9.1334236E1,4.3361153E1,4.8918022E1,2.558932E0,5.1025012E2,2.4182374E0,6.102064E1,3.0313597E1,4.5292244E0,3.883193E1,2.3327524E1,2.55905E1,2.816844E2,2.2856573E2,5.614753E1,4.873113E0,2.5144095E0,2.7799187E1,2.2228613E0,2.306363E0,1.6601341E1,2.2230589E1,2.140424E0,2.11871E1,1.0951636E1,1.4638863E1,2.5254662E2,2.9137756E1,2.05574E2,2.2991735E1,5.5211368E0,5.0626392E1,2.2825034E0,2.5906098E0,2.4839294E1,2.9598935E0,4.5667005E0,1.203464E1,6.064215E0,1.6166374E1],"tree_param":{"num_deleted":"0","num_feature":"24","num_nodes":"49","size_leaf_vector":"1"}},{"base_weights":[1.7457457E-2,8.923908E-1,-2.2693665E0,9.042298E-1,2.3877421E-1,-1.8407971E0,-1.5638965E-1,9.08434E-1,5.455726E-3,6.674823E-1,-4.5929294E-2,-2.061825E0,-1.4966183E0,2.4212515E-1,9.1383797E-1,4.70091E-2,5.014132E-3,-2.103958E0,-1.8103575E-2,-1.0955703E0,-1.8594954E0,-2.6897628E-2,4.147693E-2,8.5146046E-1,9.8009986E-1,-1.7119557E0,-2.3732185E0,-2.676178E-1,-1.3965117E0,-2.033837E0,-1.378136E-2,4.3262355E-2,1.6092395E-2,2.756072E-2,4.9730927E-2,-9.319707E-2,-1.8607354E-2,-6.1770376E-2,-1.23642646E-1,-5.5574466E-2,1.9155262E-2,-5.531253E-3,-8.4767975E-2,-5.0716292E-2,-1.2035791E-1],"categories":[],"categories_nodes":[],"categories_segments":[],"categories_sizes":[],"default_left":[0,0,0,0,0,0,0,0,0,0,0,0,0,0,0,0,0,0,0,0,0,0,0,0,0,0,0,0,0,0,0,0,0,0,0,0,0,0,0,0,0,0,0,0,0],"id":4,"left_children":[1,3,5,7,9,11,-1,13,-1,15,-1,17,19,21,23,-1,-1,25,-1,27,29,-1,-1,31,33,35,37,39,41,43,-1,-1,-1,-1,-1,-1,-1,-1,-1,-1,-1,-1,-1,-1,-1],"loss_changes":[1.5239481E3,4.0469055E0,7.1784546E1,1.7083435E0,6.1501036E0,7.793915E0,0E0,1.7149963E0,0E0,1.254828E0,0E0,5.285431E0,6.6328125E0,3.0520313E0,1.3687134E0,0E0,0E0,4.6123962E0,0E0,7.2839355E0,7.679756E0,0E0,0E0,1.7819672E0,1.0200348E0,6.852127E0,2.1750183E0,5.604061E0,8.383266E0,7.7303925E0,0E0,0E0,0E0,0E0,0E0,0E0,0E0,0E0,0E0,0E0,0E0,0E0,0E0,0E0,0E0],"parents":[2147483647,0,0,1,1,2,2,3,3,4,4,5,5,7,7,9,9,11,11,12,12,13,13,14,14,17,17,19,19,20,20,23,23,24,24,25,25,26,26,27,27,28,28,29,29],"right_children":[2,4,6,8,10,12,-1,14,-1,16,-1,18,20,22,24,-1,-1,26,-1,28,30,-1,-1,32,34,36,38,40,42,44,-1,-1,-1,-1,-1,-1,-1,-1,-1,-1,-1,-1,-1,-1,-1],"split_conditions":[2.535844E-1,1.4667736E-1,4.5618764E-1,8.579052E-3,6.1714444E-3,1.4844036E-1,-1.5638965E-1,9.597808E-1,5.455726E-3,2.4236286E-1,-4.5929294E-2,1.0623624E-2,3.711081E-1,1.1880292E0,3.3654609E0,4.70091E-2,5.014132E-3,5.601436E-3,-1.8103575E-2,2.2638492E-2,7.015645E-3,-2.6897628E-2,4.147693E-2,3.3627594E0,1.8703217E-2,5.5141007E-3,1.4255825E-1,2.0871636E-2,-1.237412E-1,1.1759626E0,-1.378136E-2,4.3262355E-2,1.6092395E-2,2.756072E-2,4.9730927E-2,-9.319707E-2,-1.8607354E-2,-6.1770376E-2,-1.23642646E-1,-5.5574466E-2,1.9155262E-2,-5.531253E-3,-8.4767975E-2,-5.0716292E-2,-1.2035791E-1],"split_indices":[7,5,7,19,19,5,0,21,0,7,0,1,9,16,20,0,0,19,0,13,2,0,0,20,4,19,5,13,23,16,0,0,0,0,0,0,0,0,0,0,0,0,0,0,0],"split_type":[0,0,0,0,0,0,0,0,0,0,0,0,0,0,0,0,0,0,0,0,0,0,0,0,0,0,0,0,0,0,0,0,0,0,0,0,0,0,0,0,0,0,0,0,0],"sum_hessian":[7.596502E2,5.49878E2,2.0977223E2,5.3971857E2,1.0159415E1,1.4201543E2,6.7756805E1,5.367381E2,2.9805014E0,7.722227E0,2.437188E0,8.3440346E1,5.8575073E1,4.6866407E0,5.3205145E2,4.770885E0,2.9513426E0,8.119004E1,2.250309E0,2.9733288E1,2.8841787E1,2.049342E0,2.6372988E0,2.811925E2,2.5085892E2,3.605601E1,4.513403E1,8.429963E0,2.1303324E1,2.572595E1,3.1158364E0,2.734407E2,7.751816E0,9.48992E0,2.41369E2,3.203124E1,4.024772E0,4.7128882E0,4.042114E1,3.3619852E0,5.067978E0,4.2757483E0,1.7027576E1,7.8916087E0,1.7834341E1],"tree_param":{"num_deleted":"0","num_feature":"24","num_nodes":"45","size_leaf_vector":"1"}},{"base_weights":[1.9945756E-2,8.6191905E-1,-2.0000129E0,8.6624396E-1,-3.2204054E-3,-1.6269472E0,-1.3871112E-1,8.7282526E-1,1.9517489E-1,-2.3580117E0,-1.5321344E0,4.6420845E-1,8.8451046E-1,4.139506E-2,-2.3310347E-2,-3.7253868E-2,-2.5513394E0,-1.7215945E0,-1.229586E0,-2.8072773E-2,6.44317E-1,6.586621E-1,9.0316296E-1,-1.5205896E-1,-1.726087E0,-1.3255806E0,-2.0457678E0,-1.1119852E-1,-1.3178576E0,4.0170293E-2,-1.1662914E-2,2.1964007E-3,4.031899E-2,5.0346084E-2,4.2814773E-2,-3.9966833E-2,-1.2694666E-1,-8.0536E-2,-2.2225577E-2,-2.0083759E-2,-1.0609301E-1,-3.7741352E-2,2.7588088E-2,-4.16743E-2,-8.193894E-2],"categories":[],"categories_nodes":[],"categories_segments":[],"categories_sizes":[],"default_left":[0,0,0,0,0,0,0,0,0,0,0,0,0,0,0,0,0,0,0,0,0,0,0,0,0,0,0,0,0,0,0,0,0,0,0,0,0,0,0,0,0,0,0,0,0],"id":5,"left_children":[1,3,5,7,-1,9,-1,11,13,15,17,19,21,-1,-1,-1,23,25,27,-1,29,31,33,-1,35,37,39,41,43,-1,-1,-1,-1,-1,-1,-1,-1,-1,-1,-1,-1,-1,-1,-1,-1],"loss_changes":[1.2864941E3,2.194641E0,5.9763428E1,2.1768494E0,0E0,6.964203E0,0E0,2.1009827E0,3.0849216E0,2.9831924E0,5.789551E0,3.452036E0,1.5547485E0,0E0,0E0,0E0,2.3789978E-1,7.856003E0,5.4424057E0,0E0,2.2390656E0,3.834982E0,1.4168091E0,0E0,3.5213165E0,9.306534E0,4.5802307E0,2.649669E0,6.77623E0,0E0,0E0,0E0,0E0,0E0,0E0,0E0,0E0,0E0,0E0,0E0,0E0,0E0,0E0,0E0,0E0],"parents":[2147483647,0,0,1,1,2,2,3,3,5,5,7,7,8,8,9,9,10,10,11,11,12,12,16,16,17,17,18,18,20,20,21,21,22,22,24,24,25,25,26,26,27,27,28,28],"right_children":[2,4,6,8,-1,10,-1,12,14,16,18,20,22,-1,-1,-1,24,26,28,-1,30,32,34,-1,36,38,40,42,44,-1,-1,-1,-1,-1,-1,-1,-1,-1,-1,-1,-1,-1,-1,-1,-1],"split_conditions":[2.535844E-1,8.579052E-3,4.5618764E-1,1.4721416E-1,-3.2204054E-3,3.8256708E-1,-1.3871112E-1,7.1660995E1,2.3938285E-1,1.4085008E-1,5.9413385E-1,3.2875419E0,1.1303055E0,4.139506E-2,-2.3310347E-2,-3.7253868E-2,1.4500055E-1,2.3766315E-1,3.6850277E-1,-2.8072773E-2,4.0473303E-1,1.9545676E-2,-1.401692E0,-1.5205896E-1,8.408009E-4,-1.8076827E-3,-1.0788939E-2,1.1678796E-3,5.2999267E-3,4.0170293E-2,-1.1662914E-2,2.1964007E-3,4.031899E-2,5.0346084E-2,4.2814773E-2,-3.9966833E-2,-1.2694666E-1,-8.0536E-2,-2.2225577E-2,-2.0083759E-2,-1.0609301E-1,-3.7741352E-2,2.7588088E-2,-4.16743E-2,-8.193894E-2],"split_indices":[7,19,7,5,0,15,0,18,17,3,14,20,16,0,0,0,3,6,17,0,15,12,22,0,2,1,1,1,19,0,0,0,0,0,0,0,0,0,0,0,0,0,0,0,0],"split_type":[0,0,0,0,0,0,0,0,0,0,0,0,0,0,0,0,0,0,0,0,0,0,0,0,0,0,0,0,0,0,0,0,0,0,0,0,0,0,0,0,0,0,0,0,0],"sum_hessian":[7.544134E2,5.3287146E2,2.2154192E2,5.3045966E2,2.4117978E0,1.5159485E2,6.9947075E1,5.250102E2,5.4495053E0,1.4663103E1,1.3693175E2,1.5728562E1,5.0928162E2,2.6564121E0,2.7930934E0,2.088947E0,1.2574156E1,8.13186E1,5.5613144E1,2.0331378E0,1.3695424E1,4.162228E1,4.6765933E2,6.2055907E0,6.368565E0,3.8894165E1,4.242444E1,4.233616E0,5.1379528E1,1.1665238E1,2.0301855E0,8.315269E0,3.330701E1,1.3913896E2,3.285204E2,3.9025404E0,2.4660249E0,2.8758831E1,1.0135333E1,2.1543925E0,4.0270046E1,2.077817E0,2.155799E0,2.1909027E1,2.9470499E1],"tree_param":{"num_deleted":"0","num_feature":"24","num_nodes":"45","size_leaf_vector":"1"}},{"base_weights":[1.5732206E-2,8.6488855E-1,-1.8541436E0,8.7485015E-1,1.2194696E-1,-1.4955845E0,-1.2649071E-1,8.9710546E-1,6.1670715E-1,-3.0593652E-2,3.526201E-2,-1.3119603E0,-1.9389889E0,5.628563E-1,9.0992796E-1,7.3672265E-1,-6.1072625E-2,-4.6999887E-1,-1.3990641E0,-2.0813243E0,-1.2010904E-3,-3.6343582E-2,7.750553E-1,-3.097626E-3,9.154809E-1,1.20992616E-1,8.3905697E-1,-3.9194006E-2,-8.477097E-2,-3.252953E-1,-1.4556782E0,-2.1747596E0,-3.0368397E-2,4.614507E-2,-1.0602328E-2,4.6231057E-2,2.3285098E-2,3.3667613E-2,-3.3684816E-2,4.333015E-3,4.4091694E-2,4.9486514E-2,-3.485464E-2,-5.9338648E-2,3.223475E-2,-7.4257866E-2,-4.594201E-3,-8.217074E-2,-1.2402989E-1],"categories":[],"categories_nodes":[],"categories_segments":[],"categories_sizes":[],"default_left":[0,0,0,0,0,0,0,0,0,0,0,0,0,0,0,0,0,0,0,0,0,0,0,0,0,0,0,0,0,0,0,0,0,0,0,0,0,0,0,0,0,0,0,0,0,0,0,0,0],"id":6,"left_children":[1,3,5,7,9,11,-1,13,15,-1,-1,17,19,21,23,25,-1,27,29,31,-1,-1,33,-1,35,37,39,41,-1,43,45,47,-1,-1,-1,-1,-1,-1,-1,-1,-1,-1,-1,-1,-1,-1,-1,-1,-1],"loss_changes":[1.1833486E3,3.6863403E0,5.2604492E1,2.3512268E0,3.8313415E0,1.0035767E1,0E0,1.4732666E0,1.0457956E1,0E0,0E0,7.58197E0,1.1712326E1,5.9646773E0,2.455597E0,2.5004578E0,0E0,6.2892256E0,5.6851807E0,4.2094727E0,0E0,0E0,2.7396393E0,0E0,1.3866577E0,3.5498188E0,1.0578175E0,7.4127E0,0E0,6.081213E0,3.7210388E0,1.9970245E0,0E0,0E0,0E0,0E0,0E0,0E0,0E0,0E0,0E0,0E0,0E0,0E0,0E0,0E0,0E0,0E0,0E0],"parents":[2147483647,0,0,1,1,2,2,3,3,4,4,5,5,7,7,8,8,11,11,12,12,13,13,14,14,15,15,17,17,18,18,19,19,22,22,24,24,25,25,26,26,27,27,29,29,30,30,31,31],"right_children":[2,4,6,8,10,12,-1,14,16,-1,-1,18,20,22,24,26,-1,28,30,32,-1,-1,34,-1,36,38,40,42,-1,44,46,48,-1,-1,-1,-1,-1,-1,-1,-1,-1,-1,-1,-1,-1,-1,-1,-1,-1],"split_conditions":[2.535844E-1,2.1617388E-2,4.5618764E-1,2.4569288E-1,9.863243E-1,6.1714444E-3,-1.2649071E-1,1.8703217E-2,9.9359286E-1,-3.0593652E-2,3.526201E-2,2.3363365E-1,2.3200498E0,2.2730875E-1,4.3984616E-1,9.6719265E-1,-6.1072625E-2,-9.410199E-2,-1.2329661E0,-9.399163E-1,-1.2010904E-3,-3.6343582E-2,1.3670644E-1,-3.097626E-3,9.295969E-3,2.0424262E-2,4.4988263E-1,4.853132E-2,-8.477097E-2,2.39387E-2,4.3694204E-1,3.5544047E0,-3.0368397E-2,4.614507E-2,-1.0602328E-2,4.6231057E-2,2.3285098E-2,3.3667613E-2,-3.3684816E-2,4.333015E-3,4.4091694E-2,4.9486514E-2,-3.485464E-2,-5.9338648E-2,3.223475E-2,-7.4257866E-2,-4.594201E-3,-8.217074E-2,-1.2402989E-1],"split_indices":[7,4,7,17,21,19,0,4,21,0,0,6,0,6,14,21,0,23,22,22,0,0,5,0,1,4,14,13,0,12,7,20,0,0,0,0,0,0,0,0,0,0,0,0,0,0,0,0,0],"split_type":[0,0,0,0,0,0,0,0,0,0,0,0,0,0,0,0,0,0,0,0,0,0,0,0,0,0,0,0,0,0,0,0,0,0,0,0,0,0,0,0,0,0,0,0,0,0,0,0,0],"sum_hessian":[7.432577E2,5.115072E2,2.3175047E2,5.045643E2,6.9429154E0,1.5350383E2,7.8246635E1,4.6223813E2,4.2326168E1,3.053022E0,3.8898933E0,1.1135003E2,4.2153805E1,1.8735943E1,4.4350217E2,4.0294502E1,2.031667E0,1.1039158E1,1.00310875E2,3.9156513E1,2.99729E0,2.3044229E0,1.643152E1,2.461905E0,4.4104028E2,6.053549E0,3.4240955E1,8.931288E0,2.1078706E0,5.361833E0,9.494904E1,3.6375202E1,2.781312E0,1.4347605E1,2.083916E0,4.312214E2,9.81888E0,3.6613562E0,2.3921924E0,2.0047922E0,3.223616E1,3.2866824E0,5.644605E0,2.7213929E0,2.6404405E0,9.285299E1,2.0960498E0,1.5616868E1,2.0758335E1],"tree_param":{"num_deleted":"0","num_feature":"24","num_nodes":"49","size_leaf_vector":"1"}},{"base_weights":[-3.64685E-3,8.330585E-1,-1.7024962E0,8.4508646E-1,2.3613138E-1,-1.3847334E0,-1.16680756E-1,8.5092354E-1,1.4181262E-1,6.398329E-1,-3.571139E-2,-1.2986054E0,-2.0593746E0,8.7652004E-1,7.055583E-1,3.8574915E-2,-2.8335497E-2,4.630707E-2,1.2681326E-3,-7.6031275E-3,-1.3182808E0,-3.6699984E-2,-2.2927332E0,8.0944663E-1,9.705927E-1,-2.0946315E-2,7.5623566E-1,-5.040909E-1,-1.3483043E0,-2.4896083E0,-5.027054E-2,4.3376897E-2,3.169299E-2,5.6108222E-3,4.931836E-2,3.9798964E-2,-5.1810797E-3,-1.0190747E-1,4.8265647E-2,-1.0706983E-2,-6.892582E-2,-6.3903555E-2,-1.3775001E-1],"categories":[],"categories_nodes":[],"categories_segments":[],"categories_sizes":[],"default_left":[0,0,0,0,0,0,0,0,0,0,0,0,0,0,0,0,0,0,0,0,0,0,0,0,0,0,0,0,0,0,0,0,0,0,0,0,0,0,0,0,0,0,0],"id":7,"left_children":[1,3,5,7,9,11,-1,13,15,17,-1,19,21,23,25,-1,-1,-1,-1,-1,27,-1,29,31,33,-1,35,37,39,41,-1,-1,-1,-1,-1,-1,-1,-1,-1,-1,-1,-1,-1],"loss_changes":[1.0526364E3,3.362854E0,4.5776123E1,1.8744202E0,4.749439E0,6.9128113E0,0E0,1.1741943E0,2.7573802E0,1.4507794E0,0E0,3.1612701E0,3.5664825E0,1.7731323E0,4.7195625E0,0E0,0E0,0E0,0E0,0E0,2.898529E0,0E0,1.0351028E0,1.9262543E0,2.1067963E0,0E0,2.62109E0,1.7302116E1,4.521698E0,1.5445709E-1,0E0,0E0,0E0,0E0,0E0,0E0,0E0,0E0,0E0,0E0,0E0,0E0,0E0],"parents":[2147483647,0,0,1,1,2,2,3,3,4,4,5,5,7,7,8,8,9,9,11,11,12,12,13,13,14,14,20,20,22,22,23,23,24,24,26,26,27,27,28,28,29,29],"right_children":[2,4,6,8,10,12,-1,14,16,18,-1,20,22,24,26,-1,-1,-1,-1,-1,28,-1,30,32,34,-1,36,38,40,42,-1,-1,-1,-1,-1,-1,-1,-1,-1,-1,-1,-1,-1],"split_conditions":[2.535844E-1,2.1487616E-2,-8.3707225E-1,3.5277054E0,6.1714444E-3,7.144929E-3,-1.16680756E-1,2.4196143E-1,2.3979233E-1,2.4050853E-1,-3.571139E-2,3.7848726E-3,2.3486945E-1,3.3673284E0,3.3013046E0,3.8574915E-2,-2.8335497E-2,4.630707E-2,1.2681326E-3,-7.6031275E-3,3.6227167E-1,-3.6699984E-2,6.172042E-1,-1.3922285E0,2.320446E-1,-2.0946315E-2,7.5998306E-3,2.5110457E-2,-1.2578471E-2,3.0674303E-1,-5.027054E-2,4.3376897E-2,3.169299E-2,5.6108222E-3,4.931836E-2,3.9798964E-2,-5.1810797E-3,-1.0190747E-1,4.8265647E-2,-1.0706983E-2,-6.892582E-2,-6.3903555E-2,-1.3775001E-1],"split_indices":[7,4,22,20,19,19,0,17,6,17,0,19,6,20,20,0,0,0,0,0,7,0,14,22,7,0,19,12,1,10,0,0,0,0,0,0,0,0,0,0,0,0,0],"split_type":[0,0,0,0,0,0,0,0,0,0,0,0,0,0,0,0,0,0,0,0,0,0,0,0,0,0,0,0,0,0,0,0,0,0,0,0,0,0,0,0,0,0,0],"sum_hessian":[7.3854645E2,4.9517563E2,2.4337079E2,4.8498752E2,1.0188127E1,1.6399492E2,7.937588E1,4.8078705E2,4.200454E0,7.379954E0,2.8081727E0,1.4802252E2,1.5972394E1,4.045266E2,7.6260445E1,2.1768968E0,2.0235577E0,4.688267E0,2.6916869E0,2.6445637E0,1.4537796E2,3.0118394E0,1.2960554E1,2.4175838E2,1.6276823E2,2.9752724E0,7.328517E1,5.8028555E0,1.395751E2,1.0431312E1,2.5292428E0,1.7869728E2,6.3061092E1,3.0836494E0,1.5968459E2,7.01185E1,3.166671E0,2.6496065E0,3.153249E0,3.8314288E0,1.3574367E2,2.9194684E0,7.511843E0],"tree_param":{"num_deleted":"0","num_feature":"24","num_nodes":"43","size_leaf_vector":"1"}},{"base_weights":[3.6066356E-3,8.2548547E-1,-1.6179287E0,8.355209E-1,1.4461112E-1,-1.3259996E0,-1.07856594E-1,8.455648E-1,1.741492E-1,-4.199882E-2,6.1835325E-1,-1.7188158E0,-1.2138319E0,4.2812312E-1,8.5716873E-1,-2.7929539E-2,3.6346357E-2,5.1705143E-3,4.262898E-2,-2.921114E-3,-1.83044E0,-1.0296848E0,-1.4497546E0,6.285599E-1,-2.5198279E-2,8.777097E-1,6.304469E-1,-2.541155E-2,-1.9234453E0,-8.7482464E-1,-1.7613096E0,-1.5272694E0,-1.9484572E-3,-1.0933687E-2,4.0893476E-2,4.9762215E-2,4.1831575E-2,-2.8471423E-2,3.631675E-2,-1.1140557E-1,-6.2290844E-2,-4.7603715E-2,3.3747885E-2,-1.1169539E-1,-4.1474685E-2,1.9334861E-3,-8.0280736E-2],"categories":[],"categories_nodes":[],"categories_segments":[],"categories_sizes":[],"default_left":[0,0,0,0,0,0,0,0,0,0,0,0,0,0,0,0,0,0,0,0,0,0,0,0,0,0,0,0,0,0,0,0,0,0,0,0,0,0,0,0,0,0,0,0,0,0,0],"id":8,"left_children":[1,3,5,7,9,11,-1,13,15,-1,17,19,21,23,25,-1,-1,-1,-1,-1,27,29,31,33,-1,35,37,-1,39,41,43,45,-1,-1,-1,-1,-1,-1,-1,-1,-1,-1,-1,-1,-1,-1,-1],"loss_changes":[9.725271E2,3.188202E0,3.577716E1,3.0215454E0,4.3644843E0,5.044464E0,0E0,1.907959E0,3.8065672E0,0E0,6.5258455E-1,6.1101456E0,4.124359E0,3.0630279E0,1.5699768E0,0E0,0E0,0E0,0E0,0E0,2.8835526E0,7.0774918E0,5.870682E0,2.190619E0,0E0,1.1734619E0,5.179823E0,0E0,3.206215E0,8.396339E0,3.564148E0,6.365288E0,0E0,0E0,0E0,0E0,0E0,0E0,0E0,0E0,0E0,0E0,0E0,0E0,0E0,0E0,0E0],"parents":[2147483647,0,0,1,1,2,2,3,3,4,4,5,5,7,7,8,8,10,10,11,11,12,12,13,13,14,14,20,20,21,21,22,22,23,23,25,25,26,26,28,28,29,29,30,30,31,31],"right_children":[2,4,6,8,10,12,-1,14,16,-1,18,20,22,24,26,-1,-1,-1,-1,-1,28,30,32,34,-1,36,38,-1,40,42,44,46,-1,-1,-1,-1,-1,-1,-1,-1,-1,-1,-1,-1,-1,-1,-1],"split_conditions":[2.5281414E-1,2.987145E-1,4.358581E-1,1.4702854E-1,-2.395144E-1,-1.8513792E0,-1.07856594E-1,7.1660995E1,9.863243E-1,-4.199882E-2,1.4185381E-1,-3.7466137E0,8.0126044E2,6.85811E1,2.5989566E-2,-2.7929539E-2,3.6346357E-2,5.1705143E-3,4.262898E-2,-2.921114E-3,1.5296407E2,4.1920674E-1,4.3159863E-1,2.496522E-1,-2.5198279E-2,1.8439932E2,1.0833809E2,-2.541155E-2,4.0259808E-1,9.959143E-3,4.109826E-3,1.8650437E-2,-1.9484572E-3,-1.0933687E-2,4.0893476E-2,4.9762215E-2,4.1831575E-2,-2.8471423E-2,3.631675E-2,-1.1140557E-1,-6.2290844E-2,-4.7603715E-2,3.3747885E-2,-1.1169539E-1,-4.1474685E-2,1.9334861E-3,-8.0280736E-2],"split_indices":[17,9,17,3,8,0,0,18,21,0,3,0,18,18,13,0,0,0,0,0,18,6,17,9,0,18,18,0,15,1,1,13,0,0,0,0,0,0,0,0,0,0,0,0,0,0,0],"split_type":[0,0,0,0,0,0,0,0,0,0,0,0,0,0,0,0,0,0,0,0,0,0,0,0,0,0,0,0,0,0,0,0,0,0,0,0,0,0,0,0,0,0,0,0,0,0,0],"sum_hessian":[7.2773676E2,4.8327744E2,2.4445932E2,4.76034E2,7.243457E0,1.6083897E2,8.362035E1,4.6863855E2,7.3954463E0,2.101923E0,5.141534E0,3.2544193E1,1.2829478E2,1.3699623E1,4.549389E2,3.1755502E0,4.219896E0,2.0581717E0,3.083362E0,2.1460097E0,3.0398184E1,7.506673E1,5.3228054E1,1.1543045E1,2.156578E0,4.145128E2,4.0426136E1,2.4225497E0,2.7975636E1,6.3765465E1,1.130126E1,5.0377525E1,2.8505309E0,2.0798416E0,9.463203E0,1.0133657E2,3.131762E2,2.6261284E0,3.780001E1,1.7720352E1,1.0255282E1,6.1105312E1,2.6601515E0,6.5711403E0,4.7301197E0,2.4244711E0,4.7953053E1],"tree_param":{"num_deleted":"0","num_feature":"24","num_nodes":"47","size_leaf_vector":"1"}},{"base_weights":[-2.1778805E-2,7.929687E-1,-1.4886633E0,8.091171E-1,-7.3399596E-2,-1.2064768E0,-1.0360829E-1,8.2315785E-1,4.9718997E-1,-1.4806763E0,-1.0477444E0,4.8891443E-1,8.378309E-1,7.199286E-1,-2.593372E-1,-9.0934205E-1,-1.6650405E0,-1.1773458E0,-4.321395E-1,-2.8337488E-2,6.713321E-1,8.5294616E-1,5.3491837E-1,4.5737433E-3,8.9765275E-1,2.6881693E-2,-5.299998E-2,-2.9422703E-1,-9.069946E-2,-1.0929477E0,-2.0623796E0,-1.044123E0,-1.9209841E0,2.4751581E-1,-1.026777E0,4.465934E-2,-4.4532446E-3,9.391611E-3,4.290545E-2,3.7391797E-2,-2.8806418E-2,5.0941765E-2,1.9935282E-2,-7.594391E-2,8.0527915E-3,-7.5403596E-3,-6.518603E-2,-1.07017376E-1,-3.8149495E-2,-7.828813E-2,-4.4015955E-2,-3.7940647E-2,-1.1625037E-1,-4.752801E-2,3.268643E-2,-8.6060464E-2,3.862262E-2],"categories":[],"categories_nodes":[],"categories_segments":[],"categories_sizes":[],"default_left":[0,0,0,0,0,0,0,0,0,0,0,0,0,0,0,0,0,0,0,0,0,0,0,0,0,0,0,0,0,0,0,0,0,0,0,0,0,0,0,0,0,0,0,0,0,0,0,0,0,0,0,0,0,0,0,0,0],"id":9,"left_children":[1,3,5,7,-1,9,-1,11,13,15,17,19,21,23,25,27,29,31,33,-1,35,37,39,-1,41,-1,-1,43,-1,45,47,49,51,53,55,-1,-1,-1,-1,-1,-1,-1,-1,-1,-1,-1,-1,-1,-1,-1,-1,-1,-1,-1,-1,-1,-1],"loss_changes":[8.631047E2,1.8140259E1,3.9961243E1,1.6127014E0,0E0,6.1181335E0,0E0,1.7495117E0,3.9631453E0,5.0363007E0,8.668236E0,4.408177E0,1.4683228E0,1.8812428E0,4.2917495E0,9.134678E0,8.159706E0,7.3503876E0,8.97736E0,0E0,3.1652727E0,1.2078552E0,5.79131E0,0E0,4.1546917E-1,0E0,0E0,6.6766872E0,0E0,3.954527E0,9.916687E-1,5.652397E0,4.413864E0,5.915363E0,1.5955967E1,0E0,0E0,0E0,0E0,0E0,0E0,0E0,0E0,0E0,0E0,0E0,0E0,0E0,0E0,0E0,0E0,0E0,0E0,0E0,0E0,0E0,0E0],"parents":[2147483647,0,0,1,1,2,2,3,3,5,5,7,7,8,8,9,9,10,10,11,11,12,12,13,13,14,14,15,15,16,16,17,17,18,18,20,20,21,21,22,22,24,24,27,27,29,29,30,30,31,31,32,32,33,33,34,34],"right_children":[2,4,6,8,-1,10,-1,12,14,16,18,20,22,24,26,28,30,32,34,-1,36,38,40,-1,42,-1,-1,44,-1,46,48,50,52,54,56,-1,-1,-1,-1,-1,-1,-1,-1,-1,-1,-1,-1,-1,-1,-1,-1,-1,-1,-1,-1,-1,-1],"split_conditions":[3.0396327E-1,1.1717282E-2,-8.3707225E-1,1.4572653E-1,-7.3399596E-2,1.4680918E-1,-1.0360829E-1,1.3696034E-1,6.356021E-3,9.368544E-1,3.6546392E0,2.2730875E-1,2.4597788E-1,2.3561423E-1,-9.036239E-2,6.0453E-3,3.501956E0,1.5143894E-1,3.7657988E-1,-2.8337488E-2,1.3670644E-1,9.597808E-1,1.2544569E3,4.5737433E-3,2.3696383E-2,2.6881693E-2,-5.299998E-2,9.191499E-1,-9.069946E-2,2.1440804E-2,9.295969E-3,-1.8513792E0,-4.27804E-3,3.4005073E-1,6.487394E-1,4.465934E-2,-4.4532446E-3,9.391611E-3,4.290545E-2,3.7391797E-2,-2.8806418E-2,5.0941765E-2,1.9935282E-2,-7.594391E-2,8.0527915E-3,-7.5403596E-3,-6.518603E-2,-1.07017376E-1,-3.8149495E-2,-7.828813E-2,-4.4015955E-2,-3.7940647E-2,-1.1625037E-1,-4.752801E-2,3.268643E-2,-8.6060464E-2,3.862262E-2],"split_indices":[9,19,22,3,0,5,0,5,19,21,20,6,6,6,0,19,20,3,9,0,5,21,18,0,13,0,0,21,0,13,1,0,1,10,14,0,0,0,0,0,0,0,0,0,0,0,0,0,0,0,0,0,0,0,0,0,0],"split_type":[0,0,0,0,0,0,0,0,0,0,0,0,0,0,0,0,0,0,0,0,0,0,0,0,0,0,0,0,0,0,0,0,0,0,0,0,0,0,0,0,0,0,0,0,0,0,0,0,0,0,0,0,0,0,0,0,0],"sum_hessian":[7.2019073E2,4.6331335E2,2.568774E2,4.606653E2,2.6480598E0,1.752114E2,8.166601E1,4.3925424E2,2.1411068E1,6.1186966E1,1.1402442E2,1.9915312E1,4.1933893E2,1.6578392E1,4.8326755E0,1.6374777E1,4.4812187E1,9.344025E1,2.058418E1,2.6238756E0,1.7291435E1,3.9767902E2,2.1659912E1,3.9886723E0,1.258972E1,2.5865571E0,2.2461183E0,1.0536036E1,5.838741E0,1.9904356E1,2.4907831E1,8.128257E1,1.2157675E1,9.8778305E0,1.070635E1,1.3250745E1,4.040691E0,3.3510962E0,3.943279E2,1.845094E1,3.2089732E0,9.291146E0,3.2985733E0,2.2222786E0,8.313757E0,3.9524899E0,1.5951866E1,2.2887318E1,2.0205138E0,1.7379187E1,6.390338E1,3.8787136E0,8.278961E0,2.1618013E0,7.716029E0,7.756145E0,2.9502056E0],"tree_param":{"num_deleted":"0","num_feature":"24","num_nodes":"57","size_leaf_vector":"1"}},{"base_weights":[-2.682277E-3,8.072699E-1,-1.3781793E0,8.124003E-1,-9.083479E-3,-9.672418E-2,-1.1077665E0,8.4793156E-1,6.3473064E-1,-9.523865E-1,-1.3497473E0,8.623059E-1,3.4550303E-1,-1.4953442E-2,6.802482E-1,-1.2863419E0,-6.9142747E-1,-8.346307E-1,-1.6041883E0,4.9939257E-1,8.83056E-1,3.9406322E-2,-1.7117836E-1,7.079104E-1,-1.004623E-2,-7.553843E-1,-1.5874155E0,-7.8100294E-1,2.459213E-2,-1.0560457E0,4.785575E-2,-6.800085E-3,-1.6916301E0,-2.3194721E-2,4.0129807E-2,4.2198163E-2,4.9005065E-2,1.8825691E-2,-4.361659E-2,4.7763463E-2,2.7466346E-2,1.4715709E-2,-6.122441E-2,4.4776155E-3,-8.654206E-2,-6.219227E-2,-2.4818884E-2,3.3278838E-2,-6.405454E-2,-8.714283E-2,-3.6177196E-2],"categories":[],"categories_nodes":[],"categories_segments":[],"categories_sizes":[],"default_left":[0,0,0,0,0,0,0,0,0,0,0,0,0,0,0,0,0,0,0,0,0,0,0,0,0,0,0,0,0,0,0,0,0,0,0,0,0,0,0,0,0,0,0,0,0,0,0,0,0,0,0],"id":10,"left_children":[1,3,5,7,-1,-1,9,11,13,15,17,19,21,-1,23,25,27,29,31,33,35,-1,37,39,-1,41,43,45,-1,47,-1,-1,49,-1,-1,-1,-1,-1,-1,-1,-1,-1,-1,-1,-1,-1,-1,-1,-1,-1,-1],"loss_changes":[7.8843634E2,2.4075012E0,3.7312286E1,2.2602844E0,0E0,0E0,5.438339E0,2.3485718E0,3.5126686E0,8.897293E0,7.512192E0,2.2367554E0,2.8474357E0,0E0,1.9592438E0,6.489662E0,7.294945E0,1.0695705E1,5.433922E0,6.661547E0,4.439392E-1,0E0,2.7455077E0,2.3190231E0,0E0,9.870054E0,7.3190155E0,7.418419E0,0E0,9.455074E0,0E0,0E0,7.9956055E-1,0E0,0E0,0E0,0E0,0E0,0E0,0E0,0E0,0E0,0E0,0E0,0E0,0E0,0E0,0E0,0E0,0E0,0E0],"parents":[2147483647,0,0,1,1,2,2,3,3,6,6,7,7,8,8,9,9,10,10,11,11,12,12,14,14,15,15,16,16,17,17,18,18,19,19,20,20,22,22,23,23,25,25,26,26,27,27,29,29,32,32],"right_children":[2,4,6,8,-1,-1,10,12,14,16,18,20,22,-1,24,26,28,30,32,34,36,-1,38,40,-1,42,44,46,-1,48,-1,-1,50,-1,-1,-1,-1,-1,-1,-1,-1,-1,-1,-1,-1,-1,-1,-1,-1,-1,-1],"split_conditions":[2.5281414E-1,3.0396327E-1,8.9107805E-1,2.4181174E-1,-9.083479E-3,-9.672418E-2,9.0590424E2,4.149968E-1,3.3013046E0,3.9533007E-1,9.368544E-1,4.4859135E-1,2.3776737E-1,-1.4953442E-2,2.1650268E-2,5.4055965E-3,9.295969E-3,9.314787E3,1.8716449E-2,-3.7931714E-3,3.3951266E0,3.9406322E-2,6.034439E-3,3.397276E0,-1.004623E-2,2.1134004E-2,9.161148E-1,2.6181573E2,2.459213E-2,3.3785638E-1,4.785575E-2,-6.800085E-3,3.6279368E-1,-2.3194721E-2,4.0129807E-2,4.2198163E-2,4.9005065E-2,1.8825691E-2,-4.361659E-2,4.7763463E-2,2.7466346E-2,1.4715709E-2,-6.122441E-2,4.4776155E-3,-8.654206E-2,-6.219227E-2,-2.4818884E-2,3.3278838E-2,-6.405454E-2,-8.714283E-2,-3.6177196E-2],"split_indices":[17,9,21,17,0,0,18,15,20,15,21,14,6,0,4,19,1,18,13,1,20,0,19,20,0,4,21,18,0,10,0,0,10,0,0,0,0,0,0,0,0,0,0,0,0,0,0,0,0,0,0],"split_type":[0,0,0,0,0,0,0,0,0,0,0,0,0,0,0,0,0,0,0,0,0,0,0,0,0,0,0,0,0,0,0,0,0,0,0,0,0,0,0,0,0,0,0,0,0,0,0,0,0,0,0],"sum_hessian":[7.0569885E2,4.4441888E2,2.6127997E2,4.4230283E2,2.116055E0,8.3449776E1,1.7783018E2,3.654464E2,7.685642E1,1.1129897E2,6.653122E1,3.5458554E2,1.0860871E1,3.3132935E0,7.354313E1,4.7097683E1,6.420129E1,2.3412603E1,4.3118614E1,2.0533144E1,3.340524E2,5.5667033E0,5.294168E0,7.149534E1,2.047789E0,1.8312206E1,2.8785475E1,5.999921E1,4.202078E0,2.1203043E1,2.2095602E0,2.5673285E0,4.0551285E1,4.788848E0,1.5744296E1,2.4503961E2,8.901278E1,3.232316E0,2.061852E0,2.596747E1,4.5527866E1,5.771071E0,1.2541136E1,2.297555E0,2.6487919E1,2.156357E1,3.8435642E1,2.224883E0,1.8978159E1,3.775325E1,2.7980342E0],"tree_param":{"num_deleted":"0","num_feature":"24","num_nodes":"51","size_leaf_vector":"1"}},{"base_weights":[-2.389035E-2,7.622844E-1,-1.3103443E0,7.766429E-1,1.9188021E-1,-1.0301001E0,-9.311583E-2,7.837645E-1,-1.061681E-2,-3.6901142E-2,4.8768348E-1,-9.27915E-1,-1.3757617E0,2.7930614E-1,7.984936E-1,-2.5959363E-2,4.791352E-2,1.3297498E-1,-9.610901E-1,-8.8179857E-1,-1.9113346E0,-2.9487956E-2,4.8317403E-1,9.214633E-1,7.611245E-1,-3.6892176E-2,4.6380457E-2,-8.394596E-2,-9.069018E-1,-1.0361146E0,1.6900176E-2,-1.12951055E-1,-1.061935E0,4.554281E-2,2.226454E-3,4.8862442E-2,1.3900096E-2,1.1654737E-2,3.873042E-2,-4.641673E-2,1.4241128E-2,-2.4301257E-2,-7.7986956E-2,-8.3897226E-2,4.6478542E-3],"categories":[],"categories_nodes":[],"categories_segments":[],"categories_sizes":[],"default_left":[0,0,0,0,0,0,0,0,0,0,0,0,0,0,0,0,0,0,0,0,0,0,0,0,0,0,0,0,0,0,0,0,0,0,0,0,0,0,0,0,0,0,0,0,0],"id":11,"left_children":[1,3,5,7,9,11,-1,13,-1,-1,15,17,19,21,23,-1,-1,25,27,29,31,-1,33,35,37,-1,-1,-1,39,41,-1,-1,43,-1,-1,-1,-1,-1,-1,-1,-1,-1,-1,-1,-1],"loss_changes":[7.055491E2,3.3974762E0,3.9012817E1,3.1389618E0,3.6499228E0,5.001419E0,0E0,2.8921204E0,0E0,0E0,5.082342E0,5.0641556E0,8.495338E0,2.6647704E0,1.1681213E0,0E0,0E0,4.2352877E0,3.7723846E0,4.4679623E0,2.8009262E0,0E0,2.1036196E0,2.9613953E0,2.0818024E0,0E0,0E0,0E0,3.5528107E0,4.90621E0,0E0,0E0,5.136675E0,0E0,0E0,0E0,0E0,0E0,0E0,0E0,0E0,0E0,0E0,0E0,0E0],"parents":[2147483647,0,0,1,1,2,2,3,3,4,4,5,5,7,7,10,10,11,11,12,12,13,13,14,14,17,17,18,18,19,19,20,20,22,22,23,23,24,24,28,28,29,29,32,32],"right_children":[2,4,6,8,10,12,-1,14,-1,-1,16,18,20,22,24,-1,-1,26,28,30,32,-1,34,36,38,-1,-1,-1,40,42,-1,-1,44,-1,-1,-1,-1,-1,-1,-1,-1,-1,-1,-1,-1],"split_conditions":[2.535844E-1,4.1672006E-1,4.358581E-1,8.579052E-3,2.02955E-2,1.8793864E3,-9.311583E-2,7.1660995E1,-1.061681E-2,-3.6901142E-2,-1.1367404E-3,3.3593116E0,4.5140007E-1,3.2753801E0,1.7489168E2,-2.5959363E-2,4.791352E-2,3.336611E0,3.793593E-1,1.231162E-1,1.4864765E-1,-2.9487956E-2,2.3451245E-1,2.5989566E-2,1.8598999E2,-3.6892176E-2,4.6380457E-2,-8.394596E-2,6.703749E-1,2.3692834E-1,1.6900176E-2,-1.12951055E-1,1.7459807E0,4.554281E-2,2.226454E-3,4.8862442E-2,1.3900096E-2,1.1654737E-2,3.873042E-2,-4.641673E-2,1.4241128E-2,-2.4301257E-2,-7.7986956E-2,-8.3897226E-2,4.6478542E-3],"split_indices":[7,15,17,19,13,18,0,18,0,0,23,20,0,20,18,0,0,20,15,23,3,0,17,13,18,0,0,0,14,6,0,0,0,0,0,0,0,0,0,0,0,0,0,0,0],"split_type":[0,0,0,0,0,0,0,0,0,0,0,0,0,0,0,0,0,0,0,0,0,0,0,0,0,0,0,0,0,0,0,0,0,0,0,0,0,0,0,0,0,0,0,0,0],"sum_hessian":[6.9562427E2,4.3201794E2,2.6360635E2,4.2105728E2,1.0960669E1,1.7673944E2,8.6866905E1,4.18253E2,2.8042927E0,2.2843826E0,8.676287E0,1.3925659E2,3.7482845E1,1.2432037E1,4.0582095E2,2.7306006E0,5.945686E0,4.131429E0,1.3512517E2,2.0875584E1,1.6607262E1,2.0025496E0,1.0429488E1,8.906825E1,3.167527E2,2.0053198E0,2.1261091E0,7.3799777E0,1.27745186E2,1.8664892E1,2.2106905E0,1.0606239E1,6.001022E0,4.7356606E0,5.6938276E0,8.148509E1,7.583166E0,8.342618E0,3.0841006E2,1.2570543E2,2.0397563E0,1.0042753E1,8.62214E0,3.618202E0,2.38282E0],"tree_param":{"num_deleted":"0","num_feature":"24","num_nodes":"45","size_leaf_vector":"1"}},{"base_weights":[5.741488E-3,7.7013713E-1,-1.2024384E0,5.823527E-1,8.133925E-1,-1.6751308E0,-9.2327434E-1,6.3553196E-1,-1.9328901E-1,3.2977363E-1,8.24296E-1,-6.8644166E-1,-1.713933E0,-4.0831378E-1,-1.0141338E0,7.339151E-1,2.7154472E-1,1.8380335E-2,-4.442458E-2,3.972858E-2,-3.6782127E-2,2.933668E-1,8.339913E-1,7.027779E-4,-5.692171E-2,-1.7398785E0,-3.8948443E-2,3.9508867E-1,-7.6092607E-1,-9.013955E-1,-1.3960671E0,8.840185E-1,4.6484607E-1,-4.7569326E-1,6.254918E-1,-2.1389531E-2,3.4931418E-2,8.448029E-1,4.2502892E-1,-8.9415E-2,-1.1455775E0,8.0142057E-1,-1.1457023E-2,-1.37132015E-2,-1.0543603E0,-9.6428853E-1,1.1644616E-1,-1.0999576E-1,-1.1874639E0,4.9110677E-2,2.9409153E-2,3.648681E-2,-6.543188E-3,2.8419057E-2,-7.632642E-2,5.8505945E-3,4.7990527E-2,4.2451307E-2,1.1922522E-2,3.6616378E-2,-2.7412117E-2,-1.0234995E-2,-6.926033E-2,5.0769992E-2,1.400737E-2,3.2650575E-2,-4.704992E-2,-6.705837E-2,7.730886E-3,1.3707428E-2,-5.0603528E-2,-4.313947E-2,3.381313E-2,-1.7052216E-2,-7.4646E-2],"categories":[],"categories_nodes":[],"categories_segments":[],"categories_sizes":[],"default_left":[0,0,0,0,0,0,0,0,0,0,0,0,0,0,0,0,0,0,0,0,0,0,0,0,0,0,0,0,0,0,0,0,0,0,0,0,0,0,0,0,0,0,0,0,0,0,0,0,0,0,0,0,0,0,0,0,0,0,0,0,0,0,0,0,0,0,0,0,0,0,0,0,0,0,0],"id":12,"left_children":[1,3,5,7,9,11,13,15,17,19,21,23,25,27,29,31,33,-1,-1,-1,-1,35,37,-1,-1,39,-1,41,43,45,47,49,51,53,55,-1,-1,57,59,-1,61,63,-1,65,67,69,71,-1,73,-1,-1,-1,-1,-1,-1,-1,-1,-1,-1,-1,-1,-1,-1,-1,-1,-1,-1,-1,-1,-1,-1,-1,-1,-1,-1],"loss_changes":[6.3905023E2,2.9688263E0,3.3837738E1,3.5409775E0,1.5313263E0,2.5959473E0,7.5780334E0,2.5861683E0,2.6989079E0,5.1435146E0,1.4732666E0,1.719918E0,9.238281E-1,8.032167E0,4.9644165E0,2.038437E0,5.0947714E0,0E0,0E0,0E0,0E0,2.4989333E0,1.087738E0,0E0,0E0,5.586853E-1,0E0,2.462109E0,4.2191973E0,7.435951E0,2.6051598E0,5.2093124E-1,3.8551655E0,7.8872743E0,2.0534358E0,0E0,0E0,6.1131287E-1,3.5240011E0,0E0,1.8827782E0,3.4725165E-1,0E0,4.606979E0,5.010193E0,6.6598053E0,4.722342E0,0E0,6.4396706E0,0E0,0E0,0E0,0E0,0E0,0E0,0E0,0E0,0E0,0E0,0E0,0E0,0E0,0E0,0E0,0E0,0E0,0E0,0E0,0E0,0E0,0E0,0E0,0E0,0E0,0E0],"parents":[2147483647,0,0,1,1,2,2,3,3,4,4,5,5,6,6,7,7,8,8,9,9,10,10,11,11,12,12,13,13,14,14,15,15,16,16,21,21,22,22,25,25,27,27,28,28,29,29,30,30,31,31,32,32,33,33,34,34,37,37,38,38,40,40,41,41,43,43,44,44,45,45,46,46,48,48],"right_children":[2,4,6,8,10,12,14,16,18,20,22,24,26,28,30,32,34,-1,-1,-1,-1,36,38,-1,-1,40,-1,42,44,46,48,50,52,54,56,-1,-1,58,60,-1,62,64,-1,66,68,70,72,-1,74,-1,-1,-1,-1,-1,-1,-1,-1,-1,-1,-1,-1,-1,-1,-1,-1,-1,-1,-1,-1,-1,-1,-1,-1,-1,-1],"split_conditions":[2.535844E-1,-2.3943447E-1,9.161148E-1,1.4635879E-1,2.3161024E-1,3.711081E-1,9.285857E-1,-1.381775E0,2.7037838E-1,1.02387286E3,6.436585E1,2.8200453E-2,1.3039591E4,3.900584E-1,1.8793864E3,9.87079E-1,-1.3776652E0,1.8380335E-2,-4.442458E-2,3.972858E-2,-3.6782127E-2,-1.4027218E0,2.4729492E-1,7.027779E-4,-5.692171E-2,-2.3480263E-1,-3.8948443E-2,5.522998E-3,-3.7931714E-3,1.4353798E3,1.1590832E0,2.3786055E-1,2.4196143E-1,2.3790571E-1,2.5803434E-2,-2.1389531E-2,3.4931418E-2,1.2635661E0,1.2544569E3,-8.9415E-2,1.5370002E-1,2.5110457E-2,-1.1457023E-2,1.1759626E0,5.130381E-3,1.840416E-2,-4.5781606E-3,-1.0999576E-1,2.3692834E-1,4.9110677E-2,2.9409153E-2,3.648681E-2,-6.543188E-3,2.8419057E-2,-7.632642E-2,5.8505945E-3,4.7990527E-2,4.2451307E-2,1.1922522E-2,3.6616378E-2,-2.7412117E-2,-1.0234995E-2,-6.926033E-2,5.0769992E-2,1.400737E-2,3.2650575E-2,-4.704992E-2,-6.705837E-2,7.730886E-3,1.3707428E-2,-5.0603528E-2,-4.313947E-2,3.381313E-2,-1.7052216E-2,-7.4646E-2],"split_indices":[7,8,21,3,7,9,21,22,9,18,18,13,18,15,18,21,22,0,0,0,0,22,17,0,0,8,0,19,1,18,16,6,17,6,13,0,0,16,18,0,3,12,0,16,1,12,1,0,6,0,0,0,0,0,0,0,0,0,0,0,0,0,0,0,0,0,0,0,0,0,0,0,0,0,0],"split_type":[0,0,0,0,0,0,0,0,0,0,0,0,0,0,0,0,0,0,0,0,0,0,0,0,0,0,0,0,0,0,0,0,0,0,0,0,0,0,0,0,0,0,0,0,0,0,0,0,0,0,0,0,0,0,0,0,0,0,0,0,0,0,0,0,0,0,0,0,0,0,0,0,0,0,0],"sum_hessian":[6.899639E2,4.2281705E2,2.6714688E2,8.186775E1,3.409493E2,9.733484E1,1.6981204E2,7.678395E1,5.083797E0,8.20631E0,3.3274298E2,4.3815894E0,9.295325E1,2.629198E1,1.4352007E2,5.9645794E1,1.7138157E1,3.0744922E0,2.0093045E0,5.8906655E0,2.3156443E0,6.5278397E0,3.2621515E2,2.0983984E0,2.2831907E0,8.960575E1,3.3474956E0,7.982942E0,1.8309038E1,1.13405396E2,3.0114676E1,3.6819904E1,2.282589E1,5.3980527E0,1.1740105E1,2.3285768E0,4.1992626E0,3.1677493E2,9.4402075E0,8.099733E1,8.608423E0,4.663473E0,3.319469E0,5.457801E0,1.2851237E1,1.0685536E2,6.550035E0,4.2379413E0,2.5876734E1,2.5902195E1,1.0917709E1,1.5644414E1,7.1814766E0,2.938035E0,2.4600174E0,5.1925416E0,6.547563E0,3.141864E2,2.5885296E0,7.362993E0,2.077215E0,2.123798E0,6.484626E0,2.6342201E0,2.0292532E0,3.3470378E0,2.1107628E0,1.0298721E1,2.552516E0,3.793596E0,1.0306176E2,2.18566E0,4.364375E0,7.4232926E0,1.8453442E1],"tree_param":{"num_deleted":"0","num_feature":"24","num_nodes":"75","size_leaf_vector":"1"}},{"base_weights":[3.37589E-3,7.6183194E-1,-1.1409146E0,7.6959485E-1,-2.2279046E-2,-8.751395E-1,-8.337677E-2,7.809401E-1,2.986969E-1,-8.30636E-1,-1.4651654E0,2.6319483E-3,7.879779E-1,-2.4375623E-2,6.1980724E-1,-8.61705E-1,1.9490619E-1,1.0605784E-2,-1.9686959E0,9.1905874E-1,7.45088E-1,-1.1622558E-2,4.6664353E-2,2.2877674E-1,-8.934638E-1,-1.9005938E-2,3.561722E-2,-4.1888237E-2,-1.10657595E-1,4.8632108E-2,1.6113654E-2,6.7353854E-3,3.788879E-2,-1.8521842E-2,3.4205996E-2,-4.5840982E-2,1.0889626E-2],"categories":[],"categories_nodes":[],"categories_segments":[],"categories_sizes":[],"default_left":[0,0,0,0,0,0,0,0,0,0,0,0,0,0,0,0,0,0,0,0,0,0,0,0,0,0,0,0,0,0,0,0,0,0,0,0,0],"id":13,"left_children":[1,3,5,7,-1,9,-1,11,13,15,17,-1,19,-1,21,23,25,-1,27,29,31,-1,-1,33,35,-1,-1,-1,-1,-1,-1,-1,-1,-1,-1,-1,-1],"loss_changes":[5.9032385E2,4.1769714E0,3.6488525E1,1.9400482E0,0E0,3.5697021E0,0E0,1.9914246E0,3.1271565E0,5.642517E0,1.0110104E1,0E0,1.5232391E0,0E0,2.4571803E0,5.9862976E0,2.0166616E0,0E0,6.130104E-1,2.6458588E0,2.2305756E0,0E0,0E0,1.7597475E0,4.4154205E0,0E0,0E0,0E0,0E0,0E0,0E0,0E0,0E0,0E0,0E0,0E0,0E0],"parents":[2147483647,0,0,1,1,2,2,3,3,5,5,7,7,8,8,9,9,10,10,12,12,14,14,15,15,16,16,18,18,19,19,20,20,23,23,24,24],"right_children":[2,4,6,8,-1,10,-1,12,14,16,18,-1,20,-1,22,24,26,-1,28,30,32,-1,-1,34,36,-1,-1,-1,-1,-1,-1,-1,-1,-1,-1,-1,-1],"split_conditions":[2.535844E-1,8.579052E-3,4.358581E-1,4.1672006E-1,-2.2279046E-2,9.7942746E-1,-8.337677E-2,5.511845E1,-1.1367404E-3,9.7217107E-1,3.8666278E-1,2.6319483E-3,1.7489168E2,-2.4375623E-2,-1.4125173E0,-3.309279E0,1.2012905E0,1.0605784E-2,2.3486945E-1,2.5989566E-2,2.3161024E-1,-1.1622558E-2,4.6664353E-2,3.947402E-1,7.534694E-3,-1.9005938E-2,3.561722E-2,-4.1888237E-2,-1.10657595E-1,4.8632108E-2,1.6113654E-2,6.7353854E-3,3.788879E-2,-1.8521842E-2,3.4205996E-2,-4.5840982E-2,1.0889626E-2],"split_indices":[7,19,17,15,0,21,0,18,23,21,15,0,18,0,22,0,16,0,6,13,7,0,0,15,19,0,0,0,0,0,0,0,0,0,0,0,0],"split_type":[0,0,0,0,0,0,0,0,0,0,0,0,0,0,0,0,0,0,0,0,0,0,0,0,0,0,0,0,0,0,0,0,0,0,0,0,0],"sum_hessian":[6.7817816E2,4.0804977E2,2.7012842E2,4.058033E2,2.246454E0,1.812945E2,8.883392E1,3.9561346E2,1.0189864E1,1.7081812E2,1.0476374E1,3.8674726E0,3.9174597E2,2.804672E0,7.3851924E0,1.6595038E2,4.8677387E0,2.552531E0,7.9238424E0,9.154279E1,3.002032E2,2.055468E0,5.3297243E0,4.5207505E0,1.6142963E2,2.4312706E0,2.4364684E0,2.1952012E0,5.7286415E0,8.342274E1,8.12005E0,6.3497515E0,2.9385342E2,2.0325117E0,2.4882386E0,1.58278E2,3.151633E0],"tree_param":{"num_deleted":"0","num_feature":"24","num_nodes":"37","size_leaf_vector":"1"}},{"base_weights":[-1.0161782E-2,7.438589E-1,-1.0809989E0,7.6750463E-1,2.6281536E-1,-8.3367205E-1,-8.156135E-2,8.040554E-1,5.293588E-1,5.2693284E-1,-5.519179E-1,-1.5176926E0,-7.720273E-1,8.1116307E-1,-7.711944E-3,7.3820156E-1,2.751074E-1,-2.295917E-2,7.252891E-1,-6.1835714E-2,1.07166385E-2,-2.1706333E-2,-1.6861115E0,-7.1952397E-1,-1.5814357E0,4.42927E-1,8.2711667E-1,8.379548E-1,1.6950837E-1,-2.756753E-1,6.0282284E-1,3.4011635E-1,4.80409E-2,-1.0898393E0,-1.12216845E-1,-6.671791E-1,-1.4645408E0,-2.0533854E-2,-9.428844E-2,3.621822E-2,-1.1186442E-2,6.473622E-3,4.170271E-2,4.9095765E-2,1.10214325E-2,-2.8797273E-2,3.8790096E-2,2.7066676E-2,-5.1394176E-2,-9.822614E-3,3.69274E-2,-7.3434273E-3,3.98592E-2,-7.166084E-2,-7.2128675E-3,2.0865656E-2,-3.505768E-2,-9.29441E-2,-8.0619855E-3],"categories":[],"categories_nodes":[],"categories_segments":[],"categories_sizes":[],"default_left":[0,0,0,0,0,0,0,0,0,0,0,0,0,0,0,0,0,0,0,0,0,0,0,0,0,0,0,0,0,0,0,0,0,0,0,0,0,0,0,0,0,0,0,0,0,0,0,0,0,0,0,0,0,0,0,0,0,0,0],"id":14,"left_children":[1,3,5,7,9,11,-1,13,15,17,19,21,23,25,-1,27,29,-1,31,-1,-1,-1,33,35,37,39,41,43,45,47,49,51,-1,53,-1,55,57,-1,-1,-1,-1,-1,-1,-1,-1,-1,-1,-1,-1,-1,-1,-1,-1,-1,-1,-1,-1,-1,-1],"loss_changes":[5.470167E2,4.320343E0,3.673404E1,2.8681946E0,4.626173E0,7.057617E0,0E0,2.3464355E0,2.6258736E0,3.4091535E0,3.1094456E0,2.0234756E0,6.556778E0,1.5363922E0,0E0,1.4836264E0,4.7907295E0,0E0,8.961458E-1,0E0,0E0,0E0,1.7883072E0,5.7254486E0,2.8579578E0,3.089425E0,1.3889465E0,1.928402E0,2.9462113E0,6.8518505E0,1.9216905E0,1.6002063E0,0E0,2.421606E0,0E0,6.27713E0,5.0690117E0,0E0,0E0,0E0,0E0,0E0,0E0,0E0,0E0,0E0,0E0,0E0,0E0,0E0,0E0,0E0,0E0,0E0,0E0,0E0,0E0,0E0,0E0],"parents":[2147483647,0,0,1,1,2,2,3,3,4,4,5,5,7,7,8,8,9,9,10,10,11,11,12,12,13,13,15,15,16,16,18,18,22,22,23,23,24,24,25,25,26,26,27,27,28,28,29,29,30,30,31,31,33,33,35,35,36,36],"right_children":[2,4,6,8,10,12,-1,14,16,18,20,22,24,26,-1,28,30,-1,32,-1,-1,-1,34,36,38,40,42,44,46,48,50,52,-1,54,-1,56,58,-1,-1,-1,-1,-1,-1,-1,-1,-1,-1,-1,-1,-1,-1,-1,-1,-1,-1,-1,-1,-1,-1],"split_conditions":[2.535844E-1,1.4572653E-1,4.5618764E-1,-1.3820566E0,3.406334E0,3.8071495E-1,-8.156135E-2,3.007146E-1,2.3988228E-1,-1.4183016E0,-1.2486026E-3,-1.1855067E0,9.7942746E-1,4.4946223E-3,-7.711944E-3,3.0815115E-3,-1.3776652E0,-2.295917E-2,-1.4089658E0,-6.1835714E-2,1.07166385E-2,-2.1706333E-2,-2.2610137E-3,2.7437918E0,1.4276703E-1,2.3763037E-1,1.3521442E-1,2.736772E-1,5.322871E-1,2.457958E-2,1.385043E-1,9.9301225E-1,4.80409E-2,-1.0330013E0,-1.12216845E-1,1.8716449E-2,6.487394E-1,-2.0533854E-2,-9.428844E-2,3.621822E-2,-1.1186442E-2,6.473622E-3,4.170271E-2,4.9095765E-2,1.10214325E-2,-2.8797273E-2,3.8790096E-2,2.7066676E-2,-5.1394176E-2,-9.822614E-3,3.69274E-2,-7.3434273E-3,3.98592E-2,-7.166084E-2,-7.2128675E-3,2.0865656E-2,-3.505768E-2,-9.29441E-2,-8.0619855E-3],"split_indices":[7,3,7,22,20,15,0,9,7,22,1,22,21,19,0,1,22,0,22,0,0,0,1,0,3,6,3,9,0,13,3,21,0,22,0,13,14,0,0,0,0,0,0,0,0,0,0,0,0,0,0,0,0,0,0,0,0,0,0],"split_type":[0,0,0,0,0,0,0,0,0,0,0,0,0,0,0,0,0,0,0,0,0,0,0,0,0,0,0,0,0,0,0,0,0,0,0,0,0,0,0,0,0,0,0,0,0,0,0,0,0,0,0,0,0,0,0,0,0,0,0],"sum_hessian":[6.7548004E2,3.965548E2,2.7892526E2,3.7740775E2,1.914705E1,1.9416394E2,8.476133E1,3.2513025E2,5.227748E1,1.47263565E1,4.420695E0,1.4099005E1,1.8006494E2,3.2288895E2,2.2413218E0,2.765673E1,2.462075E1,2.2459269E0,1.248043E1,2.0102017E0,2.4104934E0,2.3778918E0,1.1721113E1,1.7087018E2,9.194769E0,1.46024685E1,3.0828647E2,2.3126661E1,4.530071E0,9.243776E0,1.5376975E1,5.6631827E0,6.817247E0,7.094938E0,4.626175E0,1.6142404E2,9.446126E0,2.381738E0,6.8130307E0,1.0206922E1,4.395547E0,3.229086E0,3.0505737E2,1.8276E1,4.850662E0,2.0543046E0,2.4757664E0,4.56541E0,4.678366E0,2.1671798E0,1.3209795E1,3.0704403E0,2.5927424E0,4.8265376E0,2.2684004E0,4.5606704E0,1.5686337E2,6.9246426E0,2.5214834E0],"tree_param":{"num_deleted":"0","num_feature":"24","num_nodes":"59","size_leaf_vector":"1"}},{"base_weights":[2.501594E-2,7.271023E-1,-9.6352935E-1,2.3287499E-1,7.422873E-1,-7.055838E-1,-7.72331E-2,4.4123638E-1,-2.9737273E-2,7.608027E-1,3.495355E-1,1.2849848E-1,-7.409717E-1,-2.3675848E-2,7.3486817E-1,7.7948105E-1,4.7661993E-1,-4.5427388E-1,6.6267157E-1,4.0506564E-2,-3.8775533E-1,-9.9222136E-1,-6.1116636E-1,4.631962E-2,4.3752096E-3,2.8970316E-1,7.924778E-1,6.7052233E-1,-3.519858E-2,-5.6738257E-2,2.2677137E-2,7.8524165E-3,8.0518675E-1,-3.2561004E-2,1.5452824E-3,-1.3166546E0,-3.640818E-1,-4.7707286E-1,-8.7616986E-1,3.807942E-2,-2.0484257E-2,4.0561393E-2,2.7549153E-2,-6.002083E-3,4.0707152E-2,5.861647E-3,4.8421677E-2,-1.9515734E-3,-7.0248656E-2,-3.7055284E-2,2.9255955E-2,-2.8656462E-2,9.552407E-3,-4.8688047E-2,1.4169668E-2],"categories":[],"categories_nodes":[],"categories_segments":[],"categories_sizes":[],"default_left":[0,0,0,0,0,0,0,0,0,0,0,0,0,0,0,0,0,0,0,0,0,0,0,0,0,0,0,0,0,0,0,0,0,0,0,0,0,0,0,0,0,0,0,0,0,0,0,0,0,0,0,0,0,0,0],"id":15,"left_children":[1,3,5,7,9,11,-1,13,-1,15,17,19,21,-1,23,25,27,29,31,-1,33,35,37,-1,-1,39,41,43,-1,-1,-1,-1,45,-1,-1,47,49,51,53,-1,-1,-1,-1,-1,-1,-1,-1,-1,-1,-1,-1,-1,-1,-1,-1],"loss_changes":[4.540587E2,2.6978607E0,3.9637527E1,2.4799705E0,2.4294586E0,5.7037354E0,0E0,3.2615473E0,0E0,1.5028687E0,4.9668293E0,3.33546E0,5.3432083E0,0E0,9.8562E-1,1.8695526E0,6.046594E0,4.091591E0,8.641324E-1,0E0,6.336186E-1,1.1857956E1,3.9488602E0,0E0,0E0,3.6455584E0,1.0050049E0,2.5307493E0,0E0,0E0,0E0,0E0,1.063643E0,0E0,0E0,4.4065933E0,8.307224E0,5.4871674E0,4.813116E0,0E0,0E0,0E0,0E0,0E0,0E0,0E0,0E0,0E0,0E0,0E0,0E0,0E0,0E0,0E0,0E0],"parents":[2147483647,0,0,1,1,2,2,3,3,4,4,5,5,7,7,9,9,10,10,11,11,12,12,14,14,15,15,16,16,17,17,18,18,20,20,21,21,22,22,25,25,26,26,27,27,32,32,35,35,36,36,37,37,38,38],"right_children":[2,4,6,8,10,12,-1,14,-1,16,18,20,22,-1,24,26,28,30,32,-1,34,36,38,-1,-1,40,42,44,-1,-1,-1,-1,46,-1,-1,48,50,52,54,-1,-1,-1,-1,-1,-1,-1,-1,-1,-1,-1,-1,-1,-1,-1,-1],"split_conditions":[2.5281414E-1,7.1660995E1,4.358581E-1,1.4430541E-1,1.4572653E-1,3.363552E0,-7.72331E-2,1.3918878E-1,-2.9737273E-2,2.450832E-1,-1.3794241E-3,4.4760928E2,1.4658655E-1,-2.3675848E-2,4.6791723E-1,1.1167508E0,1.6119464E3,7.022764E-4,-2.3997927E-1,4.0506564E-2,-7.6345255E-4,-2.3840064E-1,3.7657988E-1,4.631962E-2,4.3752096E-3,5.601856E2,1.2259464E0,-2.3956479E-1,-3.519858E-2,-5.6738257E-2,2.2677137E-2,7.8524165E-3,9.7986907E-1,-3.2561004E-2,1.5452824E-3,-1.1093625E-2,2.3323588E-2,3.6546392E0,-2.335071E-1,3.807942E-2,-2.0484257E-2,4.0561393E-2,2.7549153E-2,-6.002083E-3,4.0707152E-2,5.861647E-3,4.8421677E-2,-1.9515734E-3,-7.0248656E-2,-3.7055284E-2,2.9255955E-2,-2.8656462E-2,9.552407E-3,-4.8688047E-2,1.4169668E-2],"split_indices":[17,18,17,3,3,20,0,5,0,6,23,18,3,0,14,16,18,1,8,0,1,8,9,0,0,18,16,8,0,0,0,0,21,0,0,1,13,20,8,0,0,0,0,0,0,0,0,0,0,0,0,0,0,0,0],"split_type":[0,0,0,0,0,0,0,0,0,0,0,0,0,0,0,0,0,0,0,0,0,0,0,0,0,0,0,0,0,0,0,0,0,0,0,0,0,0,0,0,0,0,0,0,0,0,0,0,0,0,0,0,0,0,0],"sum_hessian":[6.5221216E2,3.8151584E2,2.7069635E2,1.1859509E1,3.696563E2,1.8901361E2,8.168274E1,9.847235E0,2.0122745E0,3.5211932E2,1.7537E1,7.585865E0,1.8142775E2,2.2439668E0,7.6032677E0,3.2876767E2,2.3351637E1,4.790144E0,1.2746857E1,3.0239544E0,4.5619106E0,5.953963E1,1.2188812E2,5.5347705E0,2.0684972E0,9.100711E0,3.1966696E2,2.0428474E1,2.9231627E0,2.594978E0,2.195166E0,3.2650192E0,9.481837E0,2.458982E0,2.1029289E0,3.8538456E1,2.1001173E1,8.279405E1,3.9094067E1,5.381092E0,3.7196186E0,2.9444644E2,2.5220533E1,3.1658947E0,1.7262579E1,2.1479769E0,7.333861E0,2.5850394E0,3.595342E1,1.5187794E1,5.81338E0,7.251123E1,1.0282828E1,3.620705E1,2.8870182E0],"tree_param":{"num_deleted":"0","num_feature":"24","num_nodes":"55","size_leaf_vector":"1"}},{"base_weights":[1.936771E-2,7.2664905E-1,-9.3370444E-1,7.4181366E-1,8.5213676E-2,-7.16986E-1,-7.374258E-2,7.7933484E-1,5.5203384E-1,5.3555965E-1,-4.1764557E-2,-7.3627824E-1,1.6117087E-2,6.8166083E-1,9.0765256E-1,-2.557892E-2,5.981458E-1,4.2553954E-2,5.41383E-4,-6.2254083E-1,-9.383788E-1,4.482155E-2,7.06925E-1,4.849186E-2,9.415698E-1,6.513375E-1,-7.951574E-3,-4.6754175E-1,-9.3033147E-1,-1.3626014E0,-6.734033E-1,-4.5531232E-2,2.731402E-2,3.7810445E-2,1.3366023E-2,3.9957277E-2,-4.4693362E-2,4.777375E-2,6.15627E-3,5.0126404E-2,2.6838008E-2,-1.1851854E-2,-4.9334235E-2,2.3621924E-2,-5.2040905E-2,-1.9989783E-2,-7.6716326E-2,-4.9025144E-2,-1.0471439E-2],"categories":[],"categories_nodes":[],"categories_segments":[],"categories_sizes":[],"default_left":[0,0,0,0,0,0,0,0,0,0,0,0,0,0,0,0,0,0,0,0,0,0,0,0,0,0,0,0,0,0,0,0,0,0,0,0,0,0,0,0,0,0,0,0,0,0,0,0,0],"id":16,"left_children":[1,3,5,7,9,11,-1,13,15,17,-1,19,-1,21,23,-1,25,-1,-1,27,29,31,33,35,37,39,-1,41,43,45,47,-1,-1,-1,-1,-1,-1,-1,-1,-1,-1,-1,-1,-1,-1,-1,-1,-1,-1],"loss_changes":[4.3602945E2,3.5482788E0,3.1258347E1,2.1516113E0,4.4704256E0,4.221489E0,0E0,3.1450195E0,3.4095993E0,1.1705768E0,0E0,3.9070053E0,0E0,2.7762833E0,3.648552E0,0E0,2.5649052E0,0E0,0E0,5.671337E0,6.769993E0,4.1996465E0,3.4332657E0,4.865883E0,1.2697067E0,1.7674236E0,0E0,1.0193352E1,6.979233E0,3.5723763E0,6.0744534E0,0E0,0E0,0E0,0E0,0E0,0E0,0E0,0E0,0E0,0E0,0E0,0E0,0E0,0E0,0E0,0E0,0E0,0E0],"parents":[2147483647,0,0,1,1,2,2,3,3,4,4,5,5,7,7,8,8,9,9,11,11,13,13,14,14,16,16,19,19,20,20,21,21,22,22,23,23,24,24,25,25,27,27,28,28,29,29,30,30],"right_children":[2,4,6,8,10,12,-1,14,16,18,-1,20,-1,22,24,-1,26,-1,-1,28,30,32,34,36,38,40,-1,42,44,46,48,-1,-1,-1,-1,-1,-1,-1,-1,-1,-1,-1,-1,-1,-1,-1,-1,-1,-1],"split_conditions":[2.535844E-1,1.4667736E-1,1.538968E-1,2.4196143E-1,6.1714444E-3,6.703749E-1,-7.374258E-2,3.3654609E0,3.2992306E0,2.4050853E-1,-4.1764557E-2,5.9812455E-3,1.6117087E-2,1.1167508E0,2.2730875E-1,-2.557892E-2,7.5998306E-3,4.2553954E-2,5.41383E-4,1.0886682E3,1.1923511E0,1.9140601E-2,3.3547797E0,2.2521633E-1,2.123622E-2,2.1160059E-2,-7.951574E-3,4.132278E-1,1.9977802E-2,1.437133E-1,2.4085367E-2,-4.5531232E-2,2.731402E-2,3.7810445E-2,1.3366023E-2,3.9957277E-2,-4.4693362E-2,4.777375E-2,6.15627E-3,5.0126404E-2,2.6838008E-2,-1.1851854E-2,-4.9334235E-2,2.3621924E-2,-5.2040905E-2,-1.9989783E-2,-7.6716326E-2,-4.9025144E-2,-1.0471439E-2],"split_indices":[7,5,5,17,19,14,0,20,20,17,0,19,0,16,6,0,19,0,0,18,16,12,20,6,4,13,0,17,13,5,13,0,0,0,0,0,0,0,0,0,0,0,0,0,0,0,0,0,0],"split_type":[0,0,0,0,0,0,0,0,0,0,0,0,0,0,0,0,0,0,0,0,0,0,0,0,0,0,0,0,0,0,0,0,0,0,0,0,0,0,0,0,0,0,0,0,0,0,0,0,0],"sum_hessian":[6.4483496E2,3.7028296E2,2.7455197E2,3.615782E2,8.704787E0,1.9770148E2,7.685048E1,2.9929773E2,6.2280468E1,6.1259356E0,2.5788515E0,1.9438484E2,3.316634E0,1.735248E2,1.2577293E2,2.1684704E0,6.0111996E1,3.437218E0,2.6887176E0,1.26995285E2,6.7389565E1,6.727112E0,1.6679768E2,4.8688717E0,1.2090406E2,5.6296917E1,3.815079E0,8.613695E1,4.0858337E1,2.4316603E1,4.3072964E1,2.0345898E0,4.692522E0,1.4933553E2,1.7462152E1,2.7946858E0,2.0741856E0,1.1871961E2,2.1844435E0,1.194243E1,4.435449E1,6.0659924E1,2.5477022E1,2.7439811E0,3.8114357E1,4.1843643E0,2.0132238E1,2.5248196E1,1.7824766E1],"tree_param":{"num_deleted":"0","num_feature":"24","num_nodes":"49","size_leaf_vector":"1"}},{"base_weights":[1.3506659E-2,7.305112E-1,-9.3514895E-1,7.39257E-1,-2.3883034E-2,-7.1529377E-1,-1.4292101E0,2.6579866E-1,7.573977E-1,1.3360561E-1,-7.447554E-1,-8.918869E-1,-7.329454E-2,6.774284E-1,-1.4604689E-1,-5.249844E-3,7.657794E-1,3.545351E-2,-3.9491564E-2,-1.2748196E0,-6.3970023E-1,-1.4990768E-2,-6.2782E-2,3.3617695E-3,4.440577E-2,3.160342E-2,-4.4417664E-2,3.9538512E-1,7.8003854E-1,-1.5063822E0,-6.503017E-1,-4.3304533E-1,-8.041287E-1,-4.6090793E-2,3.395919E-2,4.536658E-2,3.6720615E-2,-1.5377273E-2,-8.095925E-2,1.6424762E-2,-5.3883582E-2,-2.8369877E-2,2.8146854E-2,-3.0235419E-2,-5.5038005E-2],"categories":[],"categories_nodes":[],"categories_segments":[],"categories_sizes":[],"default_left":[0,0,0,0,0,0,0,0,0,0,0,0,0,0,0,0,0,0,0,0,0,0,0,0,0,0,0,0,0,0,0,0,0,0,0,0,0,0,0,0,0,0,0,0,0],"id":17,"left_children":[1,3,5,7,-1,9,11,13,15,17,19,21,-1,23,25,-1,27,-1,-1,29,31,-1,-1,-1,-1,-1,-1,33,35,37,39,41,43,-1,-1,-1,-1,-1,-1,-1,-1,-1,-1,-1,-1],"loss_changes":[4.280798E2,4.140442E0,2.8405457E1,2.858429E0,0E0,4.8386383E0,3.1723022E-1,2.5887384E0,2.5565338E0,4.388119E0,9.390961E0,1.3079977E0,0E0,9.07393E-1,5.2770615E0,0E0,1.4840393E0,0E0,0E0,3.2590828E0,4.9178467E0,0E0,0E0,0E0,0E0,0E0,0E0,6.087168E0,1.2256927E0,2.2908363E0,4.4064913E0,9.798337E0,4.370674E0,0E0,0E0,0E0,0E0,0E0,0E0,0E0,0E0,0E0,0E0,0E0,0E0],"parents":[2147483647,0,0,1,1,2,2,3,3,5,5,6,6,7,7,8,8,9,9,10,10,11,11,13,13,14,14,16,16,19,19,20,20,27,27,28,28,29,29,30,30,31,31,32,32],"right_children":[2,4,6,8,-1,10,12,14,16,18,20,22,-1,24,26,-1,28,-1,-1,30,32,-1,-1,-1,-1,-1,-1,34,36,38,40,42,44,-1,-1,-1,-1,-1,-1,-1,-1,-1,-1,-1,-1],"split_conditions":[2.5281414E-1,8.579052E-3,4.358581E-1,7.671579E1,-2.3883034E-2,-3.309279E0,7.91575E-1,2.3451245E-1,9.597808E-1,6.0453E-3,-1.9218199E0,7.513292E2,-7.329454E-2,-1.4068958E0,-1.8588254E-1,-5.249844E-3,1.8703217E-2,3.545351E-2,-3.9491564E-2,4.0259808E-1,2.9923302E-1,-1.4990768E-2,-6.2782E-2,3.3617695E-3,4.440577E-2,3.160342E-2,-4.4417664E-2,2.283326E-1,1.9547777E-2,4.2191795E-3,4.055286E-1,6.1001545E-1,8.0126044E2,-4.6090793E-2,3.395919E-2,4.536658E-2,3.6720615E-2,-1.5377273E-2,-8.095925E-2,1.6424762E-2,-5.3883582E-2,-2.8369877E-2,2.8146854E-2,-3.0235419E-2,-5.5038005E-2],"split_indices":[17,19,17,18,0,0,21,17,21,19,0,18,0,22,0,0,4,0,0,15,0,0,0,0,0,0,0,6,4,19,15,14,18,0,0,0,0,0,0,0,0,0,0,0,0],"split_type":[0,0,0,0,0,0,0,0,0,0,0,0,0,0,0,0,0,0,0,0,0,0,0,0,0,0,0,0,0,0,0,0,0,0,0,0,0,0,0,0,0,0,0,0,0],"sum_hessian":[6.2734863E2,3.5742944E2,2.6991922E2,3.5524597E2,2.1834655E0,1.8848982E2,8.14294E1,1.3686682E1,3.415593E2,6.203681E0,1.8228613E2,6.8213043E0,7.460809E1,6.5226197E0,7.164062E0,3.176719E0,3.3838257E2,3.9649534E0,2.2387278E0,2.8310163E1,1.5397597E2,3.2901833E0,3.531121E0,2.012661E0,4.5099587E0,3.5701723E0,3.5938897E0,1.360887E1,3.247737E2,1.9622381E1,8.687783E0,6.983741E1,8.4138565E1,2.013843E0,1.1595027E1,8.071101E1,2.440627E2,2.0080252E0,1.7614355E1,2.7107537E0,5.9770293E0,6.191566E1,7.921747E0,5.213061E1,3.2007954E1],"tree_param":{"num_deleted":"0","num_feature":"24","num_nodes":"45","size_leaf_vector":"1"}},{"base_weights":[2.4137215E-3,7.049973E-1,-8.9249355E-1,4.5703807E-1,7.400499E-1,-7.0053107E-1,-6.950643E-2,1.0372674E-1,6.666627E-1,7.815438E-1,5.455342E-1,-1.1352521E0,-6.387635E-1,6.833573E-1,-5.4185146E-1,8.643343E-1,-1.7686042E-1,7.903006E-1,-1.1904006E-3,-1.6672263E-2,6.1761975E-1,-1.2700677E0,-1.3844654E-2,-5.558055E-1,-9.3983364E-1,-1.292483E-2,4.7619585E-2,1.6440518E-1,-8.377045E-2,9.36701E-1,3.0978122E-3,-6.564371E-2,4.1102313E-2,6.668439E-1,8.586211E-1,4.6842333E-2,4.9001056E-1,-7.117809E-1,-1.5352635E0,-5.93776E-1,2.577661E-1,-1.199303E-1,-1.0544378E0,3.16527E-2,-3.0450165E-2,5.1036328E-2,1.7328912E-2,3.5373505E-2,-1.6896807E-2,4.501612E-2,3.0735804E-2,-1.2780971E-2,2.8432077E-2,-7.762631E-2,-6.661796E-3,-2.6563331E-2,-8.396773E-2,-5.3705495E-2,-2.5902301E-2,-2.4344059E-2,3.998922E-2,2.2744475E-2,-3.3083316E-2,-2.8205046E-2,-6.5385185E-2],"categories":[],"categories_nodes":[],"categories_segments":[],"categories_sizes":[],"default_left":[0,0,0,0,0,0,0,0,0,0,0,0,0,0,0,0,0,0,0,0,0,0,0,0,0,0,0,0,0,0,0,0,0,0,0,0,0,0,0,0,0,0,0,0,0,0,0,0,0,0,0,0,0,0,0,0,0,0,0,0,0,0,0,0,0],"id":18,"left_children":[1,3,5,7,9,11,-1,13,15,17,19,21,23,25,27,29,31,33,-1,-1,35,37,-1,39,41,-1,-1,43,-1,45,-1,-1,-1,47,49,-1,51,53,55,57,59,61,63,-1,-1,-1,-1,-1,-1,-1,-1,-1,-1,-1,-1,-1,-1,-1,-1,-1,-1,-1,-1,-1,-1],"loss_changes":[3.9591315E2,2.727707E0,2.548146E1,3.360279E0,2.0550537E0,4.695244E0,0E0,7.2655883E0,4.9679003E0,1.7894897E0,3.8406258E0,2.4056053E0,3.9492874E0,2.8185277E0,7.7010927E0,1.3102703E0,8.242526E0,1.5226288E0,0E0,0E0,1.714901E0,1.9148216E0,0E0,4.564659E0,3.3716812E0,0E0,0E0,2.7869537E0,0E0,7.1453476E-1,0E0,0E0,0E0,4.03421E0,1.037674E0,0E0,2.5035973E0,3.8820553E0,9.751339E-1,4.417694E0,3.2409902E0,2.0740588E0,3.3026428E0,0E0,0E0,0E0,0E0,0E0,0E0,0E0,0E0,0E0,0E0,0E0,0E0,0E0,0E0,0E0,0E0,0E0,0E0,0E0,0E0,0E0,0E0],"parents":[2147483647,0,0,1,1,2,2,3,3,4,4,5,5,7,7,8,8,9,9,10,10,11,11,12,12,13,13,14,14,15,15,16,16,17,17,20,20,21,21,23,23,24,24,27,27,29,29,33,33,34,34,36,36,37,37,38,38,39,39,40,40,41,41,42,42],"right_children":[2,4,6,8,10,12,-1,14,16,18,20,22,24,26,28,30,32,34,-1,-1,36,38,-1,40,42,-1,-1,44,-1,46,-1,-1,-1,48,50,-1,52,54,56,58,60,62,64,-1,-1,-1,-1,-1,-1,-1,-1,-1,-1,-1,-1,-1,-1,-1,-1,-1,-1,-1,-1,-1,-1],"split_conditions":[2.535844E-1,1.1365448E0,4.5618764E-1,3.316661E0,2.4196143E-1,3.829345E-1,-6.950643E-2,3.2785282E0,4.675087E-1,2.9491174E-1,2.4318461E-1,3.782049E-1,1.8085112E3,2.4728256E-1,2.3852374E-1,2.5842886E-2,2.2636233E-2,2.3701347E-1,-1.1904006E-3,-1.6672263E-2,2.200206E-2,1.4304544E-1,-1.3844654E-2,1.5048689E3,4.5846174E-3,-1.292483E-2,4.7619585E-2,1.1263785E0,-8.377045E-2,4.918752E-3,3.0978122E-3,-6.564371E-2,4.1102313E-2,4.055286E-1,2.53639E-2,4.6842333E-2,2.5827667E-1,2.2941746E-2,4.853235E-3,3.3109638E-1,5.394927E-3,2.241833E-2,2.3888563E-1,3.16527E-2,-3.0450165E-2,5.1036328E-2,1.7328912E-2,3.5373505E-2,-1.6896807E-2,4.501612E-2,3.0735804E-2,-1.2780971E-2,2.8432077E-2,-7.762631E-2,-6.661796E-3,-2.6563331E-2,-8.396773E-2,-5.3705495E-2,-2.5902301E-2,-2.4344059E-2,3.998922E-2,2.2744475E-2,-3.3083316E-2,-2.8205046E-2,-6.5385185E-2],"split_indices":[7,16,7,20,17,15,0,20,14,9,7,9,18,9,7,12,12,7,0,0,12,3,0,18,19,0,0,16,0,1,0,0,0,15,13,0,9,13,19,9,19,13,6,0,0,0,0,0,0,0,0,0,0,0,0,0,0,0,0,0,0,0,0,0,0],"split_type":[0,0,0,0,0,0,0,0,0,0,0,0,0,0,0,0,0,0,0,0,0,0,0,0,0,0,0,0,0,0,0,0,0,0,0,0,0,0,0,0,0,0,0,0,0,0,0,0,0,0,0,0,0,0,0,0,0,0,0,0,0,0,0,0,0],"sum_hessian":[6.2768506E2,3.5174527E2,2.7593982E2,4.5304363E1,3.064409E2,2.0086426E2,7.507556E1,1.742696E1,2.7877405E1,2.5007684E2,5.6364048E1,2.2827147E1,1.7803711E2,9.151653E0,8.275306E0,2.2564873E1,5.312533E0,2.4740544E2,2.6714046E0,3.997281E0,5.2366764E1,1.9314007E1,3.5131407E0,1.4180873E2,3.622838E1,2.0420108E0,7.1096425E0,5.625398E0,2.6499076E0,2.0544548E1,2.0203254E0,2.338615E0,2.973918E0,9.197147E1,1.5543398E2,1.3144064E1,3.9222702E1,7.4063144E0,1.1907692E1,1.3574356E2,6.0651693E0,4.6938686E0,3.1534508E1,3.6158438E0,2.0095544E0,1.7345146E1,3.1994011E0,8.868171E1,3.2897623E0,1.304408E2,2.499318E1,3.5269547E0,3.5695747E1,2.332789E0,5.0735254E0,2.0827239E0,9.824968E0,1.6691378E1,1.19052185E2,2.5978544E0,3.4673147E0,2.3551745E0,2.3386939E0,1.1839634E1,1.9694874E1],"tree_param":{"num_deleted":"0","num_feature":"24","num_nodes":"65","size_leaf_vector":"1"}},{"base_weights":[2.225166E-3,6.8365693E-1,-8.0662537E-1,7.3648775E-1,4.3754762E-1,-5.760082E-1,-6.9831304E-2,7.4617493E-1,-3.7577507E-4,-3.864244E-2,5.0828993E-1,-7.862131E-1,-4.533132E-1,6.493925E-1,8.447009E-1,6.315714E-1,-2.3554777E-1,-5.41056E-1,-1.2934904E0,-3.252468E-1,-7.491405E-1,6.7001224E-1,-1.552109E-2,9.632828E-3,8.614416E-1,5.0040048E-2,4.8507872E-1,-7.2751373E-1,3.854334E-2,-7.6670843E-1,1.3396596E-3,-1.9062074E-2,-6.993676E-2,-9.8586565E-1,-2.3699264E-1,-1.0710177E0,-7.6163575E-2,3.5544127E-2,1.0747217E-2,4.411075E-2,2.1993814E-2,-9.034006E-3,3.0841112E-2,1.3638292E-2,-7.6473266E-2,-2.2219121E-2,-5.6281466E-2,2.4648003E-2,-4.0350776E-2,-2.0352593E-2,-7.427961E-2,3.7840547E-3,-2.1755999E-2,-1.2386171E-2,-6.903119E-2,-5.3023655E-2,1.9803083E-2],"categories":[],"categories_nodes":[],"categories_segments":[],"categories_sizes":[],"default_left":[0,0,0,0,0,0,0,0,0,0,0,0,0,0,0,0,0,0,0,0,0,0,0,0,0,0,0,0,0,0,0,0,0,0,0,0,0,0,0,0,0,0,0,0,0,0,0,0,0,0,0,0,0,0,0,0,0],"id":19,"left_children":[1,3,5,7,9,11,-1,13,-1,-1,15,17,19,21,23,25,27,29,31,33,35,37,-1,-1,39,-1,41,43,-1,45,47,-1,-1,49,51,53,55,-1,-1,-1,-1,-1,-1,-1,-1,-1,-1,-1,-1,-1,-1,-1,-1,-1,-1,-1,-1],"loss_changes":[3.4129407E2,4.0474396E0,3.7720123E1,1.9891815E0,5.6894283E0,4.937683E0,0E0,2.0421753E0,0E0,0E0,5.5632515E0,8.539387E0,4.756296E0,3.0060997E0,1.2673569E0,2.2688637E0,5.0777917E0,6.341694E0,1.7217064E0,5.239217E0,8.389185E0,2.42733E0,0E0,0E0,7.3052216E-1,0E0,3.4793015E0,5.7452927E0,0E0,3.7325287E0,6.843243E0,0E0,0E0,2.5035782E0,5.2443604E0,6.3812294E0,6.801311E0,0E0,0E0,0E0,0E0,0E0,0E0,0E0,0E0,0E0,0E0,0E0,0E0,0E0,0E0,0E0,0E0,0E0,0E0,0E0,0E0],"parents":[2147483647,0,0,1,1,2,2,3,3,4,4,5,5,7,7,10,10,11,11,12,12,13,13,14,14,15,15,16,16,17,17,18,18,19,19,20,20,21,21,24,24,26,26,27,27,29,29,30,30,33,33,34,34,35,35,36,36],"right_children":[2,4,6,8,10,12,-1,14,-1,-1,16,18,20,22,24,26,28,30,32,34,36,38,-1,-1,40,-1,42,44,-1,46,48,-1,-1,50,52,54,56,-1,-1,-1,-1,-1,-1,-1,-1,-1,-1,-1,-1,-1,-1,-1,-1,-1,-1,-1,-1],"split_conditions":[2.535844E-1,2.4181174E-1,4.5618764E-1,2.1617388E-2,2.4275942E-1,1.4680918E-1,-6.9831304E-2,2.3696508E-1,-3.7577507E-4,-3.864244E-2,9.903061E-1,1.1071427E3,3.6028898E-1,1.0102401E0,1.1149677E0,2.2064185E-2,-2.3614393E-1,5.0969214E2,1.43191E-1,1.1422856E0,1.5996647E-1,2.3763037E-1,-1.552109E-2,9.632828E-3,5.51117E3,5.0040048E-2,1.143379E0,2.1979393E-2,3.854334E-2,6.025121E-3,6.9833854E-3,-1.9062074E-2,-6.993676E-2,1.504994E-1,5.2758604E-3,1.1751617E0,3.5211783E2,3.5544127E-2,1.0747217E-2,4.411075E-2,2.1993814E-2,-9.034006E-3,3.0841112E-2,1.3638292E-2,-7.6473266E-2,-2.2219121E-2,-5.6281466E-2,2.4648003E-2,-4.0350776E-2,-2.0352593E-2,-7.427961E-2,3.7840547E-3,-2.1755999E-2,-1.2386171E-2,-6.903119E-2,-5.3023655E-2,1.9803083E-2],"split_indices":[7,17,7,4,7,5,0,17,0,0,21,18,10,21,16,12,8,18,5,16,23,6,0,0,18,0,16,12,0,19,19,0,0,5,19,16,18,0,0,0,0,0,0,0,0,0,0,0,0,0,0,0,0,0,0,0,0],"split_type":[0,0,0,0,0,0,0,0,0,0,0,0,0,0,0,0,0,0,0,0,0,0,0,0,0,0,0,0,0,0,0,0,0,0,0,0,0,0,0,0,0,0,0,0,0,0,0,0,0,0,0,0,0,0,0,0,0],"sum_hessian":[6.1720966E2,3.350745E2,2.821352E2,2.7421732E2,6.0857162E1,2.0426799E2,7.78672E1,2.7068994E2,3.5273905E0,2.8123965E0,5.8044765E1,7.329272E1,1.3097527E2,1.4038264E2,1.303073E2,4.9921806E1,8.122961E0,5.080584E1,2.248688E1,9.28703E1,3.810497E1,1.3772581E2,2.65683E0,3.5748985E0,1.2673239E2,1.25239315E1,3.7397873E1,5.64207E0,2.4808917E0,3.5587032E1,1.5218808E1,2.8040614E0,1.9682817E1,9.746084E0,8.312422E1,2.5376307E1,1.2728663E1,1.2585999E2,1.1865821E1,1.19739334E2,6.993058E0,6.1165853E0,3.1281288E1,2.8042202E0,2.8378499E0,1.9928505E1,1.5658528E1,9.706026E0,5.512782E0,5.356457E0,4.3896265E0,3.2481583E1,5.0642635E1,7.4269423E0,1.7949364E1,3.7229102E0,9.0057535E0],"tree_param":{"num_deleted":"0","num_feature":"24","num_nodes":"57","size_leaf_vector":"1"}},{"base_weights":[-1.8865697E-2,6.50481E-1,-8.179401E-1,3.6027455E-1,6.855398E-1,-6.2558895E-1,-6.591173E-2,4.744788E-1,-4.137808E-2,7.3147243E-1,4.6936134E-1,-9.737928E-1,-5.391165E-1,-2.9558543E-2,5.582193E-1,8.025796E-1,6.056193E-1,5.43027E-1,-2.0893654E-2,-5.692258E-2,-1.158594E0,-3.6138418E-1,-7.1368444E-1,-1.4805688E-1,7.081957E-1,8.119326E-1,7.0854635E-3,-2.5169885E-1,6.517482E-1,-1.4560184E-2,6.102383E-1,-3.8060587E-2,2.5734305E-2,-1.4376273E0,-3.761585E-1,1.6195664E-1,-4.7462445E-1,-3.7638327E-1,-9.106333E-1,-2.9884765E-2,2.3009596E-2,4.2453866E-2,3.856409E-3,4.739044E-2,3.583237E-2,-4.663861E-2,2.236407E-2,2.0360574E-2,4.1281287E-2,3.264265E-2,-1.0201954E-2,-1.396698E-3,-7.9723254E-2,1.9715033E-2,-4.664381E-2,3.1065643E-2,-1.950005E-2,-4.5956746E-2,-1.7676268E-2,-3.3685782E-3,-4.0774178E-2,-5.2148443E-2,5.2405084E-3],"categories":[],"categories_nodes":[],"categories_segments":[],"categories_sizes":[],"default_left":[0,0,0,0,0,0,0,0,0,0,0,0,0,0,0,0,0,0,0,0,0,0,0,0,0,0,0,0,0,0,0,0,0,0,0,0,0,0,0,0,0,0,0,0,0,0,0,0,0,0,0,0,0,0,0,0,0,0,0,0,0,0,0],"id":20,"left_children":[1,3,5,7,9,11,-1,13,-1,15,17,19,21,-1,23,25,27,29,-1,31,33,35,37,39,41,43,-1,45,47,-1,49,-1,-1,51,53,55,57,59,61,-1,-1,-1,-1,-1,-1,-1,-1,-1,-1,-1,-1,-1,-1,-1,-1,-1,-1,-1,-1,-1,-1,-1,-1],"loss_changes":[3.2239154E2,3.090393E0,2.5614609E1,5.474814E0,2.5517426E0,5.507553E0,0E0,3.4366603E0,0E0,1.6498566E0,3.748682E0,6.4771614E0,4.791111E0,0E0,3.5782452E0,8.08609E-1,3.7328453E0,2.9917135E0,0E0,3.4229639E0,6.4646225E0,4.975669E0,5.042946E0,2.07206E0,2.354576E0,1.2257309E0,0E0,2.954135E0,3.316761E0,0E0,1.7560902E0,0E0,0E0,5.106434E0,4.566708E0,4.159616E0,3.346878E0,4.2315874E0,6.892849E0,0E0,0E0,0E0,0E0,0E0,0E0,0E0,0E0,0E0,0E0,0E0,0E0,0E0,0E0,0E0,0E0,0E0,0E0,0E0,0E0,0E0,0E0,0E0,0E0],"parents":[2147483647,0,0,1,1,2,2,3,3,4,4,5,5,7,7,9,9,10,10,11,11,12,12,14,14,15,15,16,16,17,17,19,19,20,20,21,21,22,22,23,23,24,24,25,25,27,27,28,28,30,30,33,33,34,34,35,35,36,36,37,37,38,38],"right_children":[2,4,6,8,10,12,-1,14,-1,16,18,20,22,-1,24,26,28,30,-1,32,34,36,38,40,42,44,-1,46,48,-1,50,-1,-1,52,54,56,58,60,62,-1,-1,-1,-1,-1,-1,-1,-1,-1,-1,-1,-1,-1,-1,-1,-1,-1,-1,-1,-1,-1,-1,-1,-1],"split_conditions":[2.535844E-1,1.1331052E0,-8.3707225E-1,4.7061566E-1,2.4196143E-1,-6.002596E-3,-6.591173E-2,-8.877282E-3,-4.137808E-2,-1.3922285E0,9.93137E-1,-3.309279E0,3.5378313E0,-2.9558543E-2,2.4845037E-1,1.0113868E0,2.065096E-2,2.4246736E-1,-2.0893654E-2,-1.3558164E-1,2.5186455E-2,-1.1329872E-1,-3.3728217E-4,2.109878E-2,1.3205162E-2,2.5574532E-1,7.0854635E-3,-1.3890569E0,3.3654609E0,-1.4560184E-2,1.4622073E-1,-3.8060587E-2,2.5734305E-2,9.217437E-1,3.9587575E-1,5.256721E-2,4.708817E-1,4.132278E-1,6.550144E-1,-2.9884765E-2,2.3009596E-2,4.2453866E-2,3.856409E-3,4.739044E-2,3.583237E-2,-4.663861E-2,2.236407E-2,2.0360574E-2,4.1281287E-2,3.264265E-2,-1.0201954E-2,-1.396698E-3,-7.9723254E-2,1.9715033E-2,-4.664381E-2,3.1065643E-2,-1.950005E-2,-4.5956746E-2,-1.7676268E-2,-3.3685782E-3,-4.0774178E-2,-5.2148443E-2,5.2405084E-3],"split_indices":[7,16,22,14,17,1,0,1,0,22,21,0,20,0,10,21,12,17,0,23,12,23,1,12,23,9,0,22,20,0,5,0,0,21,7,13,14,17,14,0,0,0,0,0,0,0,0,0,0,0,0,0,0,0,0,0,0,0,0,0,0,0,0],"split_type":[0,0,0,0,0,0,0,0,0,0,0,0,0,0,0,0,0,0,0,0,0,0,0,0,0,0,0,0,0,0,0,0,0,0,0,0,0,0,0,0,0,0,0,0,0,0,0,0,0,0,0,0,0,0,0,0,0,0,0,0,0,0,0],"sum_hessian":[6.007664E2,3.2702176E2,2.7374463E2,3.646356E1,2.9055823E2,1.9934985E2,7.4394775E1,3.3813152E1,2.6504061E0,2.3767455E2,5.288367E1,3.7616386E1,1.6173347E2,2.022029E0,3.1791122E1,1.4843275E2,8.924179E1,4.9187656E1,3.6960168E0,6.5294247E0,3.1086964E1,8.1661674E1,8.00718E1,5.570596E0,2.6220526E1,1.4613597E2,2.296783E0,4.329035E0,8.491276E1,3.4189405E0,4.5768715E1,2.7766116E0,3.7528129E0,2.2297739E1,8.789225E0,1.4450121E1,6.7211555E1,3.0591267E1,4.948053E1,3.2128778E0,2.3577187E0,2.1152836E1,5.06769E0,5.6549564E1,8.95864E1,2.0231953E0,2.3058398E0,3.6675407E1,4.823735E1,4.3680943E1,2.087772E0,2.3503518E0,1.9947388E1,3.8092387E0,4.9799857E0,7.818047E0,6.6320734E0,1.2979314E1,5.423224E1,1.8632376E1,1.195889E1,4.375159E1,5.728942E0],"tree_param":{"num_deleted":"0","num_feature":"24","num_nodes":"63","size_leaf_vector":"1"}},{"base_weights":[-1.29921725E-2,6.515676E-1,-7.895037E-1,6.60914E-1,-2.5696391E-2,-6.061937E-1,-6.3581064E-2,5.780987E-1,7.6310444E-1,-8.006336E-2,-5.7963187E-1,-1.4457363E-1,6.127816E-1,7.78676E-1,-4.5835897E-3,-4.7987098E-1,-7.88778E-1,5.561688E-1,-5.546043E-2,7.317263E-1,3.8536134E-1,8.068048E-1,2.897986E-1,3.3221683E-1,-5.275124E-1,-1.2815233E0,-6.0689867E-1,2.653849E-3,4.0042065E-2,3.0749485E-2,4.528342E-2,-1.4278928E-2,2.3915788E-2,4.1325213E-3,4.090755E-2,4.3563142E-2,-2.2324232E-2,3.5929617E-2,-2.3800163E-2,-3.1702813E-2,-1.0729966E-2,-8.673295E-2,-4.0818743E-2,-3.426103E-2,1.2200425E-2],"categories":[],"categories_nodes":[],"categories_segments":[],"categories_sizes":[],"default_left":[0,0,0,0,0,0,0,0,0,0,0,0,0,0,0,0,0,0,0,0,0,0,0,0,0,0,0,0,0,0,0,0,0,0,0,0,0,0,0,0,0,0,0,0,0],"id":21,"left_children":[1,3,5,7,-1,9,-1,11,13,-1,15,17,19,21,-1,23,25,27,-1,29,31,33,35,37,39,41,43,-1,-1,-1,-1,-1,-1,-1,-1,-1,-1,-1,-1,-1,-1,-1,-1,-1,-1],"loss_changes":[3.073524E2,3.8358002E0,2.3502563E1,2.25708E0,0E0,4.382019E0,0E0,4.60606E0,1.9294128E0,0E0,3.7370453E0,6.743076E0,4.375351E0,1.6529312E0,0E0,5.4409103E0,4.791977E0,6.856538E-1,0E0,1.7158852E0,3.9558134E0,9.9375916E-1,4.252952E0,2.8888576E0,4.1628876E0,1.9258347E0,3.3189983E0,0E0,0E0,0E0,0E0,0E0,0E0,0E0,0E0,0E0,0E0,0E0,0E0,0E0,0E0,0E0,0E0,0E0,0E0],"parents":[2147483647,0,0,1,1,2,2,3,3,5,5,7,7,8,8,10,10,11,11,12,12,13,13,15,15,16,16,17,17,19,19,20,20,21,21,22,22,23,23,24,24,25,25,26,26],"right_children":[2,4,6,8,-1,10,-1,12,14,-1,16,18,20,22,-1,24,26,28,-1,30,32,34,36,38,40,42,44,-1,-1,-1,-1,-1,-1,-1,-1,-1,-1,-1,-1,-1,-1,-1,-1,-1,-1],"split_conditions":[2.5281414E-1,8.579052E-3,-8.3707225E-1,-1.0893886E-4,-2.5696391E-2,3.7456685E-1,-6.3581064E-2,4.4859135E-1,1.471403E-1,-8.006336E-2,1.0886682E3,-2.3188578E-1,-2.658216E-3,8.9551145E-3,-4.5835897E-3,3.3814085E0,3.2746536E-1,-1.0401449E0,-5.546043E-2,6.2963497E-3,-2.4193293E-1,3.1978786E0,-1.3982651E0,3.6344513E-1,5.911469E2,4.7183058E-1,3.9184782E-1,2.653849E-3,4.0042065E-2,3.0749485E-2,4.528342E-2,-1.4278928E-2,2.3915788E-2,4.1325213E-3,4.090755E-2,4.3563142E-2,-2.2324232E-2,3.5929617E-2,-2.3800163E-2,-3.1702813E-2,-1.0729966E-2,-8.673295E-2,-4.0818743E-2,-3.426103E-2,1.2200425E-2],"split_indices":[17,19,22,1,0,15,0,14,3,0,18,8,1,1,0,20,10,0,0,19,8,20,22,9,18,14,9,0,0,0,0,0,0,0,0,0,0,0,0,0,0,0,0,0,0],"split_type":[0,0,0,0,0,0,0,0,0,0,0,0,0,0,0,0,0,0,0,0,0,0,0,0,0,0,0,0,0,0,0,0,0,0,0,0,0,0,0,0,0,0,0,0,0],"sum_hessian":[5.9360315E2,3.1994577E2,2.736574E2,3.1782993E2,2.1158316E0,1.999066E2,7.37508E1,1.7923486E2,1.3859506E2,3.6560888E0,1.962505E2,8.062907E0,1.7117195E2,1.3620287E2,2.3921962E0,1.3510233E2,6.1148186E1,4.9155397E0,3.1473675E0,1.1093401E2,6.0237938E1,1.2817754E2,8.0253315E0,7.1556106E0,1.2794672E2,1.4855593E1,4.629259E1,2.0065773E0,2.9089622E0,6.909698E1,4.1837036E1,7.0778866E0,5.316005E1,2.1051373E0,1.260724E2,4.381672E0,3.6436594E0,4.916254E0,2.239356E0,9.468206E1,3.326465E1,6.142486E0,8.713107E0,4.2569035E1,3.7235572E0],"tree_param":{"num_deleted":"0","num_feature":"24","num_nodes":"45","size_leaf_vector":"1"}},{"base_weights":[1.548147E-2,6.536183E-1,-7.3552805E-1,7.061634E-1,4.1989857E-1,-5.5569386E-1,-1.2880301E0,7.30074E-1,1.5120208E-1,6.7807406E-1,1.607905E-1,-5.070207E-1,-1.2217157E0,-6.56383E-2,-2.9085768E-2,3.189061E-1,7.4810034E-1,3.7712198E-2,-4.496683E-1,-1.9424098E-2,7.871654E-1,2.9549447E-1,-3.9973266E-2,-5.9913266E-1,-2.2078861E-1,-1.521928E0,1.7933197E-4,6.881237E-1,-3.2755044E-1,6.6104466E-1,8.657349E-1,-6.0192443E-2,2.5240025E-2,3.1048234E-3,8.4289354E-1,5.79105E-1,-1.0766091E-1,-2.057889E-1,-7.379572E-1,1.18529014E-1,-9.7027886E-1,-3.396624E-2,-8.784477E-2,4.2953696E-2,1.5067473E-2,-6.332072E-2,3.5978206E-2,3.667134E-2,1.229321E-2,9.063034E-3,4.45085E-2,4.656479E-3,4.5249444E-2,4.032707E-2,-5.4387683E-3,-2.1980383E-2,3.1650368E-2,-4.1772716E-2,-4.1158483E-4,1.2912101E-2,-3.8490973E-2,-4.5493327E-2,1.1737501E-2,-3.322335E-3,-5.9325546E-2],"categories":[],"categories_nodes":[],"categories_segments":[],"categories_sizes":[],"default_left":[0,0,0,0,0,0,0,0,0,0,0,0,0,0,0,0,0,0,0,0,0,0,0,0,0,0,0,0,0,0,0,0,0,0,0,0,0,0,0,0,0,0,0,0,0,0,0,0,0,0,0,0,0,0,0,0,0,0,0,0,0,0,0,0,0],"id":22,"left_children":[1,3,5,7,9,11,13,15,17,19,21,23,25,-1,-1,27,29,-1,31,-1,33,35,-1,37,39,41,-1,43,45,47,49,-1,-1,-1,51,53,55,57,59,61,63,-1,-1,-1,-1,-1,-1,-1,-1,-1,-1,-1,-1,-1,-1,-1,-1,-1,-1,-1,-1,-1,-1,-1,-1],"loss_changes":[2.781314E2,3.5564728E0,2.5774033E1,3.269127E0,3.9083834E0,5.9579773E0,3.6691284E-1,1.5692139E0,4.608041E0,3.769702E0,4.2828684E0,4.8979416E0,4.827467E0,0E0,0E0,3.0865183E0,1.8129578E0,0E0,5.306592E0,0E0,1.05233E0,3.282796E0,0E0,7.6980324E0,1.2330584E1,8.9152145E-1,0E0,2.6690197E-1,5.8612213E0,3.9693794E0,1.4414368E0,0E0,0E0,0E0,1.0939827E0,2.6990294E0,3.34534E0,4.830552E0,3.5591698E0,4.271957E0,2.8679647E0,0E0,0E0,0E0,0E0,0E0,0E0,0E0,0E0,0E0,0E0,0E0,0E0,0E0,0E0,0E0,0E0,0E0,0E0,0E0,0E0,0E0,0E0,0E0,0E0],"parents":[2147483647,0,0,1,1,2,2,3,3,4,4,5,5,6,6,7,7,8,8,9,9,10,10,11,11,12,12,15,15,16,16,18,18,20,20,21,21,23,23,24,24,25,25,27,27,28,28,29,29,30,30,34,34,35,35,36,36,37,37,38,38,39,39,40,40],"right_children":[2,4,6,8,10,12,14,16,18,20,22,24,26,-1,-1,28,30,-1,32,-1,34,36,-1,38,40,42,-1,44,46,48,50,-1,-1,-1,52,54,56,58,60,62,64,-1,-1,-1,-1,-1,-1,-1,-1,-1,-1,-1,-1,-1,-1,-1,-1,-1,-1,-1,-1,-1,-1,-1,-1],"split_conditions":[3.0396327E-1,2.4181174E-1,5.639952E-1,1.4572653E-1,3.4152653E0,9.741598E-1,-2.321985E-1,7.671579E1,-1.5862313E-1,3.2978463E0,9.9139357E-1,9.5384157E-1,4.784709E-1,-6.56383E-2,-2.9085768E-2,2.3728943E-1,3.3645658E0,3.7712198E-2,6.63489E-1,-1.9424098E-2,1.145435E2,2.457958E-2,-3.9973266E-2,2.376922E-1,9.0590424E2,-3.9368808E-1,1.7933197E-4,4.636976E-1,2.3547009E-1,2.3855513E-1,2.2730875E-1,-6.0192443E-2,2.5240025E-2,3.1048234E-3,2.5268832E-1,5.8573645E-1,-1.37365E0,2.3196E-1,4.599914E-1,3.8209885E-1,2.1856206E-2,-3.396624E-2,-8.784477E-2,4.2953696E-2,1.5067473E-2,-6.332072E-2,3.5978206E-2,3.667134E-2,1.229321E-2,9.063034E-3,4.45085E-2,4.656479E-3,4.5249444E-2,4.032707E-2,-5.4387683E-3,-2.1980383E-2,3.1650368E-2,-4.1772716E-2,-4.1158483E-4,1.2912101E-2,-3.8490973E-2,-4.5493327E-2,1.1737501E-2,-3.322335E-3,-5.9325546E-2],"split_indices":[9,17,17,3,20,21,8,18,0,20,21,21,14,0,0,6,20,0,0,0,18,13,0,6,18,8,0,14,17,6,6,0,0,0,9,0,22,6,14,15,13,0,0,0,0,0,0,0,0,0,0,0,0,0,0,0,0,0,0,0,0,0,0,0,0],"split_type":[0,0,0,0,0,0,0,0,0,0,0,0,0,0,0,0,0,0,0,0,0,0,0,0,0,0,0,0,0,0,0,0,0,0,0,0,0,0,0,0,0,0,0,0,0,0,0,0,0,0,0,0,0,0,0,0,0,0,0,0,0,0,0,0,0],"sum_hessian":[5.783479E2,3.127404E2,2.656075E2,2.5368523E2,5.905517E1,2.0189757E2,6.3709957E1,2.4290413E2,1.0781099E1,2.8770882E1,3.0284286E1,1.8978896E2,1.2108603E1,6.0724705E1,2.9852529E0,1.0987117E1,2.3191702E2,5.253431E0,5.5276685E0,2.4320757E0,2.6338806E1,2.7165768E1,3.118518E0,1.4275575E2,4.7033207E1,9.531258E0,2.577345E0,6.952059E0,4.035058E0,1.3708585E2,9.483117E1,2.94186E0,2.5858085E0,2.030793E0,2.4308014E1,1.5691046E1,1.1474722E1,3.7887672E1,1.0486809E2,3.2955208E1,1.4077998E1,2.9267936E0,6.604464E0,3.9743237E0,2.977735E0,2.0170755E0,2.0179827E0,1.1608174E2,2.1004105E1,3.558854E0,9.1272316E1,2.050405E0,2.2257608E1,1.1662522E1,4.028524E0,8.20427E0,3.2704523E0,8.277198E0,2.9610474E1,3.0299275E0,1.0183816E2,2.6528027E0,3.0302406E1,2.9701803E0,1.1107818E1],"tree_param":{"num_deleted":"0","num_feature":"24","num_nodes":"65","size_leaf_vector":"1"}},{"base_weights":[1.1346908E-2,6.0843235E-1,-6.489937E-1,6.273998E-1,-2.4148084E-2,-4.6583953E-1,-1.1867911E0,1.7342634E-1,6.465895E-1,-3.9344214E-2,4.7422427E-1,-4.2656976E-1,-9.6286136E-1,-6.282875E-1,-6.1410993E-2,-3.0580023E-1,3.7418135E-2,7.266327E-1,5.247182E-1,-1.2770714E-2,4.2580884E-2,-4.4990334E-1,4.2814165E-1,-1.4428341E0,-3.0135202E-1,-5.259528E-3,-5.1985394E-2,2.8517941E-2,-4.924078E-2,5.917083E-1,8.239327E-1,-2.3216633E-2,5.488078E-1,-5.612921E-1,-2.398409E-1,-1.1412324E-2,4.2915516E-2,-8.220936E-2,-3.4285292E-2,2.2209253E-2,-6.7725086E-1,3.2649856E-2,-2.4790851E-2,4.252463E-2,-1.1365657E-2,4.261075E-2,2.0984711E-2,-2.4040218E-2,-5.1160693E-2,1.3822903E-2,-2.1807361E-2,-4.179285E-3,-5.1724512E-2],"categories":[],"categories_nodes":[],"categories_segments":[],"categories_sizes":[],"default_left":[0,0,0,0,0,0,0,0,0,0,0,0,0,0,0,0,0,0,0,0,0,0,0,0,0,0,0,0,0,0,0,0,0,0,0,0,0,0,0,0,0,0,0,0,0,0,0,0,0,0,0,0,0],"id":23,"left_children":[1,3,5,7,9,11,13,15,17,-1,19,21,23,25,-1,27,-1,29,31,-1,-1,33,35,37,39,-1,-1,-1,-1,41,43,-1,45,47,49,-1,-1,-1,-1,-1,51,-1,-1,-1,-1,-1,-1,-1,-1,-1,-1,-1,-1],"loss_changes":[2.2879704E2,3.6714554E0,2.6589561E1,2.465622E0,4.1113577E0,3.6333923E0,8.331299E-1,3.911799E0,2.384552E0,0E0,2.0271187E0,4.058132E0,4.1299076E0,1.3620069E0,0E0,5.3212442E0,0E0,1.7250137E0,3.018528E0,0E0,0E0,4.291462E0,1.7949378E0,1.0247421E-1,2.3491921E0,0E0,0E0,0E0,0E0,5.266918E0,2.8561935E0,0E0,4.0962753E0,4.0760956E0,6.940969E0,0E0,0E0,0E0,0E0,0E0,1.02807E0,0E0,0E0,0E0,0E0,0E0,0E0,0E0,0E0,0E0,0E0,0E0,0E0],"parents":[2147483647,0,0,1,1,2,2,3,3,4,4,5,5,6,6,7,7,8,8,10,10,11,11,12,12,13,13,15,15,17,17,18,18,21,21,22,22,23,23,24,24,29,29,30,30,32,32,33,33,34,34,40,40],"right_children":[2,4,6,8,10,12,14,16,18,-1,20,22,24,26,-1,28,-1,30,32,-1,-1,34,36,38,40,-1,-1,-1,-1,42,44,-1,46,48,50,-1,-1,-1,-1,-1,52,-1,-1,-1,-1,-1,-1,-1,-1,-1,-1,-1,-1],"split_conditions":[2.535844E-1,4.1672006E-1,4.5618764E-1,7.671579E1,-1.4112121E0,9.741598E-1,7.91575E-1,4.563926E-3,-1.3930373E0,-3.9344214E-2,7.4021576E-4,9.7060233E-1,-1.7561346E-3,7.4671847E-1,-6.1410993E-2,-1.8588254E-1,3.7418135E-2,1.4126864E-1,2.3238225E-1,-1.2770714E-2,4.2580884E-2,4.0159377E-1,-1.2485322E0,2.294332E-2,1.4276703E-1,-5.259528E-3,-5.1985394E-2,2.8517941E-2,-4.924078E-2,1.412129E-1,9.295969E-3,-2.3216633E-2,1.3938761E-1,3.988306E-1,4.050339E-1,-1.1412324E-2,4.2915516E-2,-8.220936E-2,-3.4285292E-2,2.2209253E-2,9.814552E-1,3.2649856E-2,-2.4790851E-2,4.252463E-2,-1.1365657E-2,4.261075E-2,2.0984711E-2,-2.4040218E-2,-5.1160693E-2,1.3822903E-2,-2.1807361E-2,-4.179285E-3,-5.1724512E-2],"split_indices":[7,15,7,18,22,21,21,23,22,0,23,21,1,22,0,0,0,3,17,0,0,15,0,12,3,0,0,0,0,5,1,0,3,15,15,0,0,0,0,0,21,0,0,0,0,0,0,0,0,0,0,0,0],"split_type":[0,0,0,0,0,0,0,0,0,0,0,0,0,0,0,0,0,0,0,0,0,0,0,0,0,0,0,0,0,0,0,0,0,0,0,0,0,0,0,0,0,0,0,0,0,0,0,0,0,0,0,0,0],"sum_hessian":[5.782897E2,3.0373163E2,2.7455804E2,2.9489752E2,8.834085E0,2.0620004E2,6.8358E1,1.2367035E1,2.825305E2,3.2623298E0,5.5717554E0,1.928233E2,1.3376741E1,5.836837E0,6.2521168E1,7.0002403E0,5.3667946E0,1.675343E2,1.149962E2,2.0096283E0,3.562127E0,1.8816016E2,4.663143E0,7.0675793E0,6.3091626E0,3.1224728E0,2.714364E0,3.1262903E0,3.8739498E0,7.316239E1,9.43719E1,2.299743E0,1.1269646E2,1.2186655E2,6.629361E1,2.0319786E0,2.6311648E0,4.657373E0,2.4102058E0,2.0539033E0,4.2552595E0,6.963745E1,3.5249443E0,9.2232605E1,2.139299E0,3.1969658E1,8.07268E1,1.0552089E2,1.6345661E1,1.8149885E1,4.8143723E1,2.0622165E0,2.193043E0],"tree_param":{"num_deleted":"0","num_feature":"24","num_nodes":"53","size_leaf_vector":"1"}},{"base_weights":[-6.679079E-3,6.1331815E-1,-6.797585E-1,6.2795085E-1,-3.2195842E-1,-5.1378745E-1,-1.1961854E0,2.1667431E-1,6.4474756E-1,2.7355164E-2,-5.38191E-2,-3.8365948E-1,-7.352968E-1,-6.0929578E-2,-2.4520284E-2,5.744696E-1,-4.1084554E-2,5.502361E-1,7.4746287E-1,-5.3771824E-1,-8.4127314E-2,-8.8114035E-1,-2.706479E-1,4.073834E-2,-1.2091037E-2,5.765491E-1,-2.904313E-1,7.676411E-1,4.4103045E-4,-4.3640152E-1,-1.1361121E0,9.27821E-2,-8.980686E-1,-9.743662E-1,2.242668E-1,3.2454517E-2,-5.1287913E-1,3.4818284E-2,2.1883389E-2,2.0730361E-2,-4.6669252E-2,4.041097E-2,2.1380784E-2,-3.5232518E-2,-3.572056E-3,-8.2572125E-2,-1.6238E-2,-2.9885575E-2,1.016504E-2,-7.661804E-3,-6.940391E-2,-3.44209E-2,-6.4805835E-2,4.103819E-2,-2.2069428E-2,-7.634078E-3,-6.0793113E-2],"categories":[],"categories_nodes":[],"categories_segments":[],"categories_sizes":[],"default_left":[0,0,0,0,0,0,0,0,0,0,0,0,0,0,0,0,0,0,0,0,0,0,0,0,0,0,0,0,0,0,0,0,0,0,0,0,0,0,0,0,0,0,0,0,0,0,0,0,0,0,0,0,0,0,0,0,0],"id":24,"left_children":[1,3,5,7,9,11,13,15,17,-1,-1,19,21,-1,-1,23,-1,25,27,29,31,33,35,-1,-1,37,39,41,-1,43,45,47,49,51,53,-1,55,-1,-1,-1,-1,-1,-1,-1,-1,-1,-1,-1,-1,-1,-1,-1,-1,-1,-1,-1,-1],"loss_changes":[2.3740369E2,4.2548904E0,2.2764656E1,1.8768234E0,4.013131E0,5.718502E0,4.3961334E-1,5.286958E0,2.3063736E0,0E0,0E0,6.1027126E0,4.9081955E0,0E0,0E0,2.2031257E0,0E0,3.4763527E0,1.9511032E0,4.826887E0,6.7698045E0,6.1296883E0,4.696639E0,0E0,0E0,2.114399E0,2.7464318E0,1.4185104E0,0E0,7.4590893E0,4.51812E0,3.1016257E0,2.8474054E0,3.9919014E0,2.4564707E0,0E0,3.8815274E0,0E0,0E0,0E0,0E0,0E0,0E0,0E0,0E0,0E0,0E0,0E0,0E0,0E0,0E0,0E0,0E0,0E0,0E0,0E0,0E0],"parents":[2147483647,0,0,1,1,2,2,3,3,4,4,5,5,6,6,7,7,8,8,11,11,12,12,15,15,17,17,18,18,19,19,20,20,21,21,22,22,25,25,26,26,27,27,29,29,30,30,31,31,32,32,33,33,34,34,36,36],"right_children":[2,4,6,8,10,12,14,16,18,-1,-1,20,22,-1,-1,24,-1,26,28,30,32,34,36,-1,-1,38,40,42,-1,44,46,48,50,52,54,-1,56,-1,-1,-1,-1,-1,-1,-1,-1,-1,-1,-1,-1,-1,-1,-1,-1,-1,-1,-1,-1],"split_conditions":[-1.3601208E0,8.579052E-3,4.5588553E-1,1.367597E-1,1.393466E-1,9.2291705E2,-2.321985E-1,7.0476853E-3,3.3654609E0,2.7355164E-2,-5.38191E-2,9.521651E-1,-2.3664306E-1,-6.0929578E-2,-2.4520284E-2,3.4164886E0,-4.1084554E-2,3.3627594E0,1.4643411E-1,1.511552E-1,9.7942746E-1,1.641173E0,-2.3539107E-1,4.073834E-2,-1.2091037E-2,4.6410272E-1,2.3751627E-1,2.6109532E-2,4.4103045E-4,1.482204E-1,9.381052E-1,1.4400066E-1,1.4350024E-1,2.426121E-1,4.1920674E-1,3.2454517E-2,4.3730107E3,3.4818284E-2,2.1883389E-2,2.0730361E-2,-4.6669252E-2,4.041097E-2,2.1380784E-2,-3.5232518E-2,-3.572056E-3,-8.2572125E-2,-1.6238E-2,-2.9885575E-2,1.016504E-2,-7.661804E-3,-6.940391E-2,-3.44209E-2,-6.4805835E-2,4.103819E-2,-2.2069428E-2,-7.634078E-3,-6.0793113E-2],"split_indices":[22,19,17,3,3,18,8,19,20,0,0,21,8,0,0,20,0,20,5,5,21,16,8,0,0,14,17,12,0,5,21,3,3,6,6,0,18,0,0,0,0,0,0,0,0,0,0,0,0,0,0,0,0,0,0,0,0],"split_type":[0,0,0,0,0,0,0,0,0,0,0,0,0,0,0,0,0,0,0,0,0,0,0,0,0,0,0,0,0,0,0,0,0,0,0,0,0,0,0,0,0,0,0,0,0,0,0,0,0,0,0,0,0,0,0,0,0],"sum_hessian":[5.6689496E2,2.9512955E2,2.7176544E2,2.909068E2,4.222737E0,2.0717705E2,6.4588394E1,1.1959981E1,2.789468E2,2.0899806E0,2.132756E0,1.3222948E2,7.4947586E1,6.189678E1,2.6916146E0,9.227251E0,2.7327292E0,1.4858565E2,1.3036118E2,8.679361E1,4.543586E1,5.636076E1,1.8586824E1,7.130162E0,2.0970893E0,1.4438069E2,4.2049556E0,1.26856445E2,3.5047255E0,7.5704956E1,1.1088655E1,3.8051426E1,7.384434E0,5.2086525E1,4.2742352E0,3.524576E0,1.5062247E1,7.535547E1,6.902522E1,2.175041E0,2.0299149E0,1.12101456E2,1.4754992E1,4.309732E1,3.2607635E1,6.148203E0,4.940452E0,4.641878E0,3.3409546E1,3.4512012E0,3.933233E0,2.9239874E1,2.2846653E1,2.131327E0,2.1429083E0,1.0764089E1,4.298159E0],"tree_param":{"num_deleted":"0","num_feature":"24","num_nodes":"57","size_leaf_vector":"1"}},{"base_weights":[-9.164449E-3,5.7113606E-1,-6.1564535E-1,7.3882705E-1,4.850645E-1,-4.510786E-1,-1.1533746E0,5.9791017E-1,9.5333844E-1,-4.243412E-1,5.1505756E-1,-8.197407E-1,-3.6295745E-1,-6.780742E-1,-5.921043E-2,1.790309E-1,7.0426905E-1,5.5226237E-1,5.002702E-2,1.6456563E-2,-6.0071636E-2,-1.982645E-1,5.465374E-1,-1.075467E0,2.8558994E-2,-3.190359E-1,-1.3070579E0,-1.2723188E-3,-5.1716536E-2,4.4925487E-1,-4.279741E-2,8.082482E-1,1.6738777E-1,2.5707004E-3,3.971116E-2,-8.106335E-1,3.9218407E-2,5.925587E-1,2.016202E-1,-2.813448E-1,-1.2715396E0,4.412542E-2,-6.783272E-1,-1.2717257E-1,-4.7487018E-1,-2.6641479E-2,-7.542741E-2,-1.3968765E-2,3.1778865E-2,2.588271E-3,4.3451868E-2,2.9822497E-2,-3.599347E-2,2.1278573E-2,-8.5603714E-2,3.1359565E-2,1.7945551E-3,-3.9627623E-2,2.0749085E-2,-3.2942217E-2,1.4625979E-2,-7.390108E-2,-2.882461E-2,6.1570182E-3,-5.5173606E-2,-2.144196E-2,6.140468E-3,-1.795849E-2,-5.6017555E-2],"categories":[],"categories_nodes":[],"categories_segments":[],"categories_sizes":[],"default_left":[0,0,0,0,0,0,0,0,0,0,0,0,0,0,0,0,0,0,0,0,0,0,0,0,0,0,0,0,0,0,0,0,0,0,0,0,0,0,0,0,0,0,0,0,0,0,0,0,0,0,0,0,0,0,0,0,0,0,0,0,0,0,0,0,0,0,0,0,0],"id":25,"left_children":[1,3,5,7,9,11,13,15,17,19,21,23,25,27,-1,29,31,33,-1,-1,-1,35,37,39,41,43,45,-1,-1,47,-1,49,51,-1,-1,53,-1,55,57,59,61,-1,63,65,67,-1,-1,-1,-1,-1,-1,-1,-1,-1,-1,-1,-1,-1,-1,-1,-1,-1,-1,-1,-1,-1,-1,-1,-1],"loss_changes":[1.9712158E2,3.7729797E0,2.3714607E1,2.3069382E0,5.4571953E0,6.5680084E0,1.2810516E-1,2.5524673E0,1.2995148E-1,4.306917E0,4.2935753E0,8.702591E0,6.7300434E0,1.4175453E0,0E0,4.1644945E0,2.5223541E0,6.896789E-1,0E0,0E0,0E0,5.8175836E0,2.7182274E0,4.428871E0,6.77607E0,4.9033756E0,3.4109592E-1,0E0,0E0,1.721575E0,0E0,1.7770557E0,3.8500118E0,0E0,0E0,7.188554E0,0E0,3.0083046E0,5.114374E0,1.7896106E0,2.6453934E0,0E0,2.2363038E0,5.7668304E0,6.4120007E0,0E0,0E0,0E0,0E0,0E0,0E0,0E0,0E0,0E0,0E0,0E0,0E0,0E0,0E0,0E0,0E0,0E0,0E0,0E0,0E0,0E0,0E0,0E0,0E0],"parents":[2147483647,0,0,1,1,2,2,3,3,4,4,5,5,6,6,7,7,8,8,9,9,10,10,11,11,12,12,13,13,15,15,16,16,17,17,21,21,22,22,23,23,24,24,25,25,26,26,29,29,31,31,32,32,35,35,37,37,38,38,39,39,40,40,42,42,43,43,44,44],"right_children":[2,4,6,8,10,12,14,16,18,20,22,24,26,28,-1,30,32,34,-1,-1,-1,36,38,40,42,44,46,-1,-1,48,-1,50,52,-1,-1,54,-1,56,58,60,62,-1,64,66,68,-1,-1,-1,-1,-1,-1,-1,-1,-1,-1,-1,-1,-1,-1,-1,-1,-1,-1,-1,-1,-1,-1,-1,-1],"split_conditions":[2.987145E-1,2.2449565E2,4.5618764E-1,6.393848E-3,4.3257205E-3,-6.002596E-3,7.91575E-1,8.958521E1,2.3516099E-1,2.3866431E-1,2.3962514E2,2.5110457E-2,9.8370165E-1,7.513292E2,-5.921043E-2,4.7027895E-1,6.060289E-3,3.859912E-1,5.002702E-2,1.6456563E-2,-6.0071636E-2,1.419176E-1,-1.3809571E0,-3.309279E0,-8.254953E-3,2.9923302E-1,3.0032536E-1,-1.2723188E-3,-5.1716536E-2,1.3903978E-1,-4.279741E-2,4.4988263E-1,1.4291348E-1,2.5707004E-3,3.971116E-2,2.217952E-2,3.9218407E-2,1.4572653E-1,-1.3793668E0,3.5763671E0,4.0436885E-1,4.412542E-2,-1.1404698E0,-1.3438542E0,2.9629436E3,-2.6641479E-2,-7.542741E-2,-1.3968765E-2,3.1778865E-2,2.588271E-3,4.3451868E-2,2.9822497E-2,-3.599347E-2,2.1278573E-2,-8.5603714E-2,3.1359565E-2,1.7945551E-3,-3.9627623E-2,2.0749085E-2,-3.2942217E-2,1.4625979E-2,-7.390108E-2,-2.882461E-2,6.1570182E-3,-5.5173606E-2,-2.144196E-2,6.140468E-3,-1.795849E-2,-5.6017555E-2],"split_indices":[9,18,7,19,19,1,21,18,7,17,18,12,21,18,0,14,19,15,0,0,0,5,22,0,1,0,10,0,0,3,0,14,3,0,0,12,0,3,22,20,15,0,22,0,18,0,0,0,0,0,0,0,0,0,0,0,0,0,0,0,0,0,0,0,0,0,0,0,0],"split_type":[0,0,0,0,0,0,0,0,0,0,0,0,0,0,0,0,0,0,0,0,0,0,0,0,0,0,0,0,0,0,0,0,0,0,0,0,0,0,0,0,0,0,0,0,0,0,0,0,0,0,0,0,0,0,0,0,0,0,0,0,0,0,0,0,0,0,0,0,0],"sum_hessian":[5.5809906E2,2.8523514E2,2.7286392E2,9.417415E1,1.9106099E2,2.1033255E2,6.2531357E1,5.9122627E1,3.505152E1,5.6804E0,1.8538058E2,3.8974987E1,1.7135756E2,5.210096E0,5.7321262E1,1.2515474E1,4.660715E1,5.0280485E0,3.0023474E1,3.1767054E0,2.5036943E0,7.611365E0,1.7776923E2,2.9741425E1,9.233565E0,1.6501848E2,6.3390846E0,2.2181268E0,2.9919689E0,1.0373081E1,2.1423924E0,3.862173E1,7.98542E0,2.0327775E0,2.9952712E0,4.7969694E0,2.814395E0,1.5620879E2,2.1560444E1,6.3713694E0,2.3370054E1,4.0692677E0,5.1642976E0,7.477343E1,9.024505E1,2.0616443E0,4.27744E0,2.010688E0,8.362393E0,3.0104249E0,3.5611305E1,5.60345E0,2.3819706E0,2.2454858E0,2.5514836E0,1.469403E2,9.268471E0,3.329908E0,1.8230536E1,3.7538972E0,2.6174724E0,1.7148994E1,6.2210603E0,2.0361598E0,3.1281376E0,3.355968E1,4.121375E1,7.7847565E1,1.2397485E1],"tree_param":{"num_deleted":"0","num_feature":"24","num_nodes":"69","size_leaf_vector":"1"}},{"base_weights":[2.5029478E-3,5.9209543E-1,-6.2117285E-1,6.0639787E-1,-2.133893E-2,-4.5223206E-1,-5.75077E-2,2.2934651E-2,6.2470573E-1,-9.51487E-1,-3.955162E-1,5.660391E-1,-3.7756063E-2,3.3744985E-1,6.594815E-1,-2.4840072E-1,-1.2073163E0,-2.2185734E-1,-5.8434886E-1,2.065984E-3,4.0387E-2,-1.8117988E-1,5.6907827E-1,7.30086E-1,5.479171E-1,-4.566231E-2,1.424813E-2,-6.994368E-1,-8.332833E-2,-1.7773733E-1,-6.483316E-2,-6.372021E-1,3.451484E-2,2.5716007E-2,-6.858091E-2,3.560044E-2,-2.5412813E-2,4.4920992E-2,3.252234E-2,-3.648273E-3,3.0844873E-2,-7.20542E-2,-6.0405262E-5,1.7911544E-2,-1.3519275E-2,-6.7704745E-2,-2.8255189E-2],"categories":[],"categories_nodes":[],"categories_segments":[],"categories_sizes":[],"default_left":[0,0,0,0,0,0,0,0,0,0,0,0,0,0,0,0,0,0,0,0,0,0,0,0,0,0,0,0,0,0,0,0,0,0,0,0,0,0,0,0,0,0,0,0,0,0,0],"id":26,"left_children":[1,3,5,7,-1,9,-1,11,13,15,17,19,-1,21,23,25,27,29,31,-1,-1,33,35,37,39,-1,-1,41,-1,43,-1,45,-1,-1,-1,-1,-1,-1,-1,-1,-1,-1,-1,-1,-1,-1,-1],"loss_changes":[2.022723E2,4.3793564E0,2.3368904E1,2.9687347E0,0E0,5.4073257E0,0E0,4.4562535E0,2.481926E0,3.320034E0,5.9412613E0,7.5121903E-1,0E0,3.8611774E0,1.4939499E0,2.6106517E0,2.2156773E0,4.419219E0,6.373638E0,0E0,0E0,9.329978E0,3.7290196E0,1.3493881E0,4.2079086E0,0E0,0E0,4.4554257E0,0E0,4.8313527E0,0E0,3.6329231E0,0E0,0E0,0E0,0E0,0E0,0E0,0E0,0E0,0E0,0E0,0E0,0E0,0E0,0E0,0E0],"parents":[2147483647,0,0,1,1,2,2,3,3,5,5,7,7,8,8,9,9,10,10,11,11,13,13,14,14,15,15,16,16,17,17,18,18,21,21,22,22,23,23,24,24,27,27,29,29,31,31],"right_children":[2,4,6,8,-1,10,-1,12,14,16,18,20,-1,22,24,26,28,30,32,-1,-1,34,36,38,40,-1,-1,42,-1,44,-1,46,-1,-1,-1,-1,-1,-1,-1,-1,-1,-1,-1,-1,-1,-1,-1],"split_conditions":[3.0396327E-1,1.1717282E-2,4.5618764E-1,4.3257205E-3,-2.133893E-2,3.8256708E-1,-5.75077E-2,2.3866431E-1,1.1331052E0,-1.1823872E-1,4.0195096E-1,2.3701347E-1,-3.7756063E-2,3.3024473E0,-1.3919446E0,-5.548363E-3,-8.9390023E-4,3.782049E-1,6.703749E-1,2.065984E-3,4.0387E-2,3.281776E0,4.7051704E-1,2.5385448E-1,3.2862062E0,-4.566231E-2,1.424813E-2,-1.8158816E-3,-8.332833E-2,2.1504859E-2,-6.483316E-2,1.4515156E-1,3.451484E-2,2.5716007E-2,-6.858091E-2,3.560044E-2,-2.5412813E-2,4.4920992E-2,3.252234E-2,-3.648273E-3,3.0844873E-2,-7.20542E-2,-6.0405262E-5,1.7911544E-2,-1.3519275E-2,-6.7704745E-2,-2.8255189E-2],"split_indices":[9,19,7,19,0,15,0,17,16,23,17,7,0,20,22,1,1,9,14,0,0,20,14,9,20,0,0,2,0,13,0,3,0,0,0,0,0,0,0,0,0,0,0,0,0,0,0],"split_type":[0,0,0,0,0,0,0,0,0,0,0,0,0,0,0,0,0,0,0,0,0,0,0,0,0,0,0,0,0,0,0,0,0,0,0,0,0,0,0,0,0,0,0,0,0,0,0],"sum_hessian":[5.4807947E2,2.8176413E2,2.6631534E2,2.7826282E2,3.5012844E0,2.0325626E2,6.3059067E1,8.534201E0,2.6972864E2,1.9125261E1,1.84131E2,5.186427E0,3.3477736E0,3.0283535E1,2.394451E2,5.6282654E0,1.3496995E1,9.705231E1,8.707869E1,2.0048852E0,3.181542E0,9.416727E0,2.086681E1,1.4324634E2,9.619875E1,2.1882894E0,3.4399762E0,7.607239E0,5.889756E0,9.434489E1,2.7074242E0,8.409191E1,2.9867778E0,6.302513E0,3.114214E0,1.8722048E1,2.1447616E0,4.2703228E1,1.0054311E2,9.61327E0,8.658548E1,3.1730075E0,4.4342313E0,1.3482468E1,8.086242E1,6.059496E0,7.803242E1],"tree_param":{"num_deleted":"0","num_feature":"24","num_nodes":"47","size_leaf_vector":"1"}},