{"learner":{"attributes":{"scikit_learn":"{\"_estimator_type\": \"classifier\"}"},"feature_names":[],"feature_types":[],"gradient_booster":{"model":{"gbtree_model_param":{"num_parallel_tree":"1","num_trees":"1000"},"iteration_indptr":[0,1,2,3,4,5,6,7,8,9,10,11,12,13,14,15,16,17,18,19,20,21,22,23,24,25,26,27,28,29,30,31,32,33,34,35,36,37,38,39,40,41,42,43,44,45,46,47,48,49,50,51,52,53,54,55,56,57,58,59,60,61,62,63,64,65,66,67,68,69,70,71,72,73,74,75,76,77,78,79,80,81,82,83,84,85,86,87,88,89,90,91,92,93,94,95,96,97,98,99,100,101,102,103,104,105,106,107,108,109,110,111,112,113,114,115,116,117,118,119,120,121,122,123,124,125,126,127,128,129,130,131,132,133,134,135,136,137,138,139,140,141,142,143,144,145,146,147,148,149,150,151,152,153,154,155,156,157,158,159,160,161,162,163,164,165,166,167,168,169,170,171,172,173,174,175,176,177,178,179,180,181,182,183,184,185,186,187,188,189,190,191,192,193,194,195,196,197,198,199,200,201,202,203,204,205,206,207,208,209,210,211,212,213,214,215,216,217,218,219,220,221,222,223,224,225,226,227,228,229,230,231,232,233,234,235,236,237,238,239,240,241,242,243,244,245,246,247,248,249,250,251,252,253,254,255,256,257,258,259,260,261,262,263,264,265,266,267,268,269,270,271,272,273,274,275,276,277,278,279,280,281,282,283,284,285,286,287,288,289,290,291,292,293,294,295,296,297,298,299,300,301,302,303,304,305,306,307,308,309,310,311,312,313,314,315,316,317,318,319,320,321,322,323,324,325,326,327,328,329,330,331,332,333,334,335,336,337,338,339,340,341,342,343,344,345,346,347,348,349,350,351,352,353,354,355,356,357,358,359,360,361,362,363,364,365,366,367,368,369,370,371,372,373,374,375,376,377,378,379,380,381,382,383,384,385,386,387,388,389,390,391,392,393,394,395,396,397,398,399,400,401,402,403,404,405,406,407,408,409,410,411,412,413,414,415,416,417,418,419,420,421,422,423,424,425,426,427,428,429,430,431,432,433,434,435,436,437,438,439,440,441,442,443,444,445,446,447,448,449,450,451,452,453,454,455,456,457,458,459,460,461,462,463,464,465,466,467,468,469,470,471,472,473,474,475,476,477,478,479,480,481,482,483,484,485,486,487,488,489,490,491,492,493,494,495,496,497,498,499,500,501,502,503,504,505,506,507,508,509,510,511,512,513,514,515,516,517,518,519,520,521,522,523,524,525,526,527,528,529,530,531,532,533,534,535,536,537,538,539,540,541,542,543,544,545,546,547,548,549,550,551,552,553,554,555,556,557,558,559,560,561,562,563,564,565,566,567,568,569,570,571,572,573,574,575,576,577,578,579,580,581,582,583,584,585,586,587,588,589,590,591,592,593,594,595,596,597,598,599,600,601,602,603,604,605,606,607,608,609,610,611,612,613,614,615,616,617,618,619,620,621,622,623,624,625,626,627,628,629,630,631,632,633,634,635,636,637,638,639,640,641,642,643,644,645,646,647,648,649,650,651,652,653,654,655,656,657,658,659,660,661,662,663,664,665,666,667,668,669,670,671,672,673,674,675,676,677,678,679,680,681,682,683,684,685,686,687,688,689,690,691,692,693,694,695,696,697,698,699,700,701,702,703,704,705,706,707,708,709,710,711,712,713,714,715,716,717,718,719,720,721,722,723,724,725,726,727,728,729,730,731,732,733,734,735,736,737,738,739,740,741,742,743,744,745,746,747,748,749,750,751,752,753,754,755,756,757,758,759,760,761,762,763,764,765,766,767,768,769,770,771,772,773,774,775,776,777,778,779,780,781,782,783,784,785,786,787,788,789,790,791,792,793,794,795,796,797,798,799,800,801,802,803,804,805,806,807,808,809,810,811,812,813,814,815,816,817,818,819,820,821,822,823,824,825,826,827,828,829,830,831,832,833,834,835,836,837,838,839,840,841,842,843,844,845,846,847,848,849,850,851,852,853,854,855,856,857,858,859,860,861,862,863,864,865,866,867,868,869,870,871,872,873,874,875,876,877,878,879,880,881,882,883,884,885,886,887,888,889,890,891,892,893,894,895,896,897,898,899,900,901,902,903,904,905,906,907,908,909,910,911,912,913,914,915,916,917,918,919,920,921,922,923,924,925,926,927,928,929,930,931,932,933,934,935,936,937,938,939,940,941,942,943,944,945,946,947,948,949,950,951,952,953,954,955,956,957,958,959,960,961,962,963,964,965,966,967,968,969,970,971,972,973,974,975,976,977,978,979,980,981,982,983,984,985,986,987,988,989,990,991,992,993,994,995,996,997,998,999,1000],"tree_info":[0,0,0,0,0,0,0,0,0,0,0,0,0,0,0,0,0,0,0,0,0,0,0,0,0,0,0,0,0,0,0,0,0,0,0,0,0,0,0,0,0,0,0,0,0,0,0,0,0,0,0,0,0,0,0,0,0,0,0,0,0,0,0,0,0,0,0,0,0,0,0,0,0,0,0,0,0,0,0,0,0,0,0,0,0,0,0,0,0,0,0,0,0,0,0,0,0,0,0,0,0,0,0,0,0,0,0,0,0,0,0,0,0,0,0,0,0,0,0,0,0,0,0,0,0,0,0,0,0,0,0,0,0,0,0,0,0,0,0,0,0,0,0,0,0,0,0,0,0,0,0,0,0,0,0,0,0,0,0,0,0,0,0,0,0,0,0,0,0,0,0,0,0,0,0,0,0,0,0,0,0,0,0,0,0,0,0,0,0,0,0,0,0,0,0,0,0,0,0,0,0,0,0,0,0,0,0,0,0,0,0,0,0,0,0,0,0,0,0,0,0,0,0,0,0,0,0,0,0,0,0,0,0,0,0,0,0,0,0,0,0,0,0,0,0,0,0,0,0,0,0,0,0,0,0,0,0,0,0,0,0,0,0,0,0,0,0,0,0,0,0,0,0,0,0,0,0,0,0,0,0,0,0,0,0,0,0,0,0,0,0,0,0,0,0,0,0,0,0,0,0,0,0,0,0,0,0,0,0,0,0,0,0,0,0,0,0,0,0,0,0,0,0,0,0,0,0,0,0,0,0,0,0,0,0,0,0,0,0,0,0,0,0,0,0,0,0,0,0,0,0,0,0,0,0,0,0,0,0,0,0,0,0,0,0,0,0,0,0,0,0,0,0,0,0,0,0,0,0,0,0,0,0,0,0,0,0,0,0,0,0,0,0,0,0,0,0,0,0,0,0,0,0,0,0,0,0,0,0,0,0,0,0,0,0,0,0,0,0,0,0,0,0,0,0,0,0,0,0,0,0,0,0,0,0,0,0,0,0,0,0,0,0,0,0,0,0,0,0,0,0,0,0,0,0,0,0,0,0,0,0,0,0,0,0,0,0,0,0,0,0,0,0,0,0,0,0,0,0,0,0,0,0,0,0,0,0,0,0,0,0,0,0,0,0,0,0,0,0,0,0,0,0,0,0,0,0,0,0,0,0,0,0,0,0,0,0,0,0,0,0,0,0,0,0,0,0,0,0,0,0,0,0,0,0,0,0,0,0,0,0,0,0,0,0,0,0,0,0,0,0,0,0,0,0,0,0,0,0,0,0,0,0,0,0,0,0,0,0,0,0,0,0,0,0,0,0,0,0,0,0,0,0,0,0,0,0,0,0,0,0,0,0,0,0,0,0,0,0,0,0,0,0,0,0,0,0,0,0,0,0,0,0,0,0,0,0,0,0,0,0,0,0,0,0,0,0,0,0,0,0,0,0,0,0,0,0,0,0,0,0,0,0,0,0,0,0,0,0,0,0,0,0,0,0,0,0,0,0,0,0,0,0,0,0,0,0,0,0,0,0,0,0,0,0,0,0,0,0,0,0,0,0,0,0,0,0,0,0,0,0,0,0,0,0,0,0,0,0,0,0,0,0,0,0,0,0,0,0,0,0,0,0,0,0,0,0,0,0,0,0,0,0,0,0,0,0,0,0,0,0,0,0,0,0,0,0,0,0,0,0,0,0,0,0,0,0,0,0,0,0,0,0,0,0,0,0,0,0,0,0,0,0,0,0,0,0,0,0,0,0,0,0,0,0,0,0,0,0,0,0,0,0,0,0,0,0,0,0,0,0,0,0,0,0,0,0,0,0,0,0,0,0,0,0,0,0,0,0,0,0,0,0,0,0,0,0,0,0,0,0,0,0,0,0,0,0,0,0,0,0,0,0,0,0,0,0,0,0,0,0,0,0,0,0,0,0,0,0,0,0,0,0,0,0,0,0,0,0,0,0,0,0,0,0,0,0,0,0,0,0,0,0,0,0,0,0,0,0,0,0,0,0,0,0,0,0,0,0,0,0,0,0,0,0,0,0,0,0,0,0,0,0,0,0,0,0,0,0,0,0,0,0,0,0,0,0,0,0,0,0,0,0,0,0,0,0,0,0,0,0,0,0,0,0,0,0,0,0,0,0,0,0,0,0,0,0,0,0,0,0,0,0,0,0,0,0,0,0,0,0,0,0,0,0,0,0,0,0,0,0,0,0,0,0,0,0,0,0,0,0,0,0,0,0,0,0,0,0,0,0,0,0,0,0,0,0,0,0,0],"trees":[{"base_weights":[-1.7890092E-2,9.3160874E-1,-3.9505298E0,9.464786E-1,-6.5730855E-2,-2.8297534E0,-3.3131167E-1,9.5524067E-1,2.158669E-1,-4.622793E-2,-2.8919456E0,9.606202E-1,5.1205283E-1,-2.6050983E-2,6.323644E-1,-3.422936E0,-2.5006552E0,5.2812374E-1,9.6723855E-1,4.3572586E-2,-2.6344819E-2,6.394373E-3,4.32649E-2,-6.2493403E-2,-3.599146E0,1.0191838E-2,-2.605691E0,4.6289686E-2,-3.887437E-2,4.939854E-2,4.0385794E-2,-8.448543E-2,-1.8656586E-1,-1.3839558E-1,-3.808935E-2],"categories":[],"categories_nodes":[],"categories_segments":[],"categories_sizes":[],"default_left":[0,0,0,0,0,0,0,0,0,0,0,0,0,0,0,0,0,0,0,0,0,0,0,0,0,0,0,0,0,0,0,0,0,0,0],"id":0,"left_children":[1,3,5,7,-1,9,-1,11,13,-1,15,17,19,-1,21,23,25,27,29,-1,-1,-1,-1,-1,31,-1,33,-1,-1,-1,-1,-1,-1,-1,-1],"loss_changes":[2.8801157E3,2.199701E1,4.3110205E2,3.7488403E0,0E0,1.0059998E1,0E0,9.6295166E-1,2.9730635E0,0E0,1.2965759E1,1.2116089E0,3.9913044E0,0E0,5.890894E-1,1.1294128E1,1.8529297E1,6.5723543E0,1.1582031E0,0E0,0E0,0E0,0E0,0E0,3.1887512E0,0E0,1.6156311E1,0E0,0E0,0E0,0E0,0E0,0E0,0E0,0E0],"parents":[2147483647,0,0,1,1,2,2,3,3,5,5,7,7,8,8,10,10,11,11,12,12,14,14,15,15,16,16,17,17,18,18,24,24,26,26],"right_children":[2,4,6,8,-1,10,-1,12,14,-1,16,18,20,-1,22,24,26,28,30,-1,-1,-1,-1,-1,32,-1,34,-1,-1,-1,-1,-1,-1,-1,-1],"split_conditions":[3.0915898E-1,2.524915E-1,4.395056E-1,1.469099E-1,-6.5730855E-2,-3.3570106E0,-3.3131167E-1,1.0106158E0,-2.396182E-1,-4.622793E-2,4.7457525E-1,2.3161024E-1,-1.4022968E0,-2.6050983E-2,-2.512544E-1,1.5987138E2,4.7596714E-1,1.023818E3,-1.3817334E0,4.3572586E-2,-2.6344819E-2,6.394373E-3,4.32649E-2,-6.2493403E-2,1.4328809E-1,1.0191838E-2,9.6544576E-1,4.6289686E-2,-3.887437E-2,4.939854E-2,4.0385794E-2,-8.448543E-2,-1.8656586E-1,-1.3839558E-1,-3.808935E-2],"split_indices":[9,7,7,3,0,0,0,21,8,0,14,7,22,0,0,18,14,18,22,0,0,0,0,0,3,0,21,0,0,0,0,0,0,0,0],"split_type":[0,0,0,0,0,0,0,0,0,0,0,0,0,0,0,0,0,0,0,0,0,0,0,0,0,0,0,0,0,0,0,0,0,0,0],"sum_hessian":[7.693286E2,6.2032104E2,1.4900757E2,6.168164E2,3.5046387E0,1.06468506E2,4.2539062E1,6.092029E2,7.6135254E0,3.8671875E0,1.0260132E2,6.007434E2,8.459473E0,2.6586914E0,4.954834E0,4.024292E1,6.23584E1,1.0272217E1,5.904712E2,6.4050293E0,2.0544434E0,2.0544434E0,2.9003906E0,3.6254883E0,3.661743E1,2.2961426E0,6.0062256E1,8.096924E0,2.175293E0,5.179614E2,7.2509766E1,3.2629395E0,3.3354492E1,5.4744873E1,5.317383E0],"tree_param":{"num_deleted":"0","num_feature":"24","num_nodes":"35","size_leaf_vector":"1"}},{"base_weights":[2.3064917E-2,9.4807345E-1,-3.2241683E0,9.530153E-1,2.861478E-1,-2.4842808E0,-2.5350773E-1,9.212732E-1,5.448256E-2,4.11407E-2,-1.6678732E-2,-2.6671457E0,-1.6265471E0,9.317104E-1,4.8276696E-1,-9.843679E-1,-2.7290802E0,-3.8709888E-1,-2.3533633E0,6.12835E-1,9.4384915E-1,-2.2906272E-2,7.7126044E-1,-7.101814E-2,-1.0246064E-2,-3.3327491E0,-2.5040112E0,6.222203E-1,-1.328386E0,-2.5633376E0,-5.049063E-2,4.0066108E-2,-1.587019E-2,4.7424637E-2,1.6686456E-2,1.4027024E-2,4.966103E-2,-8.562137E-2,-1.817305E-1,-3.549357E-2,-1.2887307E-1,8.069867E-3,4.25923E-2,-1.0593319E-1,-4.935963E-3,-3.6440443E-2,-1.4443669E-1],"categories":[],"categories_nodes":[],"categories_segments":[],"categories_sizes":[],"default_left":[0,0,0,0,0,0,0,0,0,0,0,0,0,0,0,0,0,0,0,0,0,0,0,0,0,0,0,0,0,0,0,0,0,0,0,0,0,0,0,0,0,0,0,0,0,0,0],"id":1,"left_children":[1,3,5,7,9,11,-1,13,-1,-1,-1,15,17,19,21,23,25,27,29,31,33,-1,35,-1,-1,37,39,41,43,45,-1,-1,-1,-1,-1,-1,-1,-1,-1,-1,-1,-1,-1,-1,-1,-1,-1],"loss_changes":[2.340251E3,1.7108154E0,2.233313E2,1.6046753E0,2.244227E0,1.5310608E1,0E0,1.8135681E0,0E0,0E0,0E0,7.9124756E0,2.1229485E1,1.2871399E0,4.037442E0,1.4673147E0,4.904663E0,1.0594767E1,1.7265701E0,3.8532462E0,9.935608E-1,0E0,8.9335155E-1,0E0,0E0,5.2521667E0,8.061432E0,4.5959187E-1,5.270837E0,5.4032135E0,0E0,0E0,0E0,0E0,0E0,0E0,0E0,0E0,0E0,0E0,0E0,0E0,0E0,0E0,0E0,0E0,0E0],"parents":[2147483647,0,0,1,1,2,2,3,3,4,4,5,5,7,7,11,11,12,12,13,13,14,14,15,15,16,16,17,17,18,18,19,19,20,20,22,22,25,25,26,26,27,27,28,28,29,29],"right_children":[2,4,6,8,10,12,-1,14,-1,-1,-1,16,18,20,22,24,26,28,30,32,34,-1,36,-1,-1,38,40,42,44,46,-1,-1,-1,-1,-1,-1,-1,-1,-1,-1,-1,-1,-1,-1,-1,-1,-1],"split_conditions":[2.5173122E-1,3.5296137E0,5.610689E-1,8.528278E-1,2.4098371E-1,4.5612273E-3,-2.5350773E-1,4.1564342E-1,5.448256E-2,4.11407E-2,-1.6678732E-2,-3.3570106E0,6.589504E-3,4.478668E-1,-1.1723742E-3,5.497609E-3,-1.8577973E0,5.708437E-3,6.4831835E-1,3.393314E0,1.011675E0,-2.2906272E-2,9.8289305E-1,-7.101814E-2,-1.0246064E-2,-9.152362E-3,1.423845E-1,1.4850676E-1,2.1693725E-2,3.4723654E0,-5.049063E-2,4.0066108E-2,-1.587019E-2,4.7424637E-2,1.6686456E-2,1.4027024E-2,4.966103E-2,-8.562137E-2,-1.817305E-1,-3.549357E-2,-1.2887307E-1,8.069867E-3,4.25923E-2,-1.0593319E-1,-4.935963E-3,-3.6440443E-2,-1.4443669E-1],"split_indices":[17,20,7,0,6,1,0,15,0,0,0,0,1,14,23,19,0,19,14,20,21,0,21,0,0,1,5,5,4,20,0,0,0,0,0,0,0,0,0,0,0,0,0,0,0,0,0],"split_type":[0,0,0,0,0,0,0,0,0,0,0,0,0,0,0,0,0,0,0,0,0,0,0,0,0,0,0,0,0,0,0,0,0,0,0,0,0,0,0,0,0,0,0,0,0,0,0],"sum_hessian":[7.7710034E2,6.053641E2,1.7173627E2,6.0044147E2,4.9225836E0,1.2427252E2,4.746375E1,4.93531E2,1.0691046E2,2.4624455E0,2.4601383E0,1.0069524E2,2.3577288E1,4.8095862E2,1.2572392E1,4.1742115E0,9.652103E1,9.281696E0,1.4295591E1,1.9525507E1,4.614331E2,2.8123155E0,9.7600765E0,2.1495554E0,2.0246558E0,2.2463308E1,7.405772E1,4.6425605E0,4.6391354E0,1.1578227E1,2.7173648E0,1.6351011E1,3.1744967E0,4.5739734E2,4.035767E0,3.744806E0,6.0152707E0,4.57557E0,1.788774E1,3.3320298E0,7.0725685E1,2.1103294E0,2.5322309E0,2.3840227E0,2.255113E0,2.232352E0,9.345875E0],"tree_param":{"num_deleted":"0","num_feature":"24","num_nodes":"47","size_leaf_vector":"1"}},{"base_weights":[7.264538E-3,9.265268E-1,-2.7792332E0,9.3255144E-1,-2.071502E-2,-2.140865E0,-2.041841E-1,9.4156706E-1,2.8016865E-1,-1.9050343E0,-2.6305747E0,8.9941216E-1,1.0163308E0,6.7944896E-1,-2.5565928E-2,-3.547081E-1,-1.9758179E0,-2.3074817E-2,-2.7414937E0,5.2834034E-1,9.1379356E-1,4.9588206E-1,1.032498E0,5.2906154E-3,4.52681E-2,2.4904085E-2,-5.3597372E-2,-7.594722E-1,-2.059487E0,-2.9077075E0,-1.139955E0,3.886004E-2,-3.0598646E-2,4.682715E-2,3.7206043E-2,4.580825E-2,-7.839468E-3,4.0641535E-2,5.35942E-2,-8.746686E-2,5.715761E-3,-1.2546216E-1,-8.536904E-2,-1.5186839E-1,-3.6367003E-2,-9.242419E-2,-5.5344603E-3],"categories":[],"categories_nodes":[],"categories_segments":[],"categories_sizes":[],"default_left":[0,0,0,0,0,0,0,0,0,0,0,0,0,0,0,0,0,0,0,0,0,0,0,0,0,0,0,0,0,0,0,0,0,0,0,0,0,0,0,0,0,0,0,0,0,0,0],"id":2,"left_children":[1,3,5,7,-1,9,-1,11,13,15,17,19,21,23,-1,25,27,-1,29,31,33,35,37,-1,-1,-1,-1,39,41,43,45,-1,-1,-1,-1,-1,-1,-1,-1,-1,-1,-1,-1,-1,-1,-1,-1],"loss_changes":[1.9776522E3,5.075897E0,1.5074011E2,3.137207E0,0E0,1.0082275E1,0E0,8.8217163E-1,3.2882607E0,9.377228E0,8.323608E0,1.5085144E0,1.1523285E0,7.614267E-1,0E0,3.7321296E0,7.3519287E0,0E0,6.7246704E0,5.0991716E0,6.843567E-1,2.306106E0,7.805023E-1,0E0,0E0,0E0,0E0,6.4471526E0,8.604279E0,7.2678833E0,3.5809393E0,0E0,0E0,0E0,0E0,0E0,0E0,0E0,0E0,0E0,0E0,0E0,0E0,0E0,0E0,0E0,0E0],"parents":[2147483647,0,0,1,1,2,2,3,3,5,5,7,7,8,8,9,9,10,10,11,11,12,12,13,13,15,15,16,16,18,18,19,19,20,20,21,21,22,22,27,27,28,28,29,29,30,30],"right_children":[2,4,6,8,-1,10,-1,12,14,16,18,20,22,24,-1,26,28,-1,30,32,34,36,38,-1,-1,-1,-1,40,42,44,46,-1,-1,-1,-1,-1,-1,-1,-1,-1,-1,-1,-1,-1,-1,-1,-1],"split_conditions":[2.5173122E-1,8.598958E-3,4.3882427E-1,1.469099E-1,-2.071502E-2,4.135854E-1,-2.041841E-1,1.148573E-3,2.6922992E-1,1.1348997E0,-1.06731085E-2,4.478668E-1,1.1148454E0,5.058864E-3,-2.5565928E-2,-1.0459976E-1,3.3824193E0,-2.3074817E-2,1.6779851E0,3.3950734E0,-1.3817334E0,1.1069196E0,-3.8854644E-4,5.2906154E-3,4.52681E-2,2.4904085E-2,-5.3597372E-2,4.589761E-3,4.7472176E-1,6.063083E3,1.4740908E-1,3.886004E-2,-3.0598646E-2,4.682715E-2,3.7206043E-2,4.580825E-2,-7.839468E-3,4.0641535E-2,5.35942E-2,-8.746686E-2,5.715761E-3,-1.2546216E-1,-8.536904E-2,-1.5186839E-1,-3.6367003E-2,-9.242419E-2,-5.5344603E-3],"split_indices":[17,19,17,3,0,17,0,1,10,16,1,14,16,19,0,23,20,0,16,20,22,16,2,0,0,0,0,19,14,18,5,0,0,0,0,0,0,0,0,0,0,0,0,0,0,0,0],"split_type":[0,0,0,0,0,0,0,0,0,0,0,0,0,0,0,0,0,0,0,0,0,0,0,0,0,0,0,0,0,0,0,0,0,0,0,0,0,0,0,0,0,0,0,0,0,0,0],"sum_hessian":[7.70056E2,5.7953546E2,1.9052055E2,5.772463E2,2.2892184E0,1.2969295E2,6.0827618E1,5.6894055E2,8.305732E0,9.083796E1,3.8854984E1,3.7214188E2,1.9679866E2,5.614798E0,2.690934E0,4.228789E0,8.660917E1,2.141306E0,3.6713676E1,1.5292775E1,3.568491E2,6.8833714E0,1.8991528E2,2.0013533E0,3.6134446E0,2.071434E0,2.157355E0,6.222742E0,8.038643E1,3.2522766E1,4.190911E0,1.2814572E1,2.4782035E0,3.106748E2,4.61743E1,3.9415343E0,2.941837E0,3.2164093E1,1.5775119E2,2.447776E0,3.7749658E0,3.2608368E1,4.7778057E1,3.0326298E1,2.1964686E0,2.010792E0,2.180119E0],"tree_param":{"num_deleted":"0","num_feature":"24","num_nodes":"47","size_leaf_vector":"1"}},{"base_weights":[-3.309117E-2,8.9005435E-1,-2.4706407E0,8.9444405E-1,-9.5311245E-3,-1.8884284E0,-1.7694186E-1,9.0484023E-1,4.3129256E-1,-7.667852E-1,-1.9524995E0,9.280578E-1,7.270001E-1,-5.371843E-2,7.997958E-1,-1.2661014E0,2.6493406E-2,-2.0245189E-2,-1.9994696E0,5.159881E-1,9.360648E-1,4.89736E-1,9.3737763E-1,5.061201E-2,1.0745487E-2,-9.357279E-2,7.2383545E-3,-2.5448802E0,-1.7538822E0,4.998414E-2,-2.4627645E-2,9.904519E-3,4.696606E-2,3.305994E-2,-9.277753E-3,4.929068E-2,4.891389E-3,-7.981747E-2,-1.3655575E-1,-3.220156E-2,-9.612721E-2],"categories":[],"categories_nodes":[],"categories_segments":[],"categories_sizes":[],"default_left":[0,0,0,0,0,0,0,0,0,0,0,0,0,0,0,0,0,0,0,0,0,0,0,0,0,0,0,0,0,0,0,0,0,0,0,0,0,0,0,0,0],"id":3,"left_children":[1,3,5,7,-1,9,-1,11,13,15,17,19,21,-1,23,25,-1,-1,27,29,31,33,35,-1,-1,-1,-1,37,39,-1,-1,-1,-1,-1,-1,-1,-1,-1,-1,-1,-1],"loss_changes":[1.735903E3,2.8250122E0,1.2510266E2,2.2940063E0,0E0,8.513184E0,0E0,1.5727844E0,8.709937E0,6.6101923E0,8.721741E0,1.0936279E0,2.9088402E0,0E0,1.2661414E0,6.1795464E0,0E0,0E0,1.2548279E1,6.0226145E0,9.3743896E-1,4.0367746E0,1.3133373E0,0E0,0E0,0E0,0E0,2.2141418E0,1.5756683E1,0E0,0E0,0E0,0E0,0E0,0E0,0E0,0E0,0E0,0E0,0E0,0E0],"parents":[2147483647,0,0,1,1,2,2,3,3,5,5,7,7,8,8,9,9,10,10,11,11,12,12,14,14,15,15,18,18,19,19,20,20,21,21,22,22,27,27,28,28],"right_children":[2,4,6,8,-1,10,-1,12,14,16,18,20,22,-1,24,26,-1,-1,28,30,32,34,36,-1,-1,-1,-1,38,40,-1,-1,-1,-1,-1,-1,-1,-1,-1,-1,-1,-1],"split_conditions":[2.524915E-1,8.598958E-3,4.395056E-1,4.162206E-1,-9.5311245E-3,3.3824193E0,-1.7694186E-1,-1.3817334E0,-2.4234709E-1,5.288159E-3,-3.3570106E0,2.3161024E-1,-1.9935834E-1,-5.371843E-2,4.0904036E-1,3.3608687E0,2.6493406E-2,-2.0245189E-2,-1.4140412E0,5.438952E2,3.1666934E0,1.22691E0,3.5296137E0,5.061201E-2,1.0745487E-2,-9.357279E-2,7.2383545E-3,1.1516805E0,3.6812252E-1,4.998414E-2,-2.4627645E-2,9.904519E-3,4.696606E-2,3.305994E-2,-9.277753E-3,4.929068E-2,4.891389E-3,-7.981747E-2,-1.3655575E-1,-3.220156E-2,-9.612721E-2],"split_indices":[7,19,7,15,0,20,0,22,8,19,0,7,0,0,0,20,0,0,0,18,20,16,20,0,0,0,0,16,7,0,0,0,0,0,0,0,0,0,0,0,0],"split_type":[0,0,0,0,0,0,0,0,0,0,0,0,0,0,0,0,0,0,0,0,0,0,0,0,0,0,0,0,0,0,0,0,0,0,0,0,0,0,0,0,0],"sum_hessian":[7.694622E2,5.5856E2,2.1090224E2,5.564719E2,2.0880744E0,1.3829402E2,7.260822E1,5.433225E2,1.3149389E1,8.1735525E0,1.3012047E2,4.768498E2,6.647274E1,2.2088387E0,1.094055E1,5.9181495E0,2.2554028E0,4.1162643E0,1.26004196E2,1.0336459E1,4.6651334E2,3.2804104E1,3.3668636E1,7.489518E0,3.451032E0,3.912833E0,2.0053165E0,3.6214718E1,8.978948E1,6.991926E0,3.3445332E0,2.3211963E0,4.6419214E2,2.6178104E1,6.6260004E0,3.1667439E1,2.0011983E0,7.514349E0,2.870037E1,1.2480734E1,7.730875E1],"tree_param":{"num_deleted":"0","num_feature":"24","num_nodes":"41","size_leaf_vector":"1"}},{"base_weights":[6.346903E-3,9.0228003E-1,-2.1760547E0,9.088645E-1,5.063331E-1,-1.7045195E0,-1.5767448E-1,5.987687E-1,9.1723156E-1,8.03078E-1,-2.821281E-2,-5.9849596E-1,-1.7606277E0,-1.9078847E-2,8.4075075E-1,8.890132E-1,1.0253007E0,1.3539182E-2,4.858465E-2,-9.045712E-2,2.1564907E-1,-5.6170255E-1,-1.7967448E0,5.1725782E-2,5.2110823E-3,8.925669E-1,5.8251787E-3,1.0505193E0,4.543898E-1,4.396451E-2,-2.5395144E-2,-5.0178953E-2,8.371225E-3,-2.063081E0,-1.5781461E0,2.5583703E-2,4.5051437E-2,2.7473805E-2,5.390826E-2,4.2439107E-2,-9.414833E-3,-3.1055752E-2,-1.1071441E-1,1.1376968E-2,-8.276919E-2],"categories":[],"categories_nodes":[],"categories_segments":[],"categories_sizes":[],"default_left":[0,0,0,0,0,0,0,0,0,0,0,0,0,0,0,0,0,0,0,0,0,0,0,0,0,0,0,0,0,0,0,0,0,0,0,0,0,0,0,0,0,0,0,0,0],"id":4,"left_children":[1,3,5,7,9,11,-1,13,15,17,-1,19,21,-1,23,25,27,-1,-1,-1,29,31,33,-1,-1,35,-1,37,39,-1,-1,-1,-1,41,43,-1,-1,-1,-1,-1,-1,-1,-1,-1,-1],"loss_changes":[1.4990547E3,9.567871E-1,9.7466675E1,8.347168E-1,3.9949954E0,8.422241E0,0E0,4.328473E0,6.6659546E-1,5.573864E-1,0E0,9.149827E0,5.2612915E0,0E0,1.8704147E0,1.0431824E0,9.713745E-1,0E0,0E0,0E0,3.4272137E0,2.001114E0,4.902069E0,0E0,0E0,8.7908936E-1,0E0,7.318573E-1,1.6854533E0,0E0,0E0,0E0,0E0,1.1687012E1,1.1702972E1,0E0,0E0,0E0,0E0,0E0,0E0,0E0,0E0,0E0,0E0],"parents":[2147483647,0,0,1,1,2,2,3,3,4,4,5,5,7,7,8,8,9,9,11,11,12,12,14,14,15,15,16,16,20,20,21,21,22,22,25,25,27,27,28,28,33,33,34,34],"right_children":[2,4,6,8,10,12,-1,14,16,18,-1,20,22,-1,24,26,28,-1,-1,-1,30,32,34,-1,-1,36,-1,38,40,-1,-1,-1,-1,42,44,-1,-1,-1,-1,-1,-1,-1,-1,-1,-1],"split_conditions":[2.5173122E-1,2.1496866E-2,5.610689E-1,1.1165676E0,6.1657573E-3,3.3824193E0,-1.5767448E-1,1.9186521E-2,9.973542E-1,1.723419E2,-2.821281E-2,3.340331E0,-1.1281367E-2,-1.9078847E-2,4.0023397E-3,8.3373245E-3,1.011675E0,1.3539182E-2,4.858465E-2,-9.045712E-2,4.6075497E2,3.57873E0,4.7457525E-1,5.1725782E-2,5.2110823E-3,2.3236065E-1,5.8251787E-3,-6.6672154E-3,2.068041E-2,4.396451E-2,-2.5395144E-2,-5.0178953E-2,8.371225E-3,1.7037695E2,4.7596714E-1,2.5583703E-2,4.5051437E-2,2.7473805E-2,5.390826E-2,4.2439107E-2,-9.414833E-3,-3.1055752E-2,-1.1071441E-1,1.1376968E-2,-8.276919E-2],"split_indices":[17,4,7,16,19,20,0,12,21,18,0,20,1,0,1,19,21,0,0,0,18,20,14,0,0,7,0,2,13,0,0,0,0,18,14,0,0,0,0,0,0,0,0,0,0],"split_type":[0,0,0,0,0,0,0,0,0,0,0,0,0,0,0,0,0,0,0,0,0,0,0,0,0,0,0,0,0,0,0,0,0,0,0,0,0,0,0,0,0,0,0,0,0],"sum_hessian":[7.6466364E2,5.4252814E2,2.2213548E2,5.3237946E2,1.01487055E1,1.5169737E2,7.043812E1,1.5893851E1,5.164856E2,8.141833E0,2.0068727E0,7.8872943E0,1.4381007E2,3.0322733E0,1.2861578E1,4.1686298E2,9.96226E1,2.5855465E0,5.556287E0,2.6799817E0,5.2073126E0,4.6895747E0,1.391205E2,9.862411E0,2.999168E0,4.1479938E2,2.0636067E0,9.460363E1,5.018965E0,2.6038356E0,2.6034768E0,2.6855974E0,2.0039773E0,5.8909107E1,8.0211395E1,1.0350678E1,4.044487E2,6.038558E0,8.856507E1,2.9115677E0,2.1073968E0,6.0758038E0,5.28333E1,3.210458E0,7.700094E1],"tree_param":{"num_deleted":"0","num_feature":"24","num_nodes":"45","size_leaf_vector":"1"}},{"base_weights":[1.8578172E-2,8.996265E-1,-2.0384395E0,9.0720564E-1,-1.027743E-2,-1.6422142E0,-1.404733E-1,9.326786E-1,7.0455754E-1,-2.49928E0,-1.5440737E0,9.4284815E-1,4.7702035E-1,5.1122296E-1,9.4470245E-1,-1.61222E-1,-1.3204525E0,-1.3371085E0,-1.914891E0,1.1404707E-2,9.462089E-1,-2.2407187E-2,8.07573E-1,7.887289E-1,2.4229164E-1,1.0359936E-2,5.0389063E-2,-1.4406246E-2,-8.961897E-2,1.1163315E-2,-1.3776817E0,-5.0947154E-1,-2.0578048E0,2.2290189E-2,4.7540188E-2,4.949987E-2,4.6166712E-3,4.8345234E-2,1.3572733E-2,-4.290718E-2,2.0745728E-2,-7.588956E-2,-3.8015176E-2,-4.3275964E-2,1.1260093E-4,-1.10179536E-1,-3.1437397E-2],"categories":[],"categories_nodes":[],"categories_segments":[],"categories_sizes":[],"default_left":[0,0,0,0,0,0,0,0,0,0,0,0,0,0,0,0,0,0,0,0,0,0,0,0,0,0,0,0,0,0,0,0,0,0,0,0,0,0,0,0,0,0,0,0,0,0,0],"id":5,"left_children":[1,3,5,7,-1,9,-1,11,13,15,17,19,21,23,25,-1,27,29,31,-1,33,-1,35,37,39,-1,-1,-1,-1,-1,41,43,45,-1,-1,-1,-1,-1,-1,-1,-1,-1,-1,-1,-1,-1,-1],"loss_changes":[1.3772142E3,4.6427917E0,6.500391E1,2.0714722E0,0E0,9.004578E0,0E0,1.711792E0,2.447239E0,7.7923203E0,8.171539E0,8.777466E-1,4.095173E0,2.5808868E0,1.0458126E0,0E0,2.9241962E0,6.1992188E0,8.547653E0,0E0,6.1727905E-1,0E0,1.1286759E0,1.381464E0,4.21346E0,0E0,0E0,0E0,0E0,0E0,6.7038574E0,1.0475602E0,7.5807343E0,0E0,0E0,0E0,0E0,0E0,0E0,0E0,0E0,0E0,0E0,0E0,0E0,0E0,0E0],"parents":[2147483647,0,0,1,1,2,2,3,3,5,5,7,7,8,8,9,9,10,10,11,11,12,12,13,13,14,14,16,16,17,17,18,18,20,20,22,22,23,23,24,24,30,30,31,31,32,32],"right_children":[2,4,6,8,-1,10,-1,12,14,16,18,20,22,24,26,-1,28,30,32,-1,34,-1,36,38,40,-1,-1,-1,-1,-1,42,44,46,-1,-1,-1,-1,-1,-1,-1,-1,-1,-1,-1,-1,-1,-1],"split_conditions":[3.0915898E-1,-1.3612121E0,1.5310238E-1,-1.3817334E0,-1.027743E-2,3.291023E-1,-1.404733E-1,4.1720444E-1,-1.3751633E0,2.551301E-2,1.1063855E3,3.1666934E0,-1.411034E0,2.6245844E-1,3.3120892E0,-1.61222E-1,3.497174E0,-1.1679586E-2,4.4867704E-3,1.1404707E-2,4.385202E-1,-2.2407187E-2,6.267876E-3,4.703541E-1,2.6442543E-1,1.0359936E-2,5.0389063E-2,-1.4406246E-2,-8.961897E-2,1.1163315E-2,4.5612273E-3,3.5039139E0,6.4831835E-1,2.2290189E-2,4.7540188E-2,4.949987E-2,4.6166712E-3,4.8345234E-2,1.3572733E-2,-4.290718E-2,2.0745728E-2,-7.588956E-2,-3.8015176E-2,-4.3275964E-2,1.1260093E-4,-1.10179536E-1,-3.1437397E-2],"split_indices":[9,22,3,22,0,9,0,15,22,12,18,20,22,9,20,0,20,1,19,0,14,0,19,14,9,0,0,0,0,0,1,20,14,0,0,0,0,0,0,0,0,0,0,0,0,0,0],"split_type":[0,0,0,0,0,0,0,0,0,0,0,0,0,0,0,0,0,0,0,0,0,0,0,0,0,0,0,0,0,0,0,0,0,0,0,0,0,0,0,0,0,0,0,0,0,0,0],"sum_hessian":[7.5790094E2,5.310204E2,2.2688054E2,5.275815E2,3.438951E0,1.5193309E2,7.494745E1,4.654693E2,6.2112156E1,1.3096278E1,1.388368E2,4.5426172E2,1.1207572E1,3.6143085E1,2.5969074E1,7.0339966E0,6.062281E0,9.2060616E1,4.677619E1,2.4482443E0,4.5181348E2,2.856617E0,8.350955E0,1.683672E1,1.9306364E1,2.3837335E0,2.358534E1,2.4071765E0,3.6551046E0,2.2190003E0,8.984161E1,4.7388716E0,4.203732E1,5.002812E0,4.4681067E2,6.347783E0,2.0031722E0,1.1876582E1,4.9601364E0,2.0794022E0,1.7226963E1,7.203529E1,1.7806318E1,2.3867998E0,2.3520718E0,3.7654037E1,4.383282E0],"tree_param":{"num_deleted":"0","num_feature":"24","num_nodes":"47","size_leaf_vector":"1"}},{"base_weights":[1.2477823E-2,8.718681E-1,-1.790736E0,8.781674E-1,3.5896277E-1,-1.4278771E0,-1.2812495E-1,3.3724034E-1,8.834512E-1,3.7830472E-2,-2.1852728E-2,-1.1324084E0,-1.6303567E0,4.370854E-2,-2.7082637E-2,8.515569E-1,1.00749E0,-1.1951122E0,2.7983336E-2,-6.973891E-3,-1.6611769E0,4.5095903E-1,8.6652005E-1,5.1606502E-2,5.734838E-1,9.0134805E-3,-1.281089E0,-9.053411E-1,-1.7274554E0,-4.3633636E-2,3.5015583E-2,4.5303892E-2,3.7997562E-2,4.602581E-2,-1.1891707E-2,-3.66078E-2,4.4165295E-2,-9.298553E-2,-5.392201E-2,-6.852664E-2,1.6305452E-2,-1.1037036E-1,-7.78243E-2],"categories":[],"categories_nodes":[],"categories_segments":[],"categories_sizes":[],"default_left":[0,0,0,0,0,0,0,0,0,0,0,0,0,0,0,0,0,0,0,0,0,0,0,0,0,0,0,0,0,0,0,0,0,0,0,0,0,0,0,0,0,0,0],"id":6,"left_children":[1,3,5,7,9,11,-1,13,15,-1,-1,17,19,-1,-1,21,23,25,-1,-1,27,29,31,-1,33,35,37,39,41,-1,-1,-1,-1,-1,-1,-1,-1,-1,-1,-1,-1,-1,-1],"loss_changes":[1.1594747E3,1.3219299E0,6.3970093E1,1.1307678E0,2.8120022E0,8.116272E0,0E0,3.518669E0,1.0980225E0,0E0,0E0,8.200577E0,4.204071E0,0E0,0E0,2.0054016E0,4.3112946E-1,7.131035E0,0E0,0E0,3.1695557E0,6.050045E0,9.313965E-1,0E0,2.2995713E0,4.259985E0,5.521538E0,6.014517E0,3.6022644E0,0E0,0E0,0E0,0E0,0E0,0E0,0E0,0E0,0E0,0E0,0E0,0E0,0E0,0E0],"parents":[2147483647,0,0,1,1,2,2,3,3,4,4,5,5,7,7,8,8,11,11,12,12,15,15,16,16,17,17,20,20,21,21,22,22,24,24,25,25,26,26,27,27,28,28],"right_children":[2,4,6,8,10,12,-1,14,16,-1,-1,18,20,-1,-1,22,24,26,-1,-1,28,30,32,-1,34,36,38,40,42,-1,-1,-1,-1,-1,-1,-1,-1,-1,-1,-1,-1,-1,-1],"split_conditions":[2.524915E-1,2.1582516E-2,5.610689E-1,4.385202E-1,5.8242017E-3,5.390037E-3,-1.2812495E-1,1.8711645E-2,9.973542E-1,3.7830472E-2,-2.1852728E-2,9.705926E-1,3.38829E0,4.370854E-2,-2.7082637E-2,2.2731009E-1,1.0106158E0,4.5953882E-1,2.7983336E-2,-6.973891E-3,1.7037695E2,1.863606E-2,9.90009E-1,5.1606502E-2,2.16875E-2,4.948032E-3,2.7261624E2,4.477757E-2,2.2057269E-2,-4.3633636E-2,3.5015583E-2,4.5303892E-2,3.7997562E-2,4.602581E-2,-1.1891707E-2,-3.66078E-2,4.4165295E-2,-9.298553E-2,-5.392201E-2,-6.852664E-2,1.6305452E-2,-1.1037036E-1,-7.78243E-2],"split_indices":[7,4,7,14,19,19,0,4,21,0,0,21,20,0,0,6,21,14,0,0,18,4,21,0,13,19,18,13,12,0,0,0,0,0,0,0,0,0,0,0,0,0,0],"split_type":[0,0,0,0,0,0,0,0,0,0,0,0,0,0,0,0,0,0,0,0,0,0,0,0,0,0,0,0,0,0,0,0,0,0,0,0,0,0,0,0,0,0,0],"sum_hessian":[7.462027E2,5.0570584E2,2.4049689E2,4.988668E2,6.839048E0,1.655232E2,7.49737E1,5.452942E0,4.9341385E2,4.593762E0,2.2452857E0,6.99871E1,9.5536095E1,3.3883286E0,2.0646133E0,3.9874817E2,9.466568E1,6.776944E1,2.2176576E0,2.046886E0,9.3489204E1,1.5478973E1,3.832692E2,8.827582E1,6.38986E0,4.5760403E0,6.31934E1,8.718903E0,8.47703E1,2.0574918E0,1.3421481E1,2.7404337E2,1.0922581E2,4.3812394E0,2.0086205E0,2.5645506E0,2.0114896E0,1.4270355E1,4.8923042E1,6.246346E0,2.4725568E0,1.9137009E1,6.563329E1],"tree_param":{"num_deleted":"0","num_feature":"24","num_nodes":"43","size_leaf_vector":"1"}},{"base_weights":[1.375989E-2,8.668991E-1,-1.6478453E0,8.736594E-1,-1.6090369E-2,-1.3097239E0,-1.1880111E-1,6.5089035E-1,8.965331E-1,-9.844994E-1,-1.4500455E0,9.0208215E-1,1.4932218E-1,4.8485363E-1,9.050492E-1,-1.2960154E0,-6.312802E-1,-1.7592506E0,-1.2722613E0,1.2525472E-2,9.769784E-1,7.23396E-1,-5.889561E-1,4.3291E-2,-2.1427102E-2,9.114357E-1,3.948506E-1,-1.4114251E0,4.811602E-4,1.5899278E-1,-1.1233933E0,-4.9913275E-1,-1.9761485E0,-1.3249198E0,7.921979E-3,4.087915E-3,5.2039154E-2,4.8745137E-2,-2.4229333E-4,-7.099413E-2,2.128949E-2,4.5750435E-2,8.26771E-3,4.3067288E-2,-1.3008331E-2,-2.6527572E-2,-7.7426225E-2,-2.4760518E-2,3.3547007E-2,3.4838654E-2,-7.708385E-2,-6.93972E-2,2.5601065E-2,-1.06067576E-1,1.1753269E-2,-4.8695663E-3,-6.916451E-2],"categories":[],"categories_nodes":[],"categories_segments":[],"categories_sizes":[],"default_left":[0,0,0,0,0,0,0,0,0,0,0,0,0,0,0,0,0,0,0,0,0,0,0,0,0,0,0,0,0,0,0,0,0,0,0,0,0,0,0,0,0,0,0,0,0,0,0,0,0,0,0,0,0,0,0,0,0],"id":7,"left_children":[1,3,5,7,-1,9,-1,11,13,15,17,19,21,23,25,27,29,31,33,-1,35,37,39,-1,-1,41,43,45,-1,47,49,51,53,55,-1,-1,-1,-1,-1,-1,-1,-1,-1,-1,-1,-1,-1,-1,-1,-1,-1,-1,-1,-1,-1,-1,-1],"loss_changes":[1.0540682E3,4.229248E0,5.8997986E1,1.9071045E0,0E0,6.5358887E0,0E0,6.0595646E0,1.1059265E0,5.311901E0,4.34671E0,1.3442211E0,7.8872523E0,4.2279787E0,1.0429688E0,4.3311653E0,1.1090282E1,1.0251915E1,6.2121124E0,0E0,1.5632935E0,1.9008331E0,7.562545E0,0E0,0E0,9.802246E-1,2.3896418E0,2.3585854E0,0E0,4.2317133E0,1.4332649E1,7.3397255E0,1.1653473E1,5.378708E0,0E0,0E0,0E0,0E0,0E0,0E0,0E0,0E0,0E0,0E0,0E0,0E0,0E0,0E0,0E0,0E0,0E0,0E0,0E0,0E0,0E0,0E0,0E0],"parents":[2147483647,0,0,1,1,2,2,3,3,5,5,7,7,8,8,9,9,10,10,11,11,12,12,13,13,14,14,15,15,16,16,17,17,18,18,20,20,21,21,22,22,25,25,26,26,27,27,29,29,30,30,31,31,32,32,33,33],"right_children":[2,4,6,8,-1,10,-1,12,14,16,18,20,22,24,26,28,30,32,34,-1,36,38,40,-1,-1,42,44,46,-1,48,50,52,54,56,-1,-1,-1,-1,-1,-1,-1,-1,-1,-1,-1,-1,-1,-1,-1,-1,-1,-1,-1,-1,-1,-1,-1],"split_conditions":[2.524915E-1,8.598958E-3,5.610689E-1,-2.4203542E-1,-1.6090369E-2,3.4915948E0,-1.1880111E-1,6.2186853E-3,2.3161024E-1,-1.9371817E-3,2.1537747E-2,1.1431104E0,2.4409415E-4,2.141464E-2,9.826397E-3,1.4614739E-1,3.9631128E-1,3.6812252E-1,-2.3276943E-1,1.2525472E-2,2.4855635E-1,-1.3817334E0,2.434881E-2,4.3291E-2,-2.1427102E-2,3.5296137E0,1.9967448E-2,-8.663452E-3,4.811602E-4,1.1791014E-3,3.1586137E-1,1.2241368E0,4.0142027E-1,-1.0936408E-2,7.921979E-3,4.087915E-3,5.2039154E-2,4.8745137E-2,-2.4229333E-4,-7.099413E-2,2.128949E-2,4.5750435E-2,8.26771E-3,4.3067288E-2,-1.3008331E-2,-2.6527572E-2,-7.7426225E-2,-2.4760518E-2,3.3547007E-2,3.4838654E-2,-7.708385E-2,-6.93972E-2,2.5601065E-2,-1.06067576E-1,1.1753269E-2,-4.8695663E-3,-6.916451E-2],"split_indices":[7,19,7,8,0,20,0,19,7,1,4,16,23,13,1,0,15,7,8,0,10,22,12,0,0,20,4,1,0,1,10,16,15,1,0,0,0,0,0,0,0,0,0,0,0,0,0,0,0,0,0,0,0,0,0,0,0],"split_type":[0,0,0,0,0,0,0,0,0,0,0,0,0,0,0,0,0,0,0,0,0,0,0,0,0,0,0,0,0,0,0,0,0,0,0,0,0,0,0,0,0,0,0,0,0,0,0,0,0,0,0,0,0,0,0,0,0],"sum_hessian":[7.415608E2,4.902987E2,2.5126207E2,4.8778964E2,2.5090568E0,1.7349849E2,7.776359E1,4.8164825E1,4.3962482E2,5.4710804E1,1.1878768E2,3.156043E1,1.6604393E1,1.0084019E1,4.295408E2,2.7653286E1,2.7057518E1,4.011814E1,7.866954E1,3.7016933E0,2.7858738E1,9.352326E0,7.252067E0,7.1527705E0,2.9312477E0,4.2345374E2,6.0870914E0,2.5332994E1,2.3202915E0,1.0643034E1,1.6414484E1,6.376079E0,3.374206E1,7.594812E1,2.7214227E0,2.0052447E0,2.5853493E1,6.6997747E0,2.652552E0,3.7676613E0,3.4844058E0,4.2121008E2,2.2436254E0,3.3711808E0,2.7159104E0,4.0676785E0,2.1265316E1,4.686711E0,5.956323E0,2.9428494E0,1.3471634E1,3.1950102E0,3.1810691E0,3.1701002E1,2.0410583E0,3.5686066E0,7.237951E1],"tree_param":{"num_deleted":"0","num_feature":"24","num_nodes":"57","size_leaf_vector":"1"}},{"base_weights":[5.088543E-3,8.3079493E-1,-1.5131303E0,8.3768106E-1,-1.9973448E-2,-1.1733142E0,-2.1644092E0,8.534219E-1,3.8543203E-1,-1.3897711E0,-9.90745E-1,-1.36678E0,-1.1048746E-1,8.1520766E-1,1.0151349E0,-2.4251115E-2,5.790286E-1,9.93076E-4,-1.4634626E0,-5.2950996E-1,-1.1663008E0,-3.287242E-2,-8.155876E-2,9.6825635E-1,7.736775E-1,5.9355605E-1,1.0572308E0,-9.9366205E-3,7.795651E-1,-8.068986E-1,-1.6095246E0,-9.123177E-1,4.7410198E-2,-2.7663228E-1,-1.2987934E0,5.0417513E-2,2.990952E-2,2.6021972E-2,4.1727703E-2,-1.9505968E-3,4.6986397E-2,5.3473897E-2,2.1311793E-2,7.4082846E-3,4.972683E-2,-1.3582766E-2,-8.015856E-2,-8.7770954E-2,-3.748712E-2,2.2278864E-2,-5.9714623E-2,3.256047E-2,-2.3876203E-2,-5.4673236E-2,1.7258003E-2,-5.5427756E-2,-9.168284E-2],"categories":[],"categories_nodes":[],"categories_segments":[],"categories_sizes":[],"default_left":[0,0,0,0,0,0,0,0,0,0,0,0,0,0,0,0,0,0,0,0,0,0,0,0,0,0,0,0,0,0,0,0,0,0,0,0,0,0,0,0,0,0,0,0,0,0,0,0,0,0,0,0,0,0,0,0,0],"id":8,"left_children":[1,3,5,7,-1,9,11,13,15,17,19,21,-1,23,25,-1,27,-1,29,31,33,-1,-1,35,37,39,41,-1,43,45,47,49,51,53,55,-1,-1,-1,-1,-1,-1,-1,-1,-1,-1,-1,-1,-1,-1,-1,-1,-1,-1,-1,-1,-1,-1],"loss_changes":[9.2164056E2,4.368866E0,5.4779175E1,3.044464E0,0E0,5.4350586E0,1.4834595E-1,1.9972534E0,3.274084E0,7.9637756E0,7.2359543E0,3.0302048E-1,0E0,1.633255E0,8.506851E-1,0E0,2.4923406E0,0E0,5.66391E0,6.3530416E0,7.823509E0,0E0,0E0,5.2479553E-1,4.1873474E0,2.1918824E0,1.19506836E-1,0E0,1.4973917E0,6.05029E0,6.00766E0,7.1270742E0,4.224272E0,5.5929456E0,4.087715E0,0E0,0E0,0E0,0E0,0E0,0E0,0E0,0E0,0E0,0E0,0E0,0E0,0E0,0E0,0E0,0E0,0E0,0E0,0E0,0E0,0E0,0E0],"parents":[2147483647,0,0,1,1,2,2,3,3,5,5,6,6,7,7,8,8,9,9,10,10,11,11,13,13,14,14,16,16,18,18,19,19,20,20,23,23,24,24,25,25,26,26,28,28,29,29,30,30,31,31,32,32,33,33,34,34],"right_children":[2,4,6,8,-1,10,12,14,16,18,20,22,-1,24,26,-1,28,-1,30,32,34,-1,-1,36,38,40,42,-1,44,46,48,50,52,54,56,-1,-1,-1,-1,-1,-1,-1,-1,-1,-1,-1,-1,-1,-1,-1,-1,-1,-1,-1,-1,-1,-1],"split_conditions":[2.5173122E-1,8.598958E-3,4.3882427E-1,4.146673E-1,-1.9973448E-2,-2.4427215E-3,7.912685E-1,8.528278E-1,-2.4234709E-1,2.1136213E-2,2.430222E-1,7.512926E2,-1.1048746E-1,-1.2676893E0,9.440528E-5,-2.4251115E-2,-1.1723742E-3,9.93076E-4,-8.663452E-3,1.4785437E-1,2.2476569E2,-3.287242E-2,-8.155876E-2,-2.3364192E-1,-7.825319E-1,2.5970545E-1,7.8680425E3,-9.9366205E-3,4.162206E-1,1.4906727E-1,-3.994636E-1,1.4370152E-1,5.2729327E-2,-2.3774053E-1,2.5304897E-2,5.0417513E-2,2.990952E-2,2.6021972E-2,4.1727703E-2,-1.9505968E-3,4.6986397E-2,5.3473897E-2,2.1311793E-2,7.4082846E-3,4.972683E-2,-1.3582766E-2,-8.015856E-2,-8.7770954E-2,-3.748712E-2,2.2278864E-2,-5.9714623E-2,3.256047E-2,-2.3876203E-2,-5.4673236E-2,1.7258003E-2,-5.5427756E-2,-9.168284E-2],"split_indices":[17,19,17,15,0,1,21,0,8,13,6,18,0,0,1,0,23,0,1,3,18,0,0,8,0,9,18,0,15,3,0,3,13,8,13,0,0,0,0,0,0,0,0,0,0,0,0,0,0,0,0,0,0,0,0,0,0],"split_type":[0,0,0,0,0,0,0,0,0,0,0,0,0,0,0,0,0,0,0,0,0,0,0,0,0,0,0,0,0,0,0,0,0,0,0,0,0,0,0,0,0,0,0,0,0,0,0,0,0,0,0,0,0,0,0,0,0],"sum_hessian":[7.331905E2,4.7519907E2,2.5799146E2,4.7287137E2,2.327685E0,1.7137506E2,8.661638E1,4.561091E2,1.676226E1,7.538505E1,9.599002E1,6.3339343E0,8.028245E1,3.7381445E2,8.229467E1,2.7758923E0,1.3986369E1,3.7814124E0,7.160364E1,2.7570538E1,6.841948E1,2.6665633E0,3.667371E0,7.502275E1,2.987917E2,8.842218E0,7.345245E1,2.8688426E0,1.1117526E1,1.4217752E1,5.7385883E1,1.6223974E1,1.1346562E1,9.268801E0,5.915068E1,6.613295E1,8.889804E0,5.9757603E1,2.3903409E2,3.4412484E0,5.40097E0,7.137226E1,2.0801923E0,3.2528152E0,7.864711E0,9.304534E0,4.9132185E0,4.817028E1,9.215601E0,2.689938E0,1.3534037E1,5.165014E0,6.1815486E0,3.6782327E0,5.5905676E0,4.589831E1,1.3252368E1],"tree_param":{"num_deleted":"0","num_feature":"24","num_nodes":"57","size_leaf_vector":"1"}},{"base_weights":[3.1308243E-3,8.1223387E-1,-1.4535931E0,8.285394E-1,-6.58565E-2,-1.1287E0,-1.02469206E-1,8.3699125E-1,2.467046E-1,-1.1653148E0,-1.7105606E-1,8.6440253E-1,6.3694364E-1,-2.1647139E-2,3.5940345E-2,-1.0197839E0,-1.4372826E0,-4.6271373E-2,3.761013E-2,5.7727117E-3,8.681059E-1,-1.16037756E-1,7.061103E-1,-1.0744747E0,-2.7866742E-2,-1.1667503E0,-2.0776472E0,2.913251E-2,4.4086467E-2,2.677733E-2,-4.2044185E-2,1.9779867E-2,4.2939354E-2,-6.713248E-2,-4.473862E-2,3.132477E-2,-4.8653733E-2,-1.994994E-2,-6.671165E-2,-1.11866176E-1,-4.2428777E-2],"categories":[],"categories_nodes":[],"categories_segments":[],"categories_sizes":[],"default_left":[0,0,0,0,0,0,0,0,0,0,0,0,0,0,0,0,0,0,0,0,0,0,0,0,0,0,0,0,0,0,0,0,0,0,0,0,0,0,0,0,0],"id":9,"left_children":[1,3,5,7,-1,9,-1,11,13,15,17,19,21,-1,-1,23,25,-1,-1,-1,27,29,31,33,35,37,39,-1,-1,-1,-1,-1,-1,-1,-1,-1,-1,-1,-1,-1,-1],"loss_changes":[8.506836E2,1.7202179E1,4.7575195E1,2.0610352E0,0E0,5.726715E0,0E0,1.9394531E0,2.8845875E0,4.970413E0,5.8472333E0,9.996338E-1,3.1298637E0,0E0,0E0,5.9033356E0,6.972458E0,0E0,0E0,0E0,1.0202942E0,3.1813102E0,2.2079887E0,3.792717E0,4.7795305E0,4.664028E0,1.0115662E0,0E0,0E0,0E0,0E0,0E0,0E0,0E0,0E0,0E0,0E0,0E0,0E0,0E0,0E0],"parents":[2147483647,0,0,1,1,2,2,3,3,5,5,7,7,8,8,9,9,10,10,11,11,12,12,15,15,16,16,20,20,21,21,22,22,23,23,24,24,25,25,26,26],"right_children":[2,4,6,8,-1,10,-1,12,14,16,18,20,22,-1,-1,24,26,-1,-1,-1,28,30,32,34,36,38,40,-1,-1,-1,-1,-1,-1,-1,-1,-1,-1,-1,-1,-1,-1],"split_conditions":[2.9797998E-1,1.2456615E-2,-8.851244E-1,1.469099E-1,-6.58565E-2,5.663482E-2,-1.02469206E-1,-1.3817334E0,2.7261624E2,1.0886682E3,1.3037491E0,3.1666934E0,2.3316063E-1,-2.1647139E-2,3.5940345E-2,9.170078E-3,9.54317E-1,-4.6271373E-2,3.761013E-2,5.7727117E-3,4.478668E-1,2.3197559E-1,-1.3781265E0,1.4713182E-1,3.6585426E-1,3.4915948E0,-2.3568043E-1,2.913251E-2,4.4086467E-2,2.677733E-2,-4.2044185E-2,1.9779867E-2,4.2939354E-2,-6.713248E-2,-4.473862E-2,3.132477E-2,-4.8653733E-2,-1.994994E-2,-6.671165E-2,-1.11866176E-1,-4.2428777E-2],"split_indices":[10,19,22,3,0,12,0,22,18,18,0,20,6,0,0,1,21,0,0,0,14,6,22,5,9,20,8,0,0,0,0,0,0,0,0,0,0,0,0,0,0],"split_type":[0,0,0,0,0,0,0,0,0,0,0,0,0,0,0,0,0,0,0,0,0,0,0,0,0,0,0,0,0,0,0,0,0,0,0,0,0,0,0,0,0],"sum_hessian":[7.1974854E2,4.630183E2,2.567302E2,4.60106E2,2.912343E0,1.6800772E2,8.872248E1,4.530858E2,7.0201983E0,1.6161179E2,6.3959413E0,3.955632E2,5.752257E1,2.91158E0,4.1086183E0,1.0837149E2,5.324029E1,3.518618E0,2.8773234E0,2.1046216E0,3.934586E2,4.7823167E0,5.2740253E1,1.02629616E2,5.741873E0,3.941205E1,1.3828243E1,1.9916225E1,3.7354236E2,2.655959E0,2.1263578E0,1.8567951E1,3.4172302E1,3.858163E1,6.404798E1,3.5922005E0,2.1496723E0,7.6636553E0,3.1748392E1,1.1512275E1,2.3159685E0],"tree_param":{"num_deleted":"0","num_feature":"24","num_nodes":"41","size_leaf_vector":"1"}},{"base_weights":[-1.280665E-2,8.0070525E-1,-1.3340887E0,8.07938E-1,-1.7979113E-2,-1.0471821E0,-9.728107E-2,8.1487733E-1,-6.538313E-3,-9.232085E-1,-1.2940515E0,7.771087E-1,9.829297E-1,-1.093476E0,-6.675879E-1,-1.7943949E0,-1.017518E0,9.449307E-1,7.3441565E-1,7.201736E-3,1.0063797E0,-1.4618789E0,-7.889273E-1,-4.9552235E-1,-1.629895E0,-7.1833867E-1,-2.231196E0,-1.1080815E0,1.0232544E-2,1.7943783E-2,4.837575E-2,5.547674E-3,3.7827168E-2,2.1447958E-2,5.148157E-2,-3.359915E-2,-8.77164E-2,1.5404313E-2,-4.706854E-2,1.8919637E-2,-3.0031605E-2,-1.0183304E-1,-3.0822909E-2,-7.096026E-2,5.1658424E-3,-5.2418884E-2,-1.2765928E-1,6.799391E-3,-5.9850432E-2],"categories":[],"categories_nodes":[],"categories_segments":[],"categories_sizes":[],"default_left":[0,0,0,0,0,0,0,0,0,0,0,0,0,0,0,0,0,0,0,0,0,0,0,0,0,0,0,0,0,0,0,0,0,0,0,0,0,0,0,0,0,0,0,0,0,0,0,0,0],"id":10,"left_children":[1,3,5,7,-1,9,-1,11,-1,13,15,17,19,21,23,25,27,29,31,-1,33,35,37,39,41,43,45,47,-1,-1,-1,-1,-1,-1,-1,-1,-1,-1,-1,-1,-1,-1,-1,-1,-1,-1,-1,-1,-1],"loss_changes":[7.636042E2,3.9805298E0,4.5460083E1,2.9550476E0,0E0,4.511078E0,0E0,1.992157E0,0E0,4.823471E0,6.4529724E0,1.8804169E0,1.3482361E0,7.2632294E0,8.064035E0,7.792366E0,4.7477455E0,5.7108307E-1,3.9296875E0,0E0,5.474701E-1,6.392685E0,7.5210686E0,4.534375E0,1.9146652E0,4.3194256E0,2.5572433E0,4.3871117E0,0E0,0E0,0E0,0E0,0E0,0E0,0E0,0E0,0E0,0E0,0E0,0E0,0E0,0E0,0E0,0E0,0E0,0E0,0E0,0E0,0E0],"parents":[2147483647,0,0,1,1,2,2,3,3,5,5,7,7,9,9,10,10,11,11,12,12,13,13,14,14,15,15,16,16,17,17,18,18,20,20,21,21,22,22,23,23,24,24,25,25,26,26,27,27],"right_children":[2,4,6,8,-1,10,-1,12,-1,14,16,18,20,22,24,26,28,30,32,-1,34,36,38,40,42,44,46,48,-1,-1,-1,-1,-1,-1,-1,-1,-1,-1,-1,-1,-1,-1,-1,-1,-1,-1,-1,-1,-1],"split_conditions":[2.5173122E-1,8.598958E-3,5.600721E-1,4.2202532E-1,-1.7979113E-2,1.1345662E3,-9.728107E-2,8.528278E-1,-6.538313E-3,9.489374E-1,2.1496866E-2,-1.2846282E0,9.6610934E-1,-2.9919127E-3,1.2456615E-2,3.5039139E0,2.41457E4,4.4625527E-3,-1.202389E0,7.201736E-3,1.1165676E0,-8.546555E-3,-1.1838193E0,2.041124E-2,-1.5493388E-3,1.2098135E0,-1.1762834E0,1.4727093E-1,1.0232544E-2,1.7943783E-2,4.837575E-2,5.547674E-3,3.7827168E-2,2.1447958E-2,5.148157E-2,-3.359915E-2,-8.77164E-2,1.5404313E-2,-4.706854E-2,1.8919637E-2,-3.0031605E-2,-1.0183304E-1,-3.0822909E-2,-7.096026E-2,5.1658424E-3,-5.2418884E-2,-1.2765928E-1,6.799391E-3,-5.9850432E-2],"split_indices":[17,19,17,15,0,18,0,0,0,21,4,0,21,1,19,20,18,19,0,0,16,1,22,13,1,16,22,5,0,0,0,0,0,0,0,0,0,0,0,0,0,0,0,0,0,0,0,0,0],"split_type":[0,0,0,0,0,0,0,0,0,0,0,0,0,0,0,0,0,0,0,0,0,0,0,0,0,0,0,0,0,0,0,0,0,0,0,0,0,0,0,0,0,0,0,0,0,0,0,0,0],"sum_hessian":[7.084159E2,4.3870172E2,2.6971417E2,4.3628577E2,2.415946E0,1.8543016E2,8.428401E1,4.3321515E2,3.0706108E0,1.26595634E2,5.8834522E1,3.583114E2,7.490375E1,7.4016136E1,5.2579494E1,1.898866E1,3.9845863E1,6.838078E1,2.8993063E2,2.231103E0,7.2672646E1,3.177671E1,4.223943E1,4.58892E1,6.690295E0,6.2460666E0,1.2742594E1,3.7183865E1,2.6619968E0,3.1640933E0,6.521669E1,1.0143571E1,2.7978705E2,3.565959E0,6.910668E1,9.477111E0,2.22996E1,5.0289707E0,3.7210457E1,4.6476016E0,4.1241596E1,4.053624E0,2.636671E0,2.9783251E0,3.2677414E0,3.6372406E0,9.105352E0,2.4453115E0,3.4738552E1],"tree_param":{"num_deleted":"0","num_feature":"24","num_nodes":"49","size_leaf_vector":"1"}},{"base_weights":[3.0183601E-3,8.011363E-1,-1.2941594E0,8.1807286E-1,-6.190678E-2,-9.167724E-1,-1.7216522E0,8.37198E-1,2.0505619E-1,-7.7497387E-1,-1.4075105E0,1.4549173E-2,-1.7578148E0,1.6913219E-1,8.439553E-1,4.312788E-2,-8.81229E-2,-2.3930182E-1,-9.167332E-1,-1.6351365E0,6.6471826E-3,-1.3274997E0,-9.333566E-2,3.8926285E-2,-2.7858732E-2,8.5213363E-1,2.7166605E-1,4.173069E-1,-5.576633E-1,-9.027455E-1,2.3855335E-1,-7.2656775E-1,-1.3843958E0,-6.5960515E-1,-1.9300665E0,-3.3715975E-2,3.266617E-2,-1.6726114E0,-1.4214276E-1,4.0378954E-2,5.071752E-2,-2.7386216E-2,3.5251807E-2,-1.125244E-2,4.1706923E-2,-5.4781735E-2,9.569581E-3,-7.995571E-2,-2.7432E-3,-6.81952E-3,4.7546457E-2,4.2445664E-3,-4.2306397E-2,-5.112351E-2,-1.0978123E-1,-7.2231956E-2,5.644789E-3,-4.831792E-2,-1.0958326E-1,-9.881581E-2,-2.744232E-2,3.2575365E-2,-3.0369474E-2],"categories":[],"categories_nodes":[],"categories_segments":[],"categories_sizes":[],"default_left":[0,0,0,0,0,0,0,0,0,0,0,0,0,0,0,0,0,0,0,0,0,0,0,0,0,0,0,0,0,0,0,0,0,0,0,0,0,0,0,0,0,0,0,0,0,0,0,0,0,0,0,0,0,0,0,0,0,0,0,0,0,0,0],"id":11,"left_children":[1,3,5,7,-1,9,11,13,15,17,19,-1,21,23,25,-1,27,29,31,33,35,37,-1,-1,-1,39,41,43,45,47,49,51,53,55,57,-1,-1,59,61,-1,-1,-1,-1,-1,-1,-1,-1,-1,-1,-1,-1,-1,-1,-1,-1,-1,-1,-1,-1,-1,-1,-1,-1],"loss_changes":[7.235746E2,1.5956909E1,4.137091E1,4.866394E0,0E0,8.89724E0,9.51355E0,1.7369995E0,2.8374548E0,8.405762E0,9.974205E0,0E0,3.2221985E0,2.8327613E0,1.6967163E0,0E0,2.7993078E0,8.179695E0,6.9502716E0,6.3986435E0,2.7688775E0,1.122826E1,0E0,0E0,0E0,2.1130066E0,2.9686015E0,1.7354429E0,2.641429E0,6.2460985E0,4.2415524E0,6.446369E0,5.0238495E0,4.838245E0,2.9128876E0,0E0,0E0,6.2925453E0,3.132988E0,0E0,0E0,0E0,0E0,0E0,0E0,0E0,0E0,0E0,0E0,0E0,0E0,0E0,0E0,0E0,0E0,0E0,0E0,0E0,0E0,0E0,0E0,0E0,0E0],"parents":[2147483647,0,0,1,1,2,2,3,3,5,5,6,6,7,7,8,8,9,9,10,10,12,12,13,13,14,14,16,16,17,17,18,18,19,19,20,20,21,21,25,25,26,26,27,27,28,28,29,29,30,30,31,31,32,32,33,33,34,34,37,37,38,38],"right_children":[2,4,6,8,-1,10,12,14,16,18,20,-1,22,24,26,-1,28,30,32,34,36,38,-1,-1,-1,40,42,44,46,48,50,52,54,56,58,-1,-1,60,62,-1,-1,-1,-1,-1,-1,-1,-1,-1,-1,-1,-1,-1,-1,-1,-1,-1,-1,-1,-1,-1,-1,-1,-1],"split_conditions":[3.0915898E-1,1.2456615E-2,4.2314935E-1,4.1517943E-1,-6.190678E-2,1.761089E3,3.4336128E0,4.385202E-1,2.3801053E-1,2.2471745E-2,6.3553375E-1,1.4549173E-2,1.5136541E-1,1.3689607E-1,1.0106158E0,4.312788E-2,-8.7745786E-2,3.958088E-1,6.179924E-3,-1.1535997E-1,5.5653145E3,6.542133E-1,-9.333566E-2,3.8926285E-2,-2.7858732E-2,9.965285E-1,6.047506E-3,3.860422E2,2.3234826E-2,6.1348265E-1,3.5331666E0,9.217436E-1,6.032754E-1,2.9333108E3,3.4662735E0,-3.3715975E-2,3.266617E-2,3.904107E-1,1.029965E0,4.0378954E-2,5.071752E-2,-2.7386216E-2,3.5251807E-2,-1.125244E-2,4.1706923E-2,-5.4781735E-2,9.569581E-3,-7.995571E-2,-2.7432E-3,-6.81952E-3,4.7546457E-2,4.2445664E-3,-4.2306397E-2,-5.112351E-2,-1.0978123E-1,-7.2231956E-2,5.644789E-3,-4.831792E-2,-1.0958326E-1,-9.881581E-2,-2.744232E-2,3.2575365E-2,-3.0369474E-2],"split_indices":[9,19,7,15,0,18,20,14,7,13,14,0,5,3,21,0,0,15,19,23,18,14,0,0,0,21,19,18,13,14,20,21,14,18,20,0,0,9,0,0,0,0,0,0,0,0,0,0,0,0,0,0,0,0,0,0,0,0,0,0,0,0,0],"split_type":[0,0,0,0,0,0,0,0,0,0,0,0,0,0,0,0,0,0,0,0,0,0,0,0,0,0,0,0,0,0,0,0,0,0,0,0,0,0,0,0,0,0,0,0,0,0,0,0,0,0,0,0,0,0,0,0,0,0,0,0,0,0,0],"sum_hessian":[6.969013E2,4.3168173E2,2.6521957E2,4.2872E2,2.9617558E0,1.4253522E2,1.2268435E2,4.153946E2,1.3325392E1,1.1258347E2,2.995174E1,2.0410836E0,1.20643265E2,4.420133E0,4.1097446E2,3.510483E0,9.814909E0,2.4121733E1,8.846174E1,2.5664469E1,4.287272E0,2.7028746E1,9.3614525E1,2.364418E0,2.055715E0,4.0470203E2,6.272434E0,4.780382E0,5.034527E0,9.727342E0,1.439439E1,6.470457E1,2.3757174E1,6.709181E0,1.8955288E1,2.0674484E0,2.2198234E0,2.0615555E1,6.4131904E0,3.2218808E2,8.251396E1,2.0785549E0,4.1938796E0,2.062333E0,2.718049E0,2.6608295E0,2.3736975E0,4.854395E0,4.872947E0,9.960458E0,4.4339323E0,8.346509E0,5.6358055E1,1.7990984E1,5.7661896E0,2.8960574E0,3.8131235E0,5.04905E0,1.3906238E1,1.56321945E1,4.98336E0,2.2221482E0,4.1910424E0],"tree_param":{"num_deleted":"0","num_feature":"24","num_nodes":"63","size_leaf_vector":"1"}},{"base_weights":[-1.2571837E-2,7.5393814E-1,-1.2052563E0,7.684858E-1,-4.7981914E-2,-9.2375743E-1,-1.7473738E0,7.123652E-1,8.691075E-1,-8.696754E-1,-1.4890103E0,-8.9535695E-1,-1.7912563E0,7.3530567E-1,2.3243892E-1,9.326407E-1,6.476487E-1,1.2815157E-2,-8.951037E-1,-1.7375227E0,-6.589074E-4,-6.947252E-2,-1.1861424E-2,-1.8118917E0,-3.5300966E-2,1.5603875E-1,7.5686765E-1,5.00296E-1,-4.348324E-2,9.704301E-1,6.355165E-1,-1.0356185E-2,7.522794E-1,2.6465511E-2,-2.0953013E-2,1.3982472E-2,-9.266872E-1,-1.1553175E0,-1.16041E-1,-3.7836447E-2,-9.151467E-2,2.9690398E-2,-4.4018313E-2,4.31093E-2,3.319486E-2,3.391031E-2,-1.1319279E-2,4.9362786E-2,2.0624414E-2,3.943284E-2,-1.1945932E-2,-9.823745E-3,4.2719793E-2,-6.6530466E-2,-4.146782E-2,-1.2604803E-2,-7.877958E-2],"categories":[],"categories_nodes":[],"categories_segments":[],"categories_sizes":[],"default_left":[0,0,0,0,0,0,0,0,0,0,0,0,0,0,0,0,0,0,0,0,0,0,0,0,0,0,0,0,0,0,0,0,0,0,0,0,0,0,0,0,0,0,0,0,0,0,0,0,0,0,0,0,0,0,0,0,0],"id":12,"left_children":[1,3,5,7,-1,9,11,13,15,17,19,21,23,25,27,29,31,33,35,37,-1,-1,-1,39,-1,41,43,45,-1,47,49,-1,51,-1,-1,-1,53,55,-1,-1,-1,-1,-1,-1,-1,-1,-1,-1,-1,-1,-1,-1,-1,-1,-1,-1,-1],"loss_changes":[6.336382E2,1.1255936E1,3.9766937E1,1.7466736E0,0E0,4.226166E0,1.819397E0,2.8511658E0,1.4425659E0,3.7643738E0,5.246311E0,1.7788439E0,6.4834595E-1,3.1481628E0,4.5633564E0,6.268692E-1,3.348589E0,1.4865249E0,6.290909E0,1.491909E0,0E0,0E0,0E0,2.4264526E-1,0E0,5.3522167E0,1.8937073E0,1.6900663E0,0E0,4.97406E-1,2.2499533E0,0E0,3.2702522E0,0E0,0E0,0E0,5.129486E0,2.6932507E0,0E0,0E0,0E0,0E0,0E0,0E0,0E0,0E0,0E0,0E0,0E0,0E0,0E0,0E0,0E0,0E0,0E0,0E0,0E0],"parents":[2147483647,0,0,1,1,2,2,3,3,5,5,6,6,7,7,8,8,9,9,10,10,11,11,12,12,13,13,14,14,15,15,16,16,17,17,18,18,19,19,23,23,25,25,26,26,27,27,29,29,30,30,32,32,36,36,37,37],"right_children":[2,4,6,8,-1,10,12,14,16,18,20,22,24,26,28,30,32,34,36,38,-1,-1,-1,40,-1,42,44,46,-1,48,50,-1,52,-1,-1,-1,54,56,-1,-1,-1,-1,-1,-1,-1,-1,-1,-1,-1,-1,-1,-1,-1,-1,-1,-1,-1],"split_conditions":[3.0915898E-1,1.2456615E-2,4.395056E-1,1.148573E-3,-4.7981914E-2,7.229259E-3,7.912685E-1,6.3290657E-4,4.023216E-1,-1.1281367E-2,4.696245E-2,2.6144605E-2,-2.3127457E-1,2.3263456E-1,7.178599E-3,2.8162676E-1,1.4175835E-1,1.1883451E0,3.6125463E-1,2.391673E-1,-6.589074E-4,-6.947252E-2,-1.1861424E-2,-8.851244E-1,-3.5300966E-2,9.154386E2,-3.9093574E-3,1.4344929E-1,-4.348324E-2,9.826397E-3,2.5684103E-2,-1.0356185E-2,1.915545E-2,2.6465511E-2,-2.0953013E-2,1.3982472E-2,-6.2912223E-3,1.4366493E-1,-1.16041E-1,-3.7836447E-2,-9.151467E-2,2.9690398E-2,-4.4018313E-2,4.31093E-2,3.319486E-2,3.391031E-2,-1.1319279E-2,4.9362786E-2,2.0624414E-2,3.943284E-2,-1.1945932E-2,-9.823745E-3,4.2719793E-2,-6.6530466E-2,-4.146782E-2,-1.2604803E-2,-7.877958E-2],"split_indices":[9,19,7,1,0,19,21,1,15,1,12,12,8,7,19,9,3,16,7,6,0,0,0,22,0,18,1,3,0,1,13,0,13,0,0,0,1,5,0,0,0,0,0,0,0,0,0,0,0,0,0,0,0,0,0,0,0],"split_type":[0,0,0,0,0,0,0,0,0,0,0,0,0,0,0,0,0,0,0,0,0,0,0,0,0,0,0,0,0,0,0,0,0,0,0,0,0,0,0,0,0,0,0,0,0,0,0,0,0,0,0,0,0,0,0,0,0],"sum_hessian":[6.9110925E2,4.209455E2,2.701638E2,4.179488E2,2.9967024E0,1.7960591E2,9.055787E1,2.734917E2,1.4445706E2,1.6623912E2,1.33668E1,5.484042E0,8.507382E1,2.6050735E2,1.2984346E1,1.0975784E2,3.4699223E1,4.6697903E0,1.6156932E2,1.1288615E1,2.0781848E0,2.4976807E0,2.9863613E0,8.282927E1,2.2445512E0,9.644441E0,2.5086293E2,1.08849125E1,2.0994337E0,9.536311E1,1.4394734E1,3.6774035E0,3.102182E1,2.0238216E0,2.645969E0,4.024461E0,1.5754486E2,7.141324E0,4.147291E0,2.141775E0,8.06875E1,7.0806723E0,2.5637689E0,1.137413E2,1.3712163E2,8.797715E0,2.087197E0,9.182453E1,3.5385752E0,1.2332953E1,2.0617807E0,2.9246986E0,2.8097122E1,2.8130896E1,1.2941397E2,2.7757435E0,4.365581E0],"tree_param":{"num_deleted":"0","num_feature":"24","num_nodes":"57","size_leaf_vector":"1"}},{"base_weights":[3.631283E-2,7.9355097E-1,-1.057672E0,8.0380136E-1,8.2905106E-2,-7.6605535E-1,-1.6835184E0,8.1712985E-1,2.3239996E-1,3.9357282E-2,-2.3605643E-2,-6.5324074E-1,-1.0661831E0,-3.5960823E-2,-8.523018E-2,8.2539314E-1,2.8184536E-1,6.673576E-1,-2.7713312E-2,-4.8404968E-1,-9.962023E-1,-1.2035999E0,-1.0345208E-1,6.4589906E-1,8.439938E-1,3.5519045E-2,-2.8162157E-2,3.870583E-3,4.4265863E-2,-6.7837524E-1,-1.9367114E-1,-7.424551E-1,-1.6289214E0,8.196873E-3,-1.2890787E0,-3.0715182E-2,2.6441583E-2,1.3767277E-2,4.141497E-2,4.3508273E-2,3.2617833E-2,-2.6744587E-2,-7.5755484E-2,2.2785394E-2,-2.3651032E-2,-1.1776751E-2,-5.503712E-2,-1.4893708E-2,-9.350607E-2,-9.1530524E-2,-5.1922794E-2],"categories":[],"categories_nodes":[],"categories_segments":[],"categories_sizes":[],"default_left":[0,0,0,0,0,0,0,0,0,0,0,0,0,0,0,0,0,0,0,0,0,0,0,0,0,0,0,0,0,0,0,0,0,0,0,0,0,0,0,0,0,0,0,0,0,0,0,0,0,0,0],"id":13,"left_children":[1,3,5,7,9,11,13,15,17,-1,-1,19,21,-1,-1,23,25,27,-1,29,31,33,35,37,39,-1,-1,-1,-1,41,43,45,47,-1,49,-1,-1,-1,-1,-1,-1,-1,-1,-1,-1,-1,-1,-1,-1,-1,-1],"loss_changes":[5.6502637E2,2.8692474E0,4.9631805E1,2.8351135E0,3.0474176E0,5.8098984E0,5.6018066E-1,1.4824219E0,3.9459512E0,0E0,0E0,7.771744E0,6.6114464E0,0E0,0E0,7.279968E-1,3.0848014E0,8.551891E-1,0E0,5.3533936E0,6.183342E0,5.40876E0,2.7324786E0,2.479992E0,1.148941E0,0E0,0E0,0E0,0E0,6.132654E0,7.538539E0,6.0436325E0,3.405632E0,0E0,3.793747E0,0E0,0E0,0E0,0E0,0E0,0E0,0E0,0E0,0E0,0E0,0E0,0E0,0E0,0E0,0E0,0E0],"parents":[2147483647,0,0,1,1,2,2,3,3,4,4,5,5,6,6,7,7,8,8,11,11,12,12,15,15,16,16,17,17,19,19,20,20,21,21,22,22,23,23,24,24,29,29,30,30,31,31,32,32,34,34],"right_children":[2,4,6,8,10,12,14,16,18,-1,-1,20,22,-1,-1,24,26,28,-1,30,32,34,36,38,40,-1,-1,-1,-1,42,44,46,48,-1,50,-1,-1,-1,-1,-1,-1,-1,-1,-1,-1,-1,-1,-1,-1,-1,-1],"split_conditions":[2.524915E-1,2.1582516E-2,4.395056E-1,3.5039139E0,2.3769343E-1,4.1770074E-1,-8.851244E-1,1.0106158E0,2.4036309E-1,3.9357282E-2,-2.3605643E-2,1.0886682E3,2.1145966E0,-3.5960823E-2,-8.523018E-2,1.1329428E0,2.161949E-2,2.3603942E-1,-2.7713312E-2,4.3898218E2,9.567212E-1,3.4301515E0,-2.3470224E-1,3.3133407E0,-1.3817334E0,3.5519045E-2,-2.8162157E-2,3.870583E-3,4.4265863E-2,3.9557672E2,3.9173415E-1,3.5564601E0,1.4366493E-1,8.196873E-3,2.2411633E-2,-3.0715182E-2,2.6441583E-2,1.3767277E-2,4.141497E-2,4.3508273E-2,3.2617833E-2,-2.6744587E-2,-7.5755484E-2,2.2785394E-2,-2.3651032E-2,-1.1776751E-2,-5.503712E-2,-1.4893708E-2,-9.350607E-2,-9.1530524E-2,-5.1922794E-2],"split_indices":[7,4,7,20,6,17,22,21,6,0,0,18,0,0,0,16,13,6,0,18,21,20,8,20,22,0,0,0,0,18,15,20,5,0,13,0,0,0,0,0,0,0,0,0,0,0,0,0,0,0,0],"split_type":[0,0,0,0,0,0,0,0,0,0,0,0,0,0,0,0,0,0,0,0,0,0,0,0,0,0,0,0,0,0,0,0,0,0,0,0,0,0,0,0,0,0,0,0,0,0,0,0,0,0,0],"sum_hessian":[6.800506E2,4.020399E2,2.780107E2,3.961941E2,5.845812E0,1.9116183E2,8.684888E1,3.8674286E2,9.4512205E0,2.3922038E0,3.453608E0,1.4124573E2,4.9916115E1,2.6096594E0,8.423922E1,3.8032968E2,6.413173E0,6.1837893E0,3.2674317E0,9.619958E1,4.504615E1,4.3462273E1,6.453844E0,3.9066544E1,3.4126315E2,4.3611035E0,2.0520694E0,2.0338855E0,4.149904E0,5.6831158E1,3.9368416E1,3.3703182E1,1.1342969E1,2.5028234E0,4.095945E1,3.585438E0,2.8684063E0,1.3714516E1,2.5352028E1,2.9714206E2,4.412109E1,4.9911564E1,6.9195924E0,1.1651617E1,2.77168E1,1.4643011E1,1.906017E1,2.083005E0,9.259964E0,1.0964258E1,2.999519E1],"tree_param":{"num_deleted":"0","num_feature":"24","num_nodes":"51","size_leaf_vector":"1"}},{"base_weights":[4.5673014E-3,7.4897474E-1,-1.0554413E0,7.6356125E-1,-3.7866224E-2,-8.054233E-1,-1.59449E0,5.3098094E-1,7.893615E-1,-2.2965175E-1,-8.50696E-1,-1.0182775E0,-8.16707E-2,7.651588E-1,1.0562905E-1,3.0801927E-3,7.97307E-1,1.5675727E-1,-5.657695E-2,-8.776669E-1,5.8513477E-2,-6.915244E-2,-2.5206035E-2,8.5818297E-1,-1.346644E-2,-6.843728E-1,4.3028373E-1,8.0350673E-1,3.7187826E-6,-3.523377E-1,5.915666E-1,-1.3569825E0,-8.252719E-1,-3.283919E-2,4.8323497E-2,4.819049E-3,4.6137743E-2,4.4889967E-3,-6.2135406E-2,4.6042927E-2,-4.7250427E-3,4.0623758E-2,1.4390443E-2,1.4388819E-2,-3.955861E-2,-3.0921667E-3,4.438136E-2,-3.662004E-2,-9.09289E-2,-1.183848E-2,-4.350351E-2],"categories":[],"categories_nodes":[],"categories_segments":[],"categories_sizes":[],"default_left":[0,0,0,0,0,0,0,0,0,0,0,0,0,0,0,0,0,0,0,0,0,0,0,0,0,0,0,0,0,0,0,0,0,0,0,0,0,0,0,0,0,0,0,0,0,0,0,0,0,0,0],"id":14,"left_children":[1,3,5,7,-1,9,11,13,15,17,19,21,-1,23,25,-1,27,29,-1,31,33,-1,-1,35,-1,37,39,41,-1,43,45,47,49,-1,-1,-1,-1,-1,-1,-1,-1,-1,-1,-1,-1,-1,-1,-1,-1,-1,-1],"loss_changes":[5.337436E2,9.308884E0,3.6324524E1,1.9453583E0,0E0,4.8265533E0,2.9693604E-1,4.1427307E0,1.9900208E0,5.5491095E0,4.422241E0,8.379965E-1,0E0,2.8473167E0,4.453432E0,0E0,1.7236633E0,2.7914867E0,0E0,3.2290497E0,4.5786376E0,0E0,0E0,1.1497898E0,0E0,2.3198657E0,3.2038362E0,1.3667145E0,0E0,1.9136889E0,1.3446162E0,3.1402779E0,3.9768372E0,0E0,0E0,0E0,0E0,0E0,0E0,0E0,0E0,0E0,0E0,0E0,0E0,0E0,0E0,0E0,0E0,0E0,0E0],"parents":[2147483647,0,0,1,1,2,2,3,3,5,5,6,6,7,7,8,8,9,9,10,10,11,11,13,13,14,14,16,16,17,17,19,19,20,20,23,23,25,25,26,26,27,27,29,29,30,30,31,31,32,32],"right_children":[2,4,6,8,-1,10,12,14,16,18,20,22,-1,24,26,-1,28,30,-1,32,34,-1,-1,36,-1,38,40,42,-1,44,46,48,50,-1,-1,-1,-1,-1,-1,-1,-1,-1,-1,-1,-1,-1,-1,-1,-1,-1,-1],"split_conditions":[3.0915898E-1,1.2456615E-2,4.395056E-1,-2.4203542E-1,-3.7866224E-2,1.9810714E-2,7.912685E-1,6.13947E-3,4.385202E-1,4.2314935E-1,4.3266258E-1,4.7671992E-1,-8.16707E-2,9.9099E-1,2.5782943E-1,3.0801927E-3,3.5296137E0,3.49803E-1,-5.657695E-2,3.818196E-1,3.8717905E-1,-6.915244E-2,-2.5206035E-2,2.0611519E-2,-1.346644E-2,1.1858476E0,2.6985103E-1,1.0106158E0,3.7187826E-6,1.8763341E-2,5.1597664E-3,9.369664E-1,3.849905E-1,-3.283919E-2,4.8323497E-2,4.819049E-3,4.6137743E-2,4.4889967E-3,-6.2135406E-2,4.6042927E-2,-4.7250427E-3,4.0623758E-2,1.4390443E-2,1.4388819E-2,-3.955861E-2,-3.0921667E-3,4.438136E-2,-3.662004E-2,-9.09289E-2,-1.183848E-2,-4.350351E-2],"split_indices":[9,19,7,8,0,13,21,19,14,7,6,14,0,21,10,0,20,9,0,15,9,0,0,13,0,16,10,21,0,13,19,21,15,0,0,0,0,0,0,0,0,0,0,0,0,0,0,0,0,0,0],"split_type":[0,0,0,0,0,0,0,0,0,0,0,0,0,0,0,0,0,0,0,0,0,0,0,0,0,0,0,0,0,0,0,0,0,0,0,0,0,0,0,0,0,0,0,0,0,0,0,0,0,0,0],"sum_hessian":[6.744123E2,3.963575E2,2.7805478E2,3.9304446E2,3.3130326E0,1.9165625E2,8.639853E1,4.1401768E1,3.516427E2,1.4413984E1,1.7724226E2,7.185675E0,7.921285E1,2.6186102E1,1.5215665E1,3.8922386E0,3.4775046E2,1.0669066E1,3.7449179E0,1.7216971E2,5.072558E0,3.2149076E0,3.9707675E0,2.418201E1,2.0040913E0,4.1089954E0,1.1106669E1,3.4505923E2,2.6912482E0,5.002076E0,5.6669903E0,1.451211E1,1.576576E2,2.9920363E0,2.0805216E0,2.0843234E0,2.2097689E1,2.0733788E0,2.0356166E0,5.350357E0,5.756313E0,3.3859528E2,6.463935E0,2.1744704E0,2.8276057E0,2.0137432E0,3.6532469E0,7.266513E0,7.245597E0,1.1596963E1,1.4606062E2],"tree_param":{"num_deleted":"0","num_feature":"24","num_nodes":"51","size_leaf_vector":"1"}},{"base_weights":[1.8628504E-2,7.231431E-1,-9.656166E-1,7.356485E-1,-2.9530615E-2,-7.1851856E-1,-1.5078508E0,7.482242E-1,-3.266015E-2,4.0837556E-2,-7.500735E-1,-8.671375E-1,-1.5471846E0,7.602355E-1,2.8786704E-1,3.0354649E-2,-3.5582103E-2,3.9025944E-2,-5.4363745E-1,-9.656426E-1,-6.233505E-1,-6.706465E-2,-7.4383183E-3,-7.8387015E-2,-2.874801E-2,5.098319E-1,7.82772E-1,6.8307257E-1,-1.906058E-2,1.3265732E-2,-5.866332E-2,2.3818834E-2,-1.0312923E0,-6.695082E-1,4.318077E-1,3.9375678E-2,-7.7414797E-3,3.952016E-2,1.1900375E-2,3.0953137E-3,4.52615E-2,-3.5701226E-2,-6.879684E-2,-2.667119E-2,-5.5112608E-2,4.7652487E-2,-7.693719E-3],"categories":[],"categories_nodes":[],"categories_segments":[],"categories_sizes":[],"default_left":[0,0,0,0,0,0,0,0,0,0,0,0,0,0,0,0,0,0,0,0,0,0,0,0,0,0,0,0,0,0,0,0,0,0,0,0,0,0,0,0,0,0,0,0,0,0,0],"id":15,"left_children":[1,3,5,7,-1,9,11,13,15,17,19,21,23,25,27,-1,-1,-1,29,31,33,-1,-1,-1,-1,35,37,39,-1,-1,-1,-1,41,43,45,-1,-1,-1,-1,-1,-1,-1,-1,-1,-1,-1,-1],"loss_changes":[4.5347745E2,6.696167E0,3.5472122E1,3.67659E0,0E0,4.567337E0,7.8793335E-1,1.8377991E0,3.4924443E0,4.1000395E0,4.365265E0,2.2401662E0,6.6415405E-1,1.6430664E0,3.1867938E0,0E0,0E0,0E0,3.0305622E0,6.691719E0,6.003765E0,0E0,0E0,0E0,0E0,6.166004E0,1.1842651E0,9.535003E-1,0E0,0E0,0E0,0E0,5.901932E0,6.055359E0,1.8335183E0,0E0,0E0,0E0,0E0,0E0,0E0,0E0,0E0,0E0,0E0,0E0,0E0],"parents":[2147483647,0,0,1,1,2,2,3,3,5,5,6,6,7,7,8,8,9,9,10,10,11,11,12,12,13,13,14,14,18,18,19,19,20,20,25,25,26,26,27,27,32,32,33,33,34,34],"right_children":[2,4,6,8,-1,10,12,14,16,18,20,22,24,26,28,-1,-1,-1,30,32,34,-1,-1,-1,-1,36,38,40,-1,-1,-1,-1,42,44,46,-1,-1,-1,-1,-1,-1,-1,-1,-1,-1,-1,-1],"split_conditions":[3.0915898E-1,1.2456615E-2,4.3882427E-1,1.469099E-1,-2.9530615E-2,-1.06731085E-2,7.912685E-1,3.5039139E0,2.692252E-1,9.3821836E-1,1.4713182E-1,4.7671992E-1,-2.308092E-1,-2.4234709E-1,2.4078214E-1,3.0354649E-2,-3.5582103E-2,3.9025944E-2,-3.3570106E0,-8.546555E-3,1.6779851E0,-6.706465E-2,-7.4383183E-3,-7.8387015E-2,-2.874801E-2,6.2186853E-3,9.826397E-3,2.3739766E-1,-1.906058E-2,1.3265732E-2,-5.866332E-2,2.3818834E-2,3.5494235E0,3.807378E-1,1.4851557E-1,3.9375678E-2,-7.7414797E-3,3.952016E-2,1.1900375E-2,3.0953137E-3,4.52615E-2,-3.5701226E-2,-6.879684E-2,-2.667119E-2,-5.5112608E-2,4.7652487E-2,-7.693719E-3],"split_indices":[9,19,17,3,0,1,21,20,9,21,5,14,8,8,6,0,0,0,0,1,16,0,0,0,0,19,1,17,0,0,0,0,20,9,3,0,0,0,0,0,0,0,0,0,0,0,0],"split_type":[0,0,0,0,0,0,0,0,0,0,0,0,0,0,0,0,0,0,0,0,0,0,0,0,0,0,0,0,0,0,0,0,0,0,0,0,0,0,0,0,0,0,0,0,0,0,0],"sum_hessian":[6.5196985E2,3.8013654E2,2.7183334E2,3.769881E2,3.148435E0,1.8833398E2,8.349937E1,3.7094263E2,6.045458E0,7.5022106E0,1.8083177E2,6.162552E0,7.7336815E1,3.6087555E2,1.0067087E1,3.1671603E0,2.8782976E0,3.1633809E0,4.33883E0,6.4496445E1,1.1633533E2,3.1899312E0,2.972621E0,7.5135704E1,2.2011106E0,3.1747793E1,3.2912775E2,6.3156805E0,3.7514064E0,2.1522367E0,2.186593E0,2.5359986E0,6.1960445E1,1.1180972E2,4.5256042E0,2.2262257E1,9.485538E0,3.2413626E2,4.99149E0,2.000583E0,4.315098E0,3.386098E1,2.8099464E1,8.675929E1,2.5050428E1,2.0626507E0,2.4629538E0],"tree_param":{"num_deleted":"0","num_feature":"24","num_nodes":"47","size_leaf_vector":"1"}},{"base_weights":[1.180528E-2,7.2930026E-1,-8.8906115E-1,7.3722994E-1,-9.262505E-3,-6.523005E-1,-1.489639E0,7.504454E-1,2.1003251E-1,-5.9016997E-1,-1.2416192E0,-2.6512256E-2,-7.546671E-2,7.0793605E-1,9.1771203E-1,6.5348405E-1,-2.8387953E-2,-7.815312E-1,-4.5920578E-1,7.72141E-4,-1.4005423E0,2.523751E-1,7.274277E-1,1.6404556E-2,9.4083065E-1,4.338767E-3,4.373499E-2,-6.023131E-1,-1.4571427E0,-3.853809E-1,-1.0821601E0,-9.002238E-1,-1.7230027E0,-3.351394E-2,2.9513631E-2,4.4345222E-2,3.2113176E-2,4.8181634E-2,2.5441578E-2,-3.936498E-2,-1.0238228E-3,-4.4920048E-4,-8.3901525E-2,-2.169289E-2,2.2851136E-2,-6.961348E-2,-1.1023894E-2,-6.3121E-2,5.669177E-3,-1.0011045E-1,-3.3459738E-2],"categories":[],"categories_nodes":[],"categories_segments":[],"categories_sizes":[],"default_left":[0,0,0,0,0,0,0,0,0,0,0,0,0,0,0,0,0,0,0,0,0,0,0,0,0,0,0,0,0,0,0,0,0,0,0,0,0,0,0,0,0,0,0,0,0,0,0,0,0,0,0],"id":16,"left_children":[1,3,5,7,-1,9,11,13,15,17,19,-1,-1,21,23,25,-1,27,29,-1,31,33,35,-1,37,-1,-1,39,41,43,45,47,49,-1,-1,-1,-1,-1,-1,-1,-1,-1,-1,-1,-1,-1,-1,-1,-1,-1,-1],"loss_changes":[4.2208984E2,2.7726898E0,4.0196045E1,2.3545685E0,0E0,6.9356537E0,7.3179626E-1,1.8486786E0,3.8912883E0,4.4370575E0,3.8310661E0,0E0,0E0,2.3430176E0,6.158829E-1,7.9727817E-1,0E0,8.364506E0,4.919462E0,0E0,1.1817741E0,4.512801E0,3.1291199E0,0E0,1.4731598E-1,0E0,0E0,6.6604614E0,4.8785286E0,4.498275E0,2.8304863E0,3.3492007E0,1.3689175E0,0E0,0E0,0E0,0E0,0E0,0E0,0E0,0E0,0E0,0E0,0E0,0E0,0E0,0E0,0E0,0E0,0E0,0E0],"parents":[2147483647,0,0,1,1,2,2,3,3,5,5,6,6,7,7,8,8,9,9,10,10,13,13,14,14,15,15,17,17,18,18,20,20,21,21,22,22,24,24,27,27,28,28,29,29,30,30,31,31,32,32],"right_children":[2,4,6,8,-1,10,12,14,16,18,20,-1,-1,22,24,26,-1,28,30,-1,32,34,36,-1,38,-1,-1,40,42,44,46,48,50,-1,-1,-1,-1,-1,-1,-1,-1,-1,-1,-1,-1,-1,-1,-1,-1,-1,-1],"split_conditions":[2.524915E-1,4.2202532E-1,5.610689E-1,3.5039139E0,-9.262505E-3,7.253347E-3,1.6986901E-2,7.872146E-1,2.5583833E-2,-9.983888E-1,1.3986976E-1,-2.6512256E-2,-7.546671E-2,4.478668E-1,4.5077875E-3,1.941523E-2,-2.8387953E-2,2.4098371E-1,4.841116E3,7.72141E-4,2.391673E-1,2.3263456E-1,4.6167308E-1,1.6404556E-2,2.4603534E-1,4.338767E-3,4.373499E-2,4.731129E-1,2.3289753E-2,6.9269133E-3,1.4921615E-1,2.3911059E-2,4.696245E-2,-3.351394E-2,2.9513631E-2,4.4345222E-2,3.2113176E-2,4.8181634E-2,2.5441578E-2,-3.936498E-2,-1.0238228E-3,-4.4920048E-4,-8.3901525E-2,-2.169289E-2,2.2851136E-2,-6.961348E-2,-1.1023894E-2,-6.3121E-2,5.669177E-3,-1.0011045E-1,-3.3459738E-2],"split_indices":[7,15,7,20,0,19,13,0,13,0,5,0,0,14,19,4,0,6,18,0,6,7,14,0,6,0,0,14,13,19,5,12,12,0,0,0,0,0,0,0,0,0,0,0,0,0,0,0,0,0,0],"split_type":[0,0,0,0,0,0,0,0,0,0,0,0,0,0,0,0,0,0,0,0,0,0,0,0,0,0,0,0,0,0,0,0,0,0,0,0,0,0,0,0,0,0,0,0,0,0,0,0,0,0,0],"sum_hessian":[6.510156E2,3.624961E2,2.8851953E2,3.595723E2,2.9238095E0,2.0843579E2,8.008375E1,3.5036603E2,9.20625E0,1.9036726E2,1.8068516E1,2.1726289E0,7.791112E1,2.835393E2,6.682673E1,5.9651113E0,3.2411387E0,7.5329865E1,1.1503741E2,2.1292477E0,1.5939269E1,1.2206062E1,2.7133325E2,3.0945492E0,6.373218E1,2.0656388E0,3.8994725E0,6.103163E1,1.4298233E1,1.0429614E2,1.0741264E1,7.7329016E0,8.206367E0,3.008221E0,9.197842E0,9.117917E1,1.8015407E2,5.936796E1,4.364219E0,4.6040573E1,1.49910555E1,2.0300078E0,1.2268225E1,9.90795E1,5.2166467E0,7.445836E0,3.295428E0,5.5162773E0,2.2166247E0,5.7760324E0,2.4303346E0],"tree_param":{"num_deleted":"0","num_feature":"24","num_nodes":"51","size_leaf_vector":"1"}},{"base_weights":[3.3875422E-3,7.1866596E-1,-9.0789026E-1,7.2756374E-1,-2.6619697E-2,-6.7784345E-1,-1.4530509E0,7.3581755E-1,-1.0232767E-2,-3.164984E-1,-7.521166E-1,-2.5694007E-2,-1.4721944E0,6.686087E-1,8.597527E-1,-1.2818063E0,-5.1018283E-2,-1.21565E0,-5.941897E-1,-2.8951803E-2,-7.4444704E-2,6.972081E-1,1.1102587E-1,8.885575E-1,4.1632858E-1,1.2790691E-3,-8.789196E-2,-2.665752E-1,4.6565928E-2,-4.9448204E-1,-1.4467124E0,-7.646779E-1,-2.0111352E-1,4.8604826E-3,3.6296707E-2,3.1135885E-2,-4.5970775E-2,8.806533E-3,4.5126606E-2,-7.4150534E-3,4.3652263E-2,2.1590054E-2,-3.0770048E-2,-9.376022E-2,1.0509591E-2,-1.4212861E-3,-7.918902E-2,-4.212276E-2,6.457474E-3,6.7110793E-3,-4.972683E-2],"categories":[],"categories_nodes":[],"categories_segments":[],"categories_sizes":[],"default_left":[0,0,0,0,0,0,0,0,0,0,0,0,0,0,0,0,0,0,0,0,0,0,0,0,0,0,0,0,0,0,0,0,0,0,0,0,0,0,0,0,0,0,0,0,0,0,0,0,0,0,0],"id":17,"left_children":[1,3,5,7,-1,9,11,13,-1,15,17,-1,19,21,23,25,27,29,31,-1,-1,33,35,37,39,-1,-1,41,-1,43,45,47,49,-1,-1,-1,-1,-1,-1,-1,-1,-1,-1,-1,-1,-1,-1,-1,-1,-1,-1],"loss_changes":[4.1082962E2,4.3180847E0,3.3775482E1,2.8516083E0,0E0,5.043518E0,7.065735E-1,2.325348E0,0E0,8.975738E0,1.1174278E1,0E0,3.1939697E-1,3.5943222E0,1.149086E0,4.755204E0,6.32788E0,6.006996E0,8.10046E0,0E0,0E0,3.701088E0,7.1229215E0,9.440613E-1,2.4853854E0,0E0,0E0,6.1909275E0,0E0,1.1396763E1,5.7935295E0,6.0563507E0,1.0408316E1,0E0,0E0,0E0,0E0,0E0,0E0,0E0,0E0,0E0,0E0,0E0,0E0,0E0,0E0,0E0,0E0,0E0,0E0],"parents":[2147483647,0,0,1,1,2,2,3,3,5,5,6,6,7,7,9,9,10,10,12,12,13,13,14,14,15,15,16,16,17,17,18,18,21,21,22,22,23,23,24,24,27,27,29,29,30,30,31,31,32,32],"right_children":[2,4,6,8,-1,10,12,14,-1,16,18,-1,20,22,24,26,28,30,32,-1,-1,34,36,38,40,-1,-1,42,-1,44,46,48,50,-1,-1,-1,-1,-1,-1,-1,-1,-1,-1,-1,-1,-1,-1,-1,-1,-1,-1],"split_conditions":[2.5173122E-1,8.598958E-3,-8.851244E-1,4.2202532E-1,-2.6619697E-2,2.352394E-1,1.6986901E-2,1.148573E-3,-1.0232767E-2,4.880688E-3,2.3582129E-2,-2.5694007E-2,3.9478454E-1,6.3290657E-4,2.6318455E-2,1.8283977E2,3.4026528E3,-1.4570569E-1,9.530251E-1,-2.8951803E-2,-7.4444704E-2,4.478668E-1,4.6854925E-1,4.385202E-1,5.3308135E-1,1.2790691E-3,-8.789196E-2,5.484677E-3,4.6565928E-2,-2.557765E0,-2.8486993E0,5.663482E-2,1.1063855E3,4.8604826E-3,3.6296707E-2,3.1135885E-2,-4.5970775E-2,8.806533E-3,4.5126606E-2,-7.4150534E-3,4.3652263E-2,2.1590054E-2,-3.0770048E-2,-9.376022E-2,1.0509591E-2,-1.4212861E-3,-7.918902E-2,-4.212276E-2,6.457474E-3,6.7110793E-3,-4.972683E-2],"split_indices":[17,19,22,15,0,6,13,1,0,19,12,0,9,1,13,18,18,23,21,0,0,14,14,14,0,0,0,19,0,0,0,12,18,0,0,0,0,0,0,0,0,0,0,0,0,0,0,0,0,0,0],"split_type":[0,0,0,0,0,0,0,0,0,0,0,0,0,0,0,0,0,0,0,0,0,0,0,0,0,0,0,0,0,0,0,0,0,0,0,0,0,0,0,0,0,0,0,0,0,0,0,0,0,0,0],"sum_hessian":[6.2828235E2,3.521135E2,2.7616888E2,3.5004236E2,2.0711217E0,1.9579198E2,8.037691E1,3.4717917E2,2.8632166E0,3.427971E1,1.6151227E2,2.1618485E0,7.821506E1,2.2925264E2,1.1792652E2,6.568356E0,2.7711351E1,3.9341877E1,1.2217039E2,2.090322E0,7.612473E1,2.1782939E2,1.1423245E1,1.0979068E2,8.13584E0,2.0058107E0,4.5625453E0,2.3322306E1,4.3890467E0,1.03084E1,2.9033476E1,8.455231E1,3.761808E1,1.0152806E1,2.0767659E2,7.897313E0,3.5259326E0,2.3738732E0,1.074168E2,3.9400833E0,4.1957574E0,7.689486E0,1.5632819E1,2.922001E0,7.3863997E0,2.665021E0,2.6368456E1,7.783674E1,6.7155666E0,2.7026386E1,1.0591695E1],"tree_param":{"num_deleted":"0","num_feature":"24","num_nodes":"51","size_leaf_vector":"1"}},{"base_weights":[-6.74361E-3,7.1148604E-1,-8.755372E-1,7.204307E-1,-2.5119944E-2,-6.697626E-1,-1.3671013E0,7.34805E-1,2.6870587E-1,-3.4591693E-1,-7.325302E-1,-6.920921E-2,-2.4565667E-2,7.034349E-1,9.874802E-1,-2.254112E-2,5.4524255E-1,-6.9463015E-1,3.962732E-1,-4.7953486E-1,-8.4364235E-1,7.6839596E-1,5.7128835E-1,3.3253275E-3,5.2191645E-2,4.594528E-2,-9.839698E-3,-4.549132E-1,-7.5722955E-2,-5.535313E-2,5.2245587E-2,3.728927E-1,-5.633267E-1,-7.183262E-1,-1.236526E0,-6.5017366E-3,3.8991146E-2,-6.569547E-3,3.2702763E-2,-4.373495E-2,5.8281133E-3,2.8732631E-2,-2.8111044E-2,-1.7102133E-2,4.7271468E-2,2.0856436E-2,-3.1873282E-2,-4.0350568E-2,-7.046988E-4,-8.03518E-2,-2.9413909E-2],"categories":[],"categories_nodes":[],"categories_segments":[],"categories_sizes":[],"default_left":[0,0,0,0,0,0,0,0,0,0,0,0,0,0,0,0,0,0,0,0,0,0,0,0,0,0,0,0,0,0,0,0,0,0,0,0,0,0,0,0,0,0,0,0,0,0,0,0,0,0,0],"id":18,"left_children":[1,3,5,7,-1,9,11,13,15,17,19,-1,-1,21,23,-1,25,27,29,31,33,35,37,-1,-1,-1,-1,39,-1,41,-1,43,45,47,49,-1,-1,-1,-1,-1,-1,-1,-1,-1,-1,-1,-1,-1,-1,-1,-1],"loss_changes":[3.9463058E2,4.121109E0,2.8034973E1,2.0368652E0,0E0,3.887497E0,5.690918E-1,1.9441681E0,2.670994E0,9.325441E0,4.3671646E0,0E0,0E0,2.1330566E0,1.7102165E0,0E0,2.7475672E0,4.0579014E0,3.5188146E0,4.075468E0,4.853958E0,2.1338654E0,6.0555763E0,0E0,0E0,0E0,0E0,4.928303E0,0E0,2.8504815E0,0E0,2.552248E0,3.876565E0,5.660202E0,5.4958534E0,0E0,0E0,0E0,0E0,0E0,0E0,0E0,0E0,0E0,0E0,0E0,0E0,0E0,0E0,0E0,0E0],"parents":[2147483647,0,0,1,1,2,2,3,3,5,5,6,6,7,7,8,8,9,9,10,10,13,13,14,14,16,16,17,17,18,18,19,19,20,20,21,21,22,22,27,27,29,29,31,31,32,32,33,33,34,34],"right_children":[2,4,6,8,-1,10,12,14,16,18,20,-1,-1,22,24,-1,26,28,30,32,34,36,38,-1,-1,-1,-1,40,-1,42,-1,44,46,48,50,-1,-1,-1,-1,-1,-1,-1,-1,-1,-1,-1,-1,-1,-1,-1,-1],"split_conditions":[2.524915E-1,8.598958E-3,4.395056E-1,4.1517943E-1,-2.5119944E-2,2.352394E-1,-2.3109084E-1,-2.3050877E-1,-1.1723742E-3,2.2026941E-2,3.4915948E0,-6.920921E-2,-2.4565667E-2,2.3719208E-2,4.6752663E-3,-2.254112E-2,2.3908892E-1,2.1487165E-2,-3.23302E-3,3.6125463E-1,1.8062488E3,4.385202E-1,2.3936005E-2,3.3253275E-3,5.2191645E-2,4.594528E-2,-9.839698E-3,2.3221497E-1,-7.5722955E-2,-9.346322E-3,5.2245587E-2,3.7845374E2,-8.188696E-3,-2.3326223E-1,1.4882787E-1,-6.5017366E-3,3.8991146E-2,-6.569547E-3,3.2702763E-2,-4.373495E-2,5.8281133E-3,2.8732631E-2,-2.8111044E-2,-1.7102133E-2,4.7271468E-2,2.0856436E-2,-3.1873282E-2,-4.0350568E-2,-7.046988E-4,-8.03518E-2,-2.9413909E-2],"split_indices":[7,19,7,15,0,6,8,8,23,12,20,0,0,12,19,0,6,12,1,7,18,14,12,0,0,0,0,6,0,1,0,18,1,8,3,0,0,0,0,0,0,0,0,0,0,0,0,0,0,0,0],"split_type":[0,0,0,0,0,0,0,0,0,0,0,0,0,0,0,0,0,0,0,0,0,0,0,0,0,0,0,0,0,0,0,0,0,0,0,0,0,0,0,0,0,0,0,0,0,0,0,0,0,0,0],"sum_hessian":[6.304293E2,3.452188E2,2.852105E2,3.4309717E2,2.1216416E0,2.0271437E2,8.249614E1,3.319088E2,1.1188339E1,3.3968224E1,1.6874615E2,8.034838E1,2.147759E0,2.9861868E2,3.3290146E1,2.9312353E0,8.257104E0,2.315369E1,1.0814531E1,5.3117294E1,1.1562885E2,1.969745E2,1.0164418E2,2.0452216E0,3.1244925E1,5.33316E0,2.9239447E0,1.9118387E1,4.0353045E0,6.9147053E0,3.8998256E0,4.445213E0,4.867208E1,8.981072E1,2.5818134E1,2.3434527E0,1.9463104E2,1.0648913E1,9.099527E1,1.0716111E1,8.402275E0,3.0232532E0,3.8914523E0,2.155807E0,2.2894058E0,3.096457E0,4.5575623E1,7.963607E1,1.0174651E1,1.5487254E1,1.033088E1],"tree_param":{"num_deleted":"0","num_feature":"24","num_nodes":"51","size_leaf_vector":"1"}},{"base_weights":[-2.4493146E-3,7.042869E-1,-8.421602E-1,7.166756E-1,1.3737123E-1,-6.338947E-1,-6.963021E-2,7.499275E-1,4.836541E-1,-3.776611E-2,3.6166526E-2,-5.7592654E-1,-1.0599236E0,1.6324314E-1,7.660488E-1,3.0823335E-1,4.5406193E-2,-5.9714115E-1,2.3604145E-2,-4.6782115E-1,-1.4323821E0,-2.9197529E-2,4.2922616E-2,5.032843E-1,7.967646E-1,4.4651243E-1,-5.0377484E-2,-4.4845363E-1,-8.3663523E-1,-1.0235345E0,1.988682E-2,-7.9998545E-2,-1.4554972E-2,3.9239194E-2,7.302474E-3,4.0259086E-2,8.018907E-3,-1.0304005E-2,2.7328938E-2,6.006136E-3,-2.7487649E-2,-9.0173595E-2,-3.7463203E-2,3.841639E-3,-7.606048E-2],"categories":[],"categories_nodes":[],"categories_segments":[],"categories_sizes":[],"default_left":[0,0,0,0,0,0,0,0,0,0,0,0,0,0,0,0,0,0,0,0,0,0,0,0,0,0,0,0,0,0,0,0,0,0,0,0,0,0,0,0,0,0,0,0,0],"id":19,"left_children":[1,3,5,7,9,11,-1,13,15,-1,-1,17,19,21,23,25,-1,27,-1,29,31,-1,-1,33,35,37,-1,39,41,43,-1,-1,-1,-1,-1,-1,-1,-1,-1,-1,-1,-1,-1,-1,-1],"loss_changes":[3.648469E2,2.2461243E0,3.132602E1,2.1667633E0,4.927777E0,4.468857E0,0E0,2.5598145E0,2.9653196E0,0E0,0E0,4.355633E0,4.4999294E0,5.1049595E0,1.8266296E0,6.336231E0,0E0,6.035797E0,0E0,5.4756393E0,2.193962E0,0E0,0E0,3.0632935E0,1.185379E0,2.0696626E0,0E0,6.587681E0,4.3764076E0,3.78443E0,0E0,0E0,0E0,0E0,0E0,0E0,0E0,0E0,0E0,0E0,0E0,0E0,0E0,0E0,0E0],"parents":[2147483647,0,0,1,1,2,2,3,3,4,4,5,5,7,7,8,8,11,11,12,12,13,13,14,14,15,15,17,17,19,19,20,20,23,23,24,24,25,25,27,27,28,28,29,29],"right_children":[2,4,6,8,10,12,-1,14,16,-1,-1,18,20,22,24,26,-1,28,-1,30,32,-1,-1,34,36,38,-1,40,42,44,-1,-1,-1,-1,-1,-1,-1,-1,-1,-1,-1,-1,-1,-1,-1],"split_conditions":[2.524915E-1,2.1496866E-2,5.610689E-1,-1.3817334E0,-2.396182E-1,7.0827487E-3,-6.963021E-2,7.03445E1,3.22439E-1,-3.776611E-2,3.6166526E-2,2.41457E4,1.4392553E-1,-1.396792E0,-5.91983E-3,3.1031845E-3,4.5406193E-2,9.154386E2,2.3604145E-2,-1.5493388E-3,1.5999535E-1,-2.9197529E-2,4.2922616E-2,-8.951536E-3,9.826397E-3,-1.3805149E0,-5.0377484E-2,1.1577674E0,2.321017E-1,2.3426177E-1,1.988682E-2,-7.9998545E-2,-1.4554972E-2,3.9239194E-2,7.302474E-3,4.0259086E-2,8.018907E-3,-1.0304005E-2,2.7328938E-2,6.006136E-3,-2.7487649E-2,-9.0173595E-2,-3.7463203E-2,3.841639E-3,-7.606048E-2],"split_indices":[7,4,7,22,8,19,0,18,0,0,0,18,5,22,23,1,0,18,0,1,23,0,0,23,1,22,0,16,6,6,0,0,0,0,0,0,0,0,0,0,0,0,0,0,0],"split_type":[0,0,0,0,0,0,0,0,0,0,0,0,0,0,0,0,0,0,0,0,0,0,0,0,0,0,0,0,0,0,0,0,0,0,0,0,0,0,0,0,0,0,0,0,0],"sum_hessian":[6.1278595E2,3.3282642E2,2.799595E2,3.2545026E2,7.3761806E0,2.046717E2,7.52878E1,2.8286713E2,4.2583122E1,2.8084881E0,4.5676928E0,1.8222842E2,2.2443281E1,7.862476E0,2.7500464E2,3.1352304E1,1.1230817E1,1.7903448E2,3.193938E0,9.537467E0,1.2905815E1,3.8666894E0,3.9957867E0,3.060167E1,2.4440298E2,2.896857E1,2.383734E0,1.1223007E2,6.680442E1,5.697189E0,3.840278E0,1.0902901E1,2.0029142E0,1.6445696E1,1.4155973E1,2.4095084E2,3.4521406E0,3.7105317E0,2.525804E1,1.6943449E1,9.528662E1,3.9087934E0,6.2895626E1,2.0376122E0,3.6595764E0],"tree_param":{"num_deleted":"0","num_feature":"24","num_nodes":"45","size_leaf_vector":"1"}},{"base_weights":[2.6976712E-2,6.779767E-1,-7.481814E-1,6.228575E-1,9.217723E-1,-5.3487426E-1,-1.346358E0,6.3661015E-1,-2.047359E-2,4.076533E-1,9.7983843E-1,-4.391357E-1,-7.6530343E-1,-2.050478E-2,-1.3683769E0,-1.0655997E-2,6.492331E-1,-6.874516E-3,4.1483235E-2,5.1659405E-1,5.067814E-2,-6.232563E-1,-1.9054408E-1,1.6580919E-2,-8.273212E-1,-1.4016409E0,-7.8073907E-1,5.946671E-1,8.590419E-1,3.8339254E-2,2.601043E-3,-9.3315965E-1,-3.310981E-1,2.1144044E-1,-4.675917E-1,-5.979529E-1,-1.1479305E0,-8.1349546E-1,-7.224055E-2,-5.3748976E-2,-1.3511786E-2,3.3955134E-2,1.8327752E-2,4.617671E-2,2.852164E-3,-1.8966032E-2,-5.693726E-2,1.3375806E-2,-2.8965691E-2,4.147544E-2,-9.279707E-3,3.8652223E-2,-2.8956799E-2,-8.951581E-3,-4.2616602E-2,-8.3933525E-2,-2.9188517E-2,-8.45165E-3,-5.682955E-2],"categories":[],"categories_nodes":[],"categories_segments":[],"categories_sizes":[],"default_left":[0,0,0,0,0,0,0,0,0,0,0,0,0,0,0,0,0,0,0,0,0,0,0,0,0,0,0,0,0,0,0,0,0,0,0,0,0,0,0,0,0,0,0,0,0,0,0,0,0,0,0,0,0,0,0,0,0,0,0],"id":20,"left_children":[1,3,5,7,9,11,13,15,-1,17,19,21,23,-1,25,-1,27,-1,-1,29,-1,31,33,-1,35,37,39,41,43,-1,-1,45,47,49,51,53,55,57,-1,-1,-1,-1,-1,-1,-1,-1,-1,-1,-1,-1,-1,-1,-1,-1,-1,-1,-1,-1,-1],"loss_changes":[3.0409366E2,3.82695E0,3.438011E1,4.0968475E0,1.341259E0,4.174053E0,9.159546E-1,3.0027084E0,0E0,1.869345E0,2.837639E-1,6.5993633E0,4.2650375E0,0E0,2.6574707E-1,0E0,2.5044708E0,0E0,0E0,6.0478747E-1,0E0,7.285843E0,7.2147408E0,0E0,3.417633E0,4.646454E-1,6.0850286E-1,3.8395538E0,2.6426811E0,0E0,0E0,4.140175E0,6.800827E0,6.7201853E0,5.7252855E0,3.5367794E0,5.663574E0,1.2041068E0,0E0,0E0,0E0,0E0,0E0,0E0,0E0,0E0,0E0,0E0,0E0,0E0,0E0,0E0,0E0,0E0,0E0,0E0,0E0,0E0,0E0],"parents":[2147483647,0,0,1,1,2,2,3,3,4,4,5,5,6,6,7,7,9,9,10,10,11,11,12,12,14,14,16,16,19,19,21,21,22,22,24,24,25,25,26,26,27,27,28,28,31,31,32,32,33,33,34,34,35,35,36,36,37,37],"right_children":[2,4,6,8,10,12,14,16,-1,18,20,22,24,-1,26,-1,28,-1,-1,30,-1,32,34,-1,36,38,40,42,44,-1,-1,46,48,50,52,54,56,58,-1,-1,-1,-1,-1,-1,-1,-1,-1,-1,-1,-1,-1,-1,-1,-1,-1,-1,-1,-1,-1],"split_conditions":[3.5650417E-1,8.528278E-1,5.610689E-1,8.598958E-3,9.440528E-5,4.1770074E-1,1.7391287E-2,4.4084772E-1,-2.047359E-2,4.626522E-1,1.8528348E-2,3.402863E-1,3.4301515E0,-2.050478E-2,4.145341E0,-1.0655997E-2,9.9706125E-1,-6.874516E-3,4.1483235E-2,1.4006905E-1,5.067814E-2,4.7457525E-1,5.259472E-3,1.6580919E-2,9.369664E-1,2.0343587E-2,5.191432E-1,9.90009E-1,1.0106158E0,3.8339254E-2,2.601043E-3,4.6207148E-1,3.6812252E-1,3.9435336E-1,2.0072376E-2,1.4921615E-1,2.2325147E-2,3.8674965E0,-7.224055E-2,-5.3748976E-2,-1.3511786E-2,3.3955134E-2,1.8327752E-2,4.617671E-2,2.852164E-3,-1.8966032E-2,-5.693726E-2,1.3375806E-2,-2.8965691E-2,4.147544E-2,-9.279707E-3,3.8652223E-2,-2.8956799E-2,-8.951581E-3,-4.2616602E-2,-8.3933525E-2,-2.9188517E-2,-8.45165E-3,-5.682955E-2],"split_indices":[7,0,7,19,1,17,13,14,0,14,13,10,20,0,20,0,21,0,0,5,0,14,19,0,21,12,9,21,21,0,0,14,7,15,13,5,13,20,0,0,0,0,0,0,0,0,0,0,0,0,0,0,0,0,0,0,0,0,0],"split_type":[0,0,0,0,0,0,0,0,0,0,0,0,0,0,0,0,0,0,0,0,0,0,0,0,0,0,0,0,0,0,0,0,0,0,0,0,0,0,0,0,0,0,0,0,0,0,0,0,0,0,0,0,0,0,0,0,0,0,0],"sum_hessian":[6.0060443E2,3.2651398E2,2.7409045E2,2.6920483E2,5.730916E1,2.0343912E2,7.065133E1,2.660439E2,3.1608973E0,6.6297426E0,5.0679417E1,1.4577734E2,5.7661766E1,2.0743155E0,6.857701E1,3.6618025E0,2.623821E2,3.1870258E0,3.4427168E0,4.54646E0,4.6132957E1,8.2882706E1,6.289464E1,2.8529987E0,5.480877E1,6.359208E1,4.9849296E0,2.1127031E2,5.11118E1,2.5322359E0,2.014224E0,3.9155235E1,4.372747E1,2.5757864E1,3.7136776E1,3.362094E1,2.118783E1,5.7054467E0,5.7886635E1,2.4608417E0,2.524088E0,1.5275214E2,5.851819E1,4.716733E1,3.9444716E0,1.1369998E1,2.7785238E1,1.2794239E1,3.093323E1,9.648567E0,1.6109297E1,2.5742817E0,3.4562496E1,1.3346011E1,2.027493E1,9.899368E0,1.1288461E1,2.4138427E0,3.2916038E0],"tree_param":{"num_deleted":"0","num_feature":"24","num_nodes":"59","size_leaf_vector":"1"}},{"base_weights":[-5.4406263E-3,6.453977E-1,-7.627877E-1,6.614623E-1,-3.661688E-2,-5.7047516E-1,-6.582346E-2,6.066555E-1,9.174897E-1,-7.596195E-1,-4.0464783E-1,6.2396157E-1,-2.5069264E-1,3.9171112E-1,9.808177E-1,-1.0156902E0,-5.5746067E-1,-3.2625E-1,-8.979537E-1,3.833652E-2,6.5102047E-1,2.6925249E-2,-5.4729205E-2,-9.485963E-3,4.140139E-2,1.0174451E0,5.446335E-1,-4.7131675E-1,-1.227795E0,-1.4455191E0,-4.4139E-1,5.092714E-2,-4.4299453E-1,1.4541139E-2,-1.1845695E0,2.6378928E-2,-2.7747659E-2,3.8766496E-2,2.7190099E-2,5.1961143E-2,1.9330768E-2,2.8505719E-3,3.950153E-2,-4.5694574E-3,-5.0073832E-2,-2.8352251E-2,-8.073107E-2,-1.034612E-1,-2.038531E-2,-1.4007418E-2,-5.522613E-2,1.4896675E-2,-3.3255894E-2,2.3175405E-2,-2.5978057E-2,-1.9225894E-2,-7.19293E-2],"categories":[],"categories_nodes":[],"categories_segments":[],"categories_sizes":[],"default_left":[0,0,0,0,0,0,0,0,0,0,0,0,0,0,0,0,0,0,0,0,0,0,0,0,0,0,0,0,0,0,0,0,0,0,0,0,0,0,0,0,0,0,0,0,0,0,0,0,0,0,0,0,0,0,0,0,0],"id":21,"left_children":[1,3,5,7,-1,9,-1,11,13,15,17,19,21,23,25,27,29,31,33,35,37,-1,-1,-1,-1,39,41,43,45,47,49,51,53,-1,55,-1,-1,-1,-1,-1,-1,-1,-1,-1,-1,-1,-1,-1,-1,-1,-1,-1,-1,-1,-1,-1,-1],"loss_changes":[2.9338263E2,7.569458E0,2.8540527E1,3.8908997E0,0E0,6.151924E0,0E0,4.0737457E0,1.4116058E0,4.3550415E0,4.033621E0,4.080536E0,4.543666E0,2.0502937E0,2.0428085E-1,4.123455E0,5.066433E0,4.342332E0,5.3771257E0,3.9224365E0,2.878128E0,0E0,0E0,0E0,0E0,1.8403625E-1,6.5250623E-1,2.535297E0,6.415535E0,3.0126162E0,5.077862E0,4.4579444E0,5.447632E0,0E0,1.9055138E0,0E0,0E0,0E0,0E0,0E0,0E0,0E0,0E0,0E0,0E0,0E0,0E0,0E0,0E0,0E0,0E0,0E0,0E0,0E0,0E0,0E0,0E0],"parents":[2147483647,0,0,1,1,2,2,3,3,5,5,7,7,8,8,9,9,10,10,11,11,12,12,13,13,14,14,15,15,16,16,17,17,18,18,19,19,20,20,25,25,26,26,27,27,28,28,29,29,30,30,31,31,32,32,34,34],"right_children":[2,4,6,8,-1,10,-1,12,14,16,18,20,22,24,26,28,30,32,34,36,38,-1,-1,-1,-1,40,42,44,46,48,50,52,54,-1,56,-1,-1,-1,-1,-1,-1,-1,-1,-1,-1,-1,-1,-1,-1,-1,-1,-1,-1,-1,-1,-1,-1],"split_conditions":[3.0915898E-1,1.2456615E-2,5.600721E-1,8.528278E-1,-3.661688E-2,3.402863E-1,-6.582346E-2,1.469099E-1,-9.855961E-5,4.731129E-1,4.1087425E-1,4.478668E-1,2.6969227E-1,4.626522E-1,9.826397E-3,4.6207148E-1,1.6227301E2,3.1600122E2,3.4467664E0,-2.3258078E-1,4.64165E-1,2.6925249E-2,-5.4729205E-2,-9.485963E-3,4.140139E-2,2.4762985E-1,2.3669133E-1,8.878189E2,3.48624E0,-2.3741536E-1,2.0847185E3,1.6242682E0,3.4096134E0,1.4541139E-2,-4.306166E-3,2.6378928E-2,-2.7747659E-2,3.8766496E-2,2.7190099E-2,5.1961143E-2,1.9330768E-2,2.8505719E-3,3.950153E-2,-4.5694574E-3,-5.0073832E-2,-2.8352251E-2,-8.073107E-2,-1.034612E-1,-2.038531E-2,-1.4007418E-2,-5.522613E-2,1.4896675E-2,-3.3255894E-2,2.3175405E-2,-2.5978057E-2,-1.9225894E-2,-7.19293E-2],"split_indices":[9,19,17,0,0,10,0,3,1,14,15,14,9,14,1,14,18,18,20,8,14,0,0,0,0,17,17,18,20,8,18,16,20,0,1,0,0,0,0,0,0,0,0,0,0,0,0,0,0,0,0,0,0,0,0,0,0],"split_type":[0,0,0,0,0,0,0,0,0,0,0,0,0,0,0,0,0,0,0,0,0,0,0,0,0,0,0,0,0,0,0,0,0,0,0,0,0,0,0,0,0,0,0,0,0,0,0,0,0,0,0,0,0,0,0,0,0],"sum_hessian":[5.932059E2,3.1911612E2,2.7408975E2,3.1595197E2,3.1641552E0,2.0493806E2,6.915167E1,2.6301813E2,5.2933823E1,9.406535E1,1.1087271E2,2.5808084E2,4.937303E0,6.462722E0,4.64711E1,3.9723774E1,5.4341576E1,9.710224E1,1.377047E1,1.15047455E1,2.4657608E2,2.7383287E0,2.1989744E0,3.0129201E0,3.449802E0,4.1641743E1,4.8293552E0,1.2041356E1,2.7682419E1,4.9575443E0,4.9384033E1,2.3084583E1,7.401766E1,2.6722567E0,1.1098212E1,6.365964E0,5.138781E0,1.1130151E2,1.3527458E2,3.9626354E1,2.0153887E0,2.0293033E0,2.800052E0,7.6974945E0,4.343862E0,1.1132517E1,1.6549902E1,2.4758039E0,2.4817402E0,4.086911E1,8.514921E0,1.7597933E1,5.4866514E0,5.371278E0,6.8646385E1,3.280304E0,7.8179083E0],"tree_param":{"num_deleted":"0","num_feature":"24","num_nodes":"57","size_leaf_vector":"1"}},{"base_weights":[-2.8009906E-2,6.318197E-1,-7.415396E-1,6.537476E-1,9.84176E-2,-5.338594E-1,-1.3315696E0,6.9286424E-1,3.8227755E-1,-4.917605E-2,4.2813674E-1,-7.356496E-1,-4.0817702E-1,-6.765153E-2,-3.3683848E-2,7.049038E-1,9.404367E-2,6.267287E-1,-1.5216447E-1,3.9553914E-2,-1.0717722E-2,-6.179182E-1,-1.2740948E0,-3.0812085E-1,-7.907837E-1,6.570092E-1,8.8311666E-1,3.872412E-2,-2.923192E-2,7.3624694E-1,-9.817896E-3,-1.0009395E-1,4.2389455E-1,2.0811574E-1,-7.926926E-1,-1.5395199E-2,-1.5653303E0,-6.0206944E-1,-1.320338E-1,3.1994473E-2,-1.024621E0,3.7650608E-2,2.1983843E-2,5.758553E-3,4.582131E-2,4.2901244E-2,1.1347629E-2,3.6274236E-2,-2.9249111E-2,4.735258E-2,-9.388246E-3,-1.7364137E-2,-5.170889E-2,-9.124577E-2,-2.5963714E-2,-1.7768687E-2,-6.9946185E-2,8.955371E-3,-1.7528882E-2,-4.061093E-2,2.8632928E-2,-5.970148E-2,4.779767E-3],"categories":[],"categories_nodes":[],"categories_segments":[],"categories_sizes":[],"default_left":[0,0,0,0,0,0,0,0,0,0,0,0,0,0,0,0,0,0,0,0,0,0,0,0,0,0,0,0,0,0,0,0,0,0,0,0,0,0,0,0,0,0,0,0,0,0,0,0,0,0,0,0,0,0,0,0,0,0,0,0,0,0,0],"id":22,"left_children":[1,3,5,7,9,11,13,15,17,-1,19,21,23,-1,-1,25,27,29,31,-1,-1,33,35,37,39,41,43,-1,-1,45,-1,-1,47,49,51,-1,53,55,57,59,61,-1,-1,-1,-1,-1,-1,-1,-1,-1,-1,-1,-1,-1,-1,-1,-1,-1,-1,-1,-1,-1,-1],"loss_changes":[2.757035E2,3.4945297E0,3.3762802E1,2.8366928E0,5.127025E0,5.01947E0,1.1317444E-1,1.7653809E0,5.1926637E0,0E0,2.689673E0,4.236988E0,4.7904453E0,0E0,0E0,1.5442505E0,3.2980943E0,2.575426E0,1.4753642E1,0E0,0E0,9.834656E0,3.2545013E0,5.4008236E0,5.1546783E0,3.8435745E0,1.1687698E0,0E0,0E0,1.2944183E0,0E0,0E0,3.7031794E0,3.831163E0,5.609337E0,0E0,1.7564526E0,7.244934E0,4.6522856E0,3.5968611E0,4.053917E0,0E0,0E0,0E0,0E0,0E0,0E0,0E0,0E0,0E0,0E0,0E0,0E0,0E0,0E0,0E0,0E0,0E0,0E0,0E0,0E0,0E0,0E0],"parents":[2147483647,0,0,1,1,2,2,3,3,4,4,5,5,6,6,7,7,8,8,10,10,11,11,12,12,15,15,16,16,17,17,18,18,21,21,22,22,23,23,24,24,25,25,26,26,29,29,32,32,33,33,34,34,36,36,37,37,38,38,39,39,40,40],"right_children":[2,4,6,8,10,12,14,16,18,-1,20,22,24,-1,-1,26,28,30,32,-1,-1,34,36,38,40,42,44,-1,-1,46,-1,-1,48,50,52,-1,54,56,58,60,62,-1,-1,-1,-1,-1,-1,-1,-1,-1,-1,-1,-1,-1,-1,-1,-1,-1,-1,-1,-1,-1,-1],"split_conditions":[2.524915E-1,4.146673E-1,5.610689E-1,-1.3817334E0,-2.4234709E-1,1.4713182E-1,-2.3219866E-1,1.0106158E0,4.703541E-1,-4.917605E-2,2.5940302E-1,3.6709378E0,1.5136541E-1,-6.765153E-2,-3.3683848E-2,9.973542E-1,-2.6107296E-1,3.5039139E0,2.3919309E-2,3.9553914E-2,-1.0717722E-2,9.369664E-1,9.191499E-1,3.5746396E-1,3.709182E-1,9.904415E-1,7.5474884E1,3.872412E-2,-2.923192E-2,1.043449E3,-9.817896E-3,-1.0009395E-1,1.4301774E-1,3.5237703E0,1.447607E-1,-1.5395199E-2,3.923714E-1,3.57873E0,4.1124225E-1,1.5183762E-1,3.8208368E0,3.7650608E-2,2.1983843E-2,5.758553E-3,4.582131E-2,4.2901244E-2,1.1347629E-2,3.6274236E-2,-2.9249111E-2,4.735258E-2,-9.388246E-3,-1.7364137E-2,-5.170889E-2,-9.124577E-2,-2.5963714E-2,-1.7768687E-2,-6.9946185E-2,8.955371E-3,-1.7528882E-2,-4.061093E-2,2.8632928E-2,-5.970148E-2,4.779767E-3],"split_indices":[7,15,7,22,8,5,8,21,14,0,0,20,5,0,0,21,0,20,13,0,0,21,21,9,9,21,18,0,0,18,0,0,5,20,3,0,15,20,17,5,20,0,0,0,0,0,0,0,0,0,0,0,0,0,0,0,0,0,0,0,0,0,0],"split_type":[0,0,0,0,0,0,0,0,0,0,0,0,0,0,0,0,0,0,0,0,0,0,0,0,0,0,0,0,0,0,0,0,0,0,0,0,0,0,0,0,0,0,0,0,0,0,0,0,0,0,0,0,0,0,0,0,0,0,0,0,0,0,0],"sum_hessian":[5.836012E2,3.0326987E2,2.8033136E2,2.910782E2,1.2191675E1,2.0875723E2,7.1574104E1,2.530618E2,3.8016407E1,2.3844495E0,9.807225E0,7.8257355E1,1.304999E2,6.828982E1,3.2842882E0,2.4790048E2,5.1613097E0,2.596669E1,1.2049716E1,6.1192245E0,3.6880007E0,6.5978676E1,1.2278679E1,1.0487829E2,2.56216E1,1.9908356E2,4.8816933E1,2.5068324E0,2.6544774E0,2.3010468E1,2.9562213E0,2.273719E0,9.775997E0,1.1488752E1,5.448992E1,3.320375E0,8.958304E0,3.838374E1,6.6494545E1,5.8612895E0,1.976031E1,1.3637665E2,6.2706898E1,2.214713E0,4.660222E1,1.801754E1,4.992927E0,7.742407E0,2.0335898E0,3.5221589E0,7.9665937E0,2.0013655E1,3.447627E1,6.5806966E0,2.3776073E0,3.0413948E1,7.9697914E0,2.7509575E1,3.8984974E1,2.0921957E0,3.7690938E0,1.7107306E1,2.6530027E0],"tree_param":{"num_deleted":"0","num_feature":"24","num_nodes":"63","size_leaf_vector":"1"}},{"base_weights":[1.1732326E-2,6.384415E-1,-6.73163E-1,6.565735E-1,-3.3299502E-2,-4.3468928E-1,-1.1350113E0,6.7606413E-1,1.81189E-1,-6.9961923E-1,-3.0784604E-1,-4.651765E-2,-1.2184267E0,6.321772E-1,8.772245E-1,-1.10991776E-1,4.2021815E-2,-1.9267368E-1,-8.724833E-1,2.2542004E-1,-3.786345E-1,-3.2314707E-2,3.2894027E-1,-5.2509934E-1,-1.2589449E0,8.6353326E-1,5.7113665E-1,3.634621E-1,9.4295937E-1,3.8544696E-2,-5.126235E-1,-9.499174E-1,3.266246E-1,-1.2404485E0,-4.8629755E-1,5.217429E-1,-3.3020318E-2,-3.0229273E-1,-1.1373603E0,3.3973366E-2,-3.689031E-3,1.8216989E-3,-5.259294E-2,-1.2784925E0,-2.8459663E-2,4.5836654E-2,2.465691E-2,4.9732444E-3,3.0149935E-2,-6.947145E-4,3.812343E-2,4.907202E-2,2.31657E-2,1.5283691E-2,-5.474181E-2,-7.5562894E-2,7.6901647E-3,-2.925385E-2,3.709958E-2,-2.6570583E-2,-8.641466E-2,-3.7738252E-2,5.6156196E-2,1.2194871E-2,5.6648612E-2,-1.860165E-2,1.841772E-2,-8.38021E-2,-1.193563E-2,-4.6381284E-2,-6.635051E-2],"categories":[],"categories_nodes":[],"categories_segments":[],"categories_sizes":[],"default_left":[0,0,0,0,0,0,0,0,0,0,0,0,0,0,0,0,0,0,0,0,0,0,0,0,0,0,0,0,0,0,0,0,0,0,0,0,0,0,0,0,0,0,0,0,0,0,0,0,0,0,0,0,0,0,0,0,0,0,0,0,0,0,0,0,0,0,0,0,0,0,0],"id":23,"left_children":[1,3,5,7,-1,9,11,13,15,17,19,21,23,25,27,29,-1,31,33,35,37,-1,39,41,43,45,47,49,51,-1,53,55,57,59,61,63,-1,65,67,-1,-1,-1,-1,69,-1,-1,-1,-1,-1,-1,-1,-1,-1,-1,-1,-1,-1,-1,-1,-1,-1,-1,-1,-1,-1,-1,-1,-1,-1,-1,-1],"loss_changes":[2.5040619E2,7.642189E0,3.0208908E1,2.6659698E0,0E0,6.0168457E0,8.505745E0,1.994461E0,2.6395237E0,5.0249424E0,4.8869715E0,1.9582884E0,1.7984161E0,2.9045792E0,1.3165207E0,3.9522877E0,0E0,6.7404714E0,5.636116E0,4.42184E0,6.1820354E0,0E0,8.1669617E-1,1.975626E0,3.7791443E-1,4.9916077E-1,2.8454094E0,1.094728E0,3.3765793E-1,0E0,3.908266E0,4.5123115E0,4.389228E0,6.6357384E0,1.0814863E1,1.795243E0,0E0,4.9884844E0,4.4106684E0,0E0,0E0,0E0,0E0,1.1282349E-1,0E0,0E0,0E0,0E0,0E0,0E0,0E0,0E0,0E0,0E0,0E0,0E0,0E0,0E0,0E0,0E0,0E0,0E0,0E0,0E0,0E0,0E0,0E0,0E0,0E0,0E0,0E0],"parents":[2147483647,0,0,1,1,2,2,3,3,5,5,6,6,7,7,8,8,9,9,10,10,11,11,12,12,13,13,14,14,15,15,17,17,18,18,19,19,20,20,22,22,23,23,24,24,25,25,26,26,27,27,28,28,30,30,31,31,32,32,33,33,34,34,35,35,37,37,38,38,43,43],"right_children":[2,4,6,8,-1,10,12,14,16,18,20,22,24,26,28,30,-1,32,34,36,38,-1,40,42,44,46,48,50,52,-1,54,56,58,60,62,64,-1,66,68,-1,-1,-1,-1,70,-1,-1,-1,-1,-1,-1,-1,-1,-1,-1,-1,-1,-1,-1,-1,-1,-1,-1,-1,-1,-1,-1,-1,-1,-1,-1,-1],"split_conditions":[2.9797998E-1,1.2456615E-2,1.5136541E-1,4.146673E-1,-3.3299502E-2,-4.032166E-3,3.532829E-1,8.3565646E-1,2.3719208E-2,-9.152362E-3,2.353712E-1,1.5183762E-1,7.912685E-1,-1.2846282E0,9.440528E-5,2.3801053E-1,4.2021815E-2,-1.1600456E0,-1.8921525E0,3.5859898E-1,7.253347E-3,-3.2314707E-2,4.6075497E2,7.3408514E-1,6.4663757E-3,2.4478999E-1,1.3721308E-1,3.965138E-1,9.826397E-3,3.8544696E-2,2.1650678E-2,2.3102727E-2,-1.6233006E-1,3.963572E-1,1.4972366E-1,3.4850377E-1,-3.3020318E-2,9.6544576E-1,3.9721578E-1,3.3973366E-2,-3.689031E-3,1.8216989E-3,-5.259294E-2,2.1487165E-2,-2.8459663E-2,4.5836654E-2,2.465691E-2,4.9732444E-3,3.0149935E-2,-6.947145E-4,3.812343E-2,4.907202E-2,2.31657E-2,1.5283691E-2,-5.474181E-2,-7.5562894E-2,7.6901647E-3,-2.925385E-2,3.709958E-2,-2.6570583E-2,-8.641466E-2,-3.7738252E-2,5.6156196E-2,1.2194871E-2,5.6648612E-2,-1.860165E-2,1.841772E-2,-8.38021E-2,-1.193563E-2,-4.6381284E-2,-6.635051E-2],"split_indices":[10,19,5,15,0,1,10,0,12,1,6,5,21,0,1,7,0,22,0,10,19,0,18,22,19,7,3,15,1,0,12,12,23,17,3,10,0,21,15,0,0,0,0,12,0,0,0,0,0,0,0,0,0,0,0,0,0,0,0,0,0,0,0,0,0,0,0,0,0,0,0],"split_type":[0,0,0,0,0,0,0,0,0,0,0,0,0,0,0,0,0,0,0,0,0,0,0,0,0,0,0,0,0,0,0,0,0,0,0,0,0,0,0,0,0,0,0,0,0,0,0,0,0,0,0,0,0,0,0,0,0,0,0,0,0,0,0,0,0,0,0,0,0,0,0],"sum_hessian":[5.813831E2,3.036228E2,2.777603E2,2.9995007E2,3.6727426E0,1.8445753E2,9.330279E1,2.8773105E2,1.2219032E1,5.8259254E1,1.2619828E2,6.752075E0,8.655071E1,2.3960031E2,4.8130726E1,9.042849E0,3.1761844E0,1.5352051E1,4.2907204E1,1.4533044E1,1.1166524E2,2.3217843E0,4.4302907E0,5.549523E0,8.100119E1,4.7274254E1,1.9232607E2,6.200311E0,4.1930412E1,2.5419464E0,6.500902E0,5.9078937E0,9.444158E0,2.0839184E1,2.206802E1,1.1198111E1,3.3349335E0,1.0272739E2,8.937845E0,2.0012326E0,2.4290583E0,3.1366458E0,2.412877E0,7.793884E1,3.062346E0,4.004726E1,7.2269964E0,1.2430596E1,1.7989546E2,3.6826549E0,2.517656E0,3.7847786E1,4.082628E0,2.899977E0,3.600925E0,3.6714132E0,2.2364805E0,2.8280988E0,6.6160583E0,9.345571E0,1.1493612E1,1.9368238E1,2.6997812E0,8.660397E0,2.5377138E0,9.345438E1,9.273014E0,5.047264E0,3.890581E0,1.1912242E1,6.60266E1],"tree_param":{"num_deleted":"0","num_feature":"24","num_nodes":"71","size_leaf_vector":"1"}},{"base_weights":[4.9161753E-3,6.439244E-1,-6.773941E-1,6.569694E-1,-2.0106366E-2,-5.011403E-1,-6.262279E-2,5.4830813E-1,7.7575785E-1,-7.127447E-1,-4.0902227E-1,3.799682E-1,7.4829924E-1,8.152355E-1,1.8262815E-1,1.892428E-2,-7.67211E-1,1.3914125E-1,-4.573375E-1,7.3215467E-1,1.5444817E-1,2.4589485E-1,8.1637293E-1,1.02227174E-1,8.449666E-1,6.4542586E-1,-2.9612452E-2,-4.2310646E-1,-9.652705E-1,4.0591072E-2,-2.1062657E-1,-9.622554E-1,-3.8954234E-1,5.545878E-3,4.1011672E-2,-5.185455E-3,3.1890225E-2,-2.2794949E-2,3.6704805E-2,4.394568E-2,1.09166885E-2,3.7660904E-2,-2.4731025E-2,4.3231096E-2,-6.429016E-3,4.2597372E-2,5.7687503E-3,-8.053209E-3,-6.509688E-2,-3.647573E-2,-7.5674765E-2,1.6344532E-2,-3.389792E-2,9.100213E-3,-6.997719E-2,-2.1630224E-2,1.555671E-2],"categories":[],"categories_nodes":[],"categories_segments":[],"categories_sizes":[],"default_left":[0,0,0,0,0,0,0,0,0,0,0,0,0,0,0,0,0,0,0,0,0,0,0,0,0,0,0,0,0,0,0,0,0,0,0,0,0,0,0,0,0,0,0,0,0,0,0,0,0,0,0,0,0,0,0,0,0],"id":24,"left_children":[1,3,5,7,-1,9,-1,11,13,15,17,19,21,23,25,-1,27,29,31,33,35,37,39,41,43,45,-1,47,49,-1,51,53,55,-1,-1,-1,-1,-1,-1,-1,-1,-1,-1,-1,-1,-1,-1,-1,-1,-1,-1,-1,-1,-1,-1,-1,-1],"loss_changes":[2.4799889E2,4.2721786E0,2.7254028E1,3.3240738E0,0E0,3.8451538E0,0E0,4.937916E0,3.0440826E0,4.0358963E0,4.041626E0,6.737727E0,2.1885872E0,2.6177902E0,3.8960493E0,0E0,3.7048264E0,3.213899E0,4.3581734E0,1.7368202E0,6.7857547E0,3.681189E0,2.0931587E0,2.7985716E0,2.4518204E0,6.256125E-1,0E0,5.2776985E0,3.745861E0,0E0,2.5584679E0,8.104162E0,3.8633156E0,0E0,0E0,0E0,0E0,0E0,0E0,0E0,0E0,0E0,0E0,0E0,0E0,0E0,0E0,0E0,0E0,0E0,0E0,0E0,0E0,0E0,0E0,0E0,0E0],"parents":[2147483647,0,0,1,1,2,2,3,3,5,5,7,7,8,8,9,9,10,10,11,11,12,12,13,13,14,14,16,16,17,17,18,18,19,19,20,20,21,21,22,22,23,23,24,24,25,25,27,27,28,28,30,30,31,31,32,32],"right_children":[2,4,6,8,-1,10,-1,12,14,16,18,20,22,24,26,-1,28,30,32,34,36,38,40,42,44,46,-1,48,50,-1,52,54,56,-1,-1,-1,-1,-1,-1,-1,-1,-1,-1,-1,-1,-1,-1,-1,-1,-1,-1,-1,-1,-1,-1,-1,-1],"split_conditions":[2.9797998E-1,1.2456615E-2,5.600721E-1,3.3671393E0,-2.0106366E-2,-1.4976703E0,-6.262279E-2,9.9447286E-1,1.4529127E-1,2.2588836E-1,2.352394E-1,4.6154723E-1,1.1297855E0,1.3672958E-1,2.2724418E-1,1.892428E-2,9.369664E-1,9.328084E-1,4.6781385E-1,2.4374671E-1,6.20171E2,5.8037126E-3,7.507846E-3,3.3153275E2,-1.3656542E0,1.1540323E0,-2.9612452E-2,4.3349904E-1,3.5717688E0,4.0591072E-2,4.6196592E-1,5.1597664E-3,4.3554786E-1,5.545878E-3,4.1011672E-2,-5.185455E-3,3.1890225E-2,-2.2794949E-2,3.6704805E-2,4.394568E-2,1.09166885E-2,3.7660904E-2,-2.4731025E-2,4.3231096E-2,-6.429016E-3,4.2597372E-2,5.7687503E-3,-8.053209E-3,-6.509688E-2,-3.647573E-2,-7.5674765E-2,1.6344532E-2,-3.389792E-2,9.100213E-3,-6.997719E-2,-2.1630224E-2,1.555671E-2],"split_indices":[10,19,17,20,0,0,0,21,5,6,6,14,16,5,0,0,21,21,14,10,18,19,19,18,22,16,0,17,20,0,14,19,17,0,0,0,0,0,0,0,0,0,0,0,0,0,0,0,0,0,0,0,0,0,0,0,0],"split_type":[0,0,0,0,0,0,0,0,0,0,0,0,0,0,0,0,0,0,0,0,0,0,0,0,0,0,0,0,0,0,0,0,0,0,0,0,0,0,0,0,0,0,0,0,0,0,0,0,0,0,0,0,0,0,0,0,0],"sum_hessian":[5.668019E2,2.9271756E2,2.7408432E2,2.894795E2,3.2380502E0,2.1121832E2,6.2865993E1,1.541172E2,1.3536229E2,6.2018444E1,1.4919987E2,8.5254906E1,6.88623E1,1.2656396E2,8.79834E0,2.6655362E0,5.935291E1,1.1933031E1,1.3726685E2,3.2404095E1,5.285081E1,8.767523E0,6.0094776E1,5.2438865E0,1.2132007E2,5.613012E0,3.185328E0,2.2828098E1,3.652481E1,3.6302452E0,8.302786E0,1.4687229E1,1.2257961E2,4.3043036E0,2.809979E1,3.496284E1,1.7887972E1,3.6240635E0,5.1434593E0,5.398008E1,6.1146946E0,2.3828652E0,2.8610213E0,1.1902883E2,2.291235E0,3.6022055E0,2.0108066E0,1.8496302E1,4.3317976E0,2.7171003E1,9.3538065E0,4.0011954E0,4.3015904E0,4.2223415E0,1.0464888E1,1.1584275E2,6.736866E0],"tree_param":{"num_deleted":"0","num_feature":"24","num_nodes":"57","size_leaf_vector":"1"}},{"base_weights":[1.28711965E-2,5.9981763E-1,-6.051782E-1,6.131777E-1,-2.4354575E-2,-3.997817E-1,-1.2046542E0,5.57954E-1,8.8421607E-1,-3.6137506E-1,-1.0184416E0,-2.054652E-2,-6.1199434E-2,6.820913E-1,4.3186563E-1,3.4146303E-1,9.5653045E-1,-1.2895712E-1,-4.7978878E-1,-1.2699587E0,-8.133233E-3,7.1910805E-1,-1.8044393E-1,7.8106385E-1,3.3991584E-1,-1.2113982E-2,4.0200476E-2,1.9031474E-2,9.7698843E-1,9.617764E-3,-9.552421E-1,-1.2039249E0,-4.2033085E-1,-7.4418075E-2,-1.9277861E-2,4.1077244E-3,3.741455E-2,3.846323E-2,-6.288593E-2,4.2241283E-2,3.0055807E-3,-4.8381694E-2,1.9908449E-2,4.9979422E-2,1.9043619E-2,9.638457E-3,-2.1176582E-2,1.6937357E-3,-6.425372E-2,-1.29130455E-2,-7.315435E-2,-5.2931666E-2,-1.7801268E-2],"categories":[],"categories_nodes":[],"categories_segments":[],"categories_sizes":[],"default_left":[0,0,0,0,0,0,0,0,0,0,0,0,0,0,0,0,0,0,0,0,0,0,0,0,0,0,0,0,0,0,0,0,0,0,0,0,0,0,0,0,0,0,0,0,0,0,0,0,0,0,0,0,0],"id":25,"left_children":[1,3,5,7,-1,9,11,13,15,17,19,-1,-1,21,23,25,27,29,31,33,-1,35,37,39,41,-1,-1,-1,43,45,47,49,51,-1,-1,-1,-1,-1,-1,-1,-1,-1,-1,-1,-1,-1,-1,-1,-1,-1,-1,-1,-1],"loss_changes":[2.0297797E2,4.4659424E0,3.307836E1,3.7565308E0,0E0,4.4909973E0,5.568085E-1,3.4398422E0,1.4925423E0,5.279934E0,2.2479086E0,0E0,0E0,3.9131775E0,3.6225166E0,2.0860739E0,1.0346222E-1,7.6670346E0,5.014393E0,1.1000824E0,0E0,2.0542717E0,6.7742147E0,1.074009E0,7.8209286E0,0E0,0E0,0E0,1.3557053E-1,4.703845E0,3.1804543E0,1.8750334E0,4.549652E0,0E0,0E0,0E0,0E0,0E0,0E0,0E0,0E0,0E0,0E0,0E0,0E0,0E0,0E0,0E0,0E0,0E0,0E0,0E0,0E0],"parents":[2147483647,0,0,1,1,2,2,3,3,5,5,6,6,7,7,8,8,9,9,10,10,13,13,14,14,15,15,16,16,17,17,18,18,19,19,21,21,22,22,23,23,24,24,28,28,29,29,30,30,31,31,32,32],"right_children":[2,4,6,8,-1,10,12,14,16,18,20,-1,-1,22,24,26,28,30,32,34,-1,36,38,40,42,-1,-1,-1,44,46,48,50,52,-1,-1,-1,-1,-1,-1,-1,-1,-1,-1,-1,-1,-1,-1,-1,-1,-1,-1,-1,-1],"split_conditions":[3.0915898E-1,1.2456615E-2,1.5310238E-1,8.528278E-1,-2.4354575E-2,3.7585049E0,3.8300666E-1,4.6457306E-1,9.440528E-5,9.369664E-1,5.355474E-2,-2.054652E-2,-6.1199434E-2,2.87777E-1,-1.2846282E0,4.626522E-1,-1.4175743E0,1.5097061E-1,3.818196E-1,4.820858E-2,-8.133233E-3,2.3161024E-1,-2.1373178E-3,-2.3480968E-1,-1.202389E0,-1.2113982E-2,4.0200476E-2,1.9031474E-2,2.4744578E-1,5.908687E-3,3.5076258E0,-4.6508308E-3,3.253496E-1,-7.4418075E-2,-1.9277861E-2,4.1077244E-3,3.741455E-2,3.846323E-2,-6.288593E-2,4.2241283E-2,3.0055807E-3,-4.8381694E-2,1.9908449E-2,4.9979422E-2,1.9043619E-2,9.638457E-3,-2.1176582E-2,1.6937357E-3,-6.425372E-2,-1.29130455E-2,-7.315435E-2,-5.2931666E-2,-1.7801268E-2],"split_indices":[9,19,3,0,0,20,9,14,1,21,12,0,0,9,0,14,22,5,15,13,0,7,1,8,0,0,0,0,17,19,20,1,9,0,0,0,0,0,0,0,0,0,0,0,0,0,0,0,0,0,0,0,0],"split_type":[0,0,0,0,0,0,0,0,0,0,0,0,0,0,0,0,0,0,0,0,0,0,0,0,0,0,0,0,0,0,0,0,0,0,0,0,0,0,0,0,0,0,0,0,0,0,0,0,0,0,0,0,0],"sum_hessian":[5.575344E2,2.8597778E2,2.7155664E2,2.8293582E2,3.041942E0,2.0349925E2,6.805737E1,2.3758647E2,4.534935E1,1.930959E2,1.040335E1,2.147594E0,6.5909775E1,1.1749749E2,1.2008899E2,6.004526E0,3.9344826E1,6.5879395E1,1.27216515E2,7.6662245E0,2.7371259E0,1.12821884E2,4.6756067E0,2.3468412E1,9.6620575E1,2.86502E0,3.139506E0,2.022277E0,3.7322548E1,5.7264088E1,8.615305E0,8.192461E0,1.19024055E2,5.600323E0,2.065901E0,5.109782E0,1.077121E2,2.6368856E0,2.0387208E0,2.1403635E1,2.0647776E0,3.4551606E0,9.316541E1,3.5307144E1,2.0154016E0,4.0636467E1,1.662762E1,2.3788354E0,6.2364697E0,2.1916854E0,6.000776E0,9.478367E0,1.09545685E2],"tree_param":{"num_deleted":"0","num_feature":"24","num_nodes":"53","size_leaf_vector":"1"}},{"base_weights":[-5.9391E-3,5.8512986E-1,-6.182193E-1,5.975626E-1,-2.7560452E-2,-4.6535054E-1,-1.1365063E0,5.460734E-1,8.399597E-1,-1.7969069E-1,-5.484831E-1,-1.1765682E0,-6.5462175E-3,8.3731574E-1,4.7474173E-1,8.7469846E-1,2.437008E-3,-1.05318375E-1,-6.1717995E-2,-2.0928587E-1,-6.096517E-1,-1.2113582E0,-6.9277877E-1,3.0529296E-1,9.025273E-1,-4.0141842E-1,5.119151E-1,4.55882E-2,7.744153E-3,-4.1995224E-1,2.1471961E-1,-4.1988903E-1,4.4716783E-2,-7.5123504E-2,-6.599712E-1,-2.8996458E-2,-6.2142164E-2,-7.82059E-3,-5.1340487E-2,4.0323224E-2,-1.2572879E-2,4.8469063E-2,1.50232855E-2,1.4250631E-2,-5.9607297E-2,-1.9348037E-3,2.7198313E-2,1.2936098E-2,-4.00485E-2,-7.644447E-3,2.9924223E-2,2.4742391E-2,-3.133618E-2,-5.0245967E-2,1.7872294E-2,-7.1299165E-2,-2.9076386E-2],"categories":[],"categories_nodes":[],"categories_segments":[],"categories_sizes":[],"default_left":[0,0,0,0,0,0,0,0,0,0,0,0,0,0,0,0,0,0,0,0,0,0,0,0,0,0,0,0,0,0,0,0,0,0,0,0,0,0,0,0,0,0,0,0,0,0,0,0,0,0,0,0,0,0,0,0,0],"id":26,"left_children":[1,3,5,7,-1,9,11,13,15,17,19,21,-1,23,25,27,-1,29,-1,31,33,35,37,39,41,43,45,-1,-1,47,49,51,-1,53,55,-1,-1,-1,-1,-1,-1,-1,-1,-1,-1,-1,-1,-1,-1,-1,-1,-1,-1,-1,-1,-1,-1],"loss_changes":[1.9868123E2,4.275879E0,2.0835808E1,2.9959793E0,0E0,4.8867493E0,2.2923126E0,4.4048157E0,1.2392426E0,3.6984873E0,3.2361107E0,1.4160156E-1,0E0,1.2568455E0,6.3283615E0,1.0491638E0,0E0,4.7913218E0,0E0,6.4863954E0,3.630703E0,3.3348083E-1,9.5833087E-1,1.9701227E0,1.2718296E0,4.7970405E0,3.2114182E0,0E0,0E0,6.3824487E0,3.450006E0,4.6161113E0,0E0,5.547977E0,6.677452E0,0E0,0E0,0E0,0E0,0E0,0E0,0E0,0E0,0E0,0E0,0E0,0E0,0E0,0E0,0E0,0E0,0E0,0E0,0E0,0E0,0E0,0E0],"parents":[2147483647,0,0,1,1,2,2,3,3,5,5,6,6,7,7,8,8,9,9,10,10,11,11,13,13,14,14,15,15,17,17,19,19,20,20,21,21,22,22,23,23,24,24,25,25,26,26,29,29,30,30,31,31,33,33,34,34],"right_children":[2,4,6,8,-1,10,12,14,16,18,20,22,-1,24,26,28,-1,30,-1,32,34,36,38,40,42,44,46,-1,-1,48,50,52,-1,54,56,-1,-1,-1,-1,-1,-1,-1,-1,-1,-1,-1,-1,-1,-1,-1,-1,-1,-1,-1,-1,-1,-1],"split_conditions":[3.0915898E-1,2.5393263E-1,5.610689E-1,2.852267E-3,-2.7560452E-2,3.4662735E0,-2.3219866E-1,-4.2964155E-3,1.1186333E-2,9.308317E-3,2.352394E-1,4.145341E0,-6.5462175E-3,-2.4479437E-1,-4.0213675E-3,4.4346807E3,2.437008E-3,3.816951E-1,-6.1717995E-2,3.5991E3,3.6812252E-1,3.6157614E-3,6.2014014E-1,-1.5820168E-3,-2.3320337E-1,7.0176497E-3,1.3689607E-1,4.55882E-2,7.744153E-3,3.9399543E-1,4.007571E-1,1.1470262E0,4.4716783E-2,3.599876E-1,3.3769137E-1,-2.8996458E-2,-6.2142164E-2,-7.82059E-3,-5.1340487E-2,4.0323224E-2,-1.2572879E-2,4.8469063E-2,1.50232855E-2,1.4250631E-2,-5.9607297E-2,-1.9348037E-3,2.7198313E-2,1.2936098E-2,-4.00485E-2,-7.644447E-3,2.9924223E-2,2.4742391E-2,-3.133618E-2,-5.0245967E-2,1.7872294E-2,-7.1299165E-2,-2.9076386E-2],"split_indices":[9,6,7,2,0,20,8,2,1,2,6,20,0,8,2,18,0,17,0,18,7,19,7,23,8,23,3,0,0,15,15,16,0,17,9,0,0,0,0,0,0,0,0,0,0,0,0,0,0,0,0,0,0,0,0,0,0],"split_type":[0,0,0,0,0,0,0,0,0,0,0,0,0,0,0,0,0,0,0,0,0,0,0,0,0,0,0,0,0,0,0,0,0,0,0,0,0,0,0,0,0,0,0,0,0,0,0,0,0,0,0,0,0,0,0,0,0],"sum_hessian":[5.4699554E2,2.7834125E2,2.686543E2,2.7579785E2,2.5433953E0,2.0892865E2,5.9725643E1,2.3016066E2,4.5637196E1,4.7808987E1,1.6111967E2,5.7273853E1,2.4517899E0,4.3168453E1,1.869922E2,4.361668E1,2.0205135E0,4.568712E1,2.121868E0,2.5291676E1,1.3582799E2,5.2028507E1,5.2453465E0,5.3338957E0,3.7834557E1,7.2119174E0,1.7978029E2,4.1227108E1,2.3895736E0,2.288064E1,2.2806477E1,2.1758966E1,3.5327098E0,1.1900938E1,1.23927055E2,3.39341E0,4.8635098E1,2.576466E0,2.6688805E0,2.571017E0,2.762879E0,3.3504097E1,4.33046E0,4.202918E0,3.0089993E0,9.877966E0,1.6990231E2,8.342259E0,1.4538382E1,1.1955707E1,1.0850771E1,3.7558844E0,1.8003082E1,3.3585944E0,8.542343E0,9.916123E0,1.1401093E2],"tree_param":{"num_deleted":"0","num_feature":"24","num_nodes":"57","size_leaf_vector":"1"}},{"base_weights":[-3.6470802E-3,5.736827E-1,-5.7019436E-1,8.6223936E-1,5.193927E-1,-3.9936095E-1,-5.781324E-2,9.1709906E-1,4.0368038E-1,-5.349037E-1,5.5238116E-1,-1.9762397E-1,-5.07873E-1,6.437937E-1,5.0705522E-2,-6.6763423E-3,3.8952287E-2,1.2011052E-2,-7.230753E-2,5.671494E-1,-1.8341646E-2,-3.0556276E-1,3.9769223E-1,-3.6863828E-1,-8.988674E-1,4.221002E-2,-4.305487E-3,5.016721E-1,8.098418E-1,-1.5226279E-1,